1.623833179473876953e-02 -3.748165443539619446e-02 9.133549779653549194e-02 1.425283960998058319e-02 8.642987906932830811e-02 -6.840548012405633926e-03 -6.706857681274414062e-02 2.011428214609622955e-02 -9.168546646833419800e-02 -9.472852200269699097e-02 -6.593979429453611374e-03 -6.756606698036193848e-02 3.472921252250671387e-02 1.706298068165779114e-02 9.482270479202270508e-02 -5.013376008719205856e-03 -3.014791384339332581e-02 1.792368479073047638e-02 4.683211911469697952e-03 3.404450044035911560e-02 1.395755447447299957e-02 2.067478746175765991e-02 3.947714809328317642e-03 -7.322859950363636017e-03 -8.144326508045196533e-02 -5.865406617522239685e-02 -3.008290566504001617e-02 -1.534283012151718140e-01 -1.917783054523169994e-03 3.005927428603172302e-02 5.227968841791152954e-02 -8.324750699102878571e-03 -3.806666284799575806e-02 -7.483609765768051147e-02 -6.412602216005325317e-02 -1.528798136860132217e-02 -3.285652771592140198e-02 5.467159673571586609e-02 -1.434144284576177597e-02 -1.246679872274398804e-01 7.115459535270929337e-03 3.745600581169128418e-02 2.766306698322296143e-02 2.470727823674678802e-02 -1.468959636986255646e-02 -1.569044217467308044e-02 -7.605449855327606201e-02 -1.072212588042020798e-02 -1.346097700297832489e-02 -1.899493858218193054e-02 8.468000590801239014e-02 1.492054946720600128e-02 -7.239656895399093628e-02 -5.264506489038467407e-02 7.888541370630264282e-02 6.281471252441406250e-02 -4.850609228014945984e-03 -8.071614056825637817e-02 1.462386921048164368e-02 1.023999154567718506e-01 -8.413484692573547363e-02 6.780907511711120605e-03 -5.782215297222137451e-02 -9.450499713420867920e-02 -1.658536610193550587e-03 -2.580284886062145233e-02 -5.577751249074935913e-02 -1.016367692500352859e-02 -8.124515414237976074e-03 7.454198319464921951e-03 -7.168377190828323364e-02 -2.293136157095432281e-02 2.134994417428970337e-02 -5.087427422404289246e-02 -7.805187255144119263e-02 -1.800926215946674347e-02 2.863737754523754120e-03 -6.744565069675445557e-02 3.608893230557441711e-02 -9.625345468521118164e-02 -5.796673893928527832e-02 -2.471274696290493011e-02 -4.650573711842298508e-03 -8.838551491498947144e-02 -3.256750106811523438e-02 2.152693830430507660e-02 -4.824958369135856628e-02 -4.078305512666702271e-02 -6.420551240444183350e-02 -6.261600553989410400e-02 -1.144288107752799988e-01 -3.503099828958511353e-02 -3.660187497735023499e-02 -8.619964122772216797e-02 8.973701857030391693e-03 -5.334066972136497498e-02 5.491636227816343307e-03 2.440869249403476715e-02 5.475270748138427734e-02 -4.204349964857101440e-02
-2.433488890528678894e-02 6.294513493776321411e-02 -1.097747404128313065e-02 -3.967471420764923096e-03 -1.548704318702220917e-02 3.008813410997390747e-02 4.124118387699127197e-02 -5.510527640581130981e-02 -7.912092842161655426e-03 4.768631979823112488e-02 -1.779938931576907635e-03 -5.635385215282440186e-02 3.526490181684494019e-02 1.149168703705072403e-02 4.914976889267563820e-04 -2.110332436859607697e-02 6.307676434516906738e-02 -3.759997431188821793e-03 -3.709589689970016479e-02 1.841808110475540161e-02 9.963999502360820770e-03 -2.480989787727594376e-03 -1.842596568167209625e-03 4.487708956003189087e-02 -6.009592860937118530e-02 -4.702693223953247070e-02 -3.871953859925270081e-02 -7.468531280755996704e-02 -8.576950058341026306e-03 -7.995804399251937866e-02 1.495737209916114807e-02 -1.102172490209341049e-02 -2.165099978446960449e-02 4.743396770209074020e-03 -2.412060461938381195e-02 -5.247294157743453979e-02 1.523126289248466492e-02 2.843268215656280518e-02 2.266408130526542664e-02 -5.601723864674568176e-02 -7.849297672510147095e-02 9.089671075344085693e-02 -7.691545784473419189e-02 -3.063778392970561981e-02 8.872760087251663208e-02 -7.103952765464782715e-02 -3.303999081254005432e-02 -6.425052881240844727e-02 1.271596699953079224e-01 1.657855138182640076e-02 3.177026659250259399e-02 -1.284257136285305023e-02 6.866621226072311401e-02 4.790415521711111069e-03 -7.783996406942605972e-03 3.659395128488540649e-02 4.423208534717559814e-03 7.425698637962341309e-02 -4.837753996253013611e-02 1.858551986515522003e-02 -1.907708682119846344e-02 -4.225498810410499573e-02 -3.098535910248756409e-02 2.727584913372993469e-02 9.517882019281387329e-03 1.211379468441009521e-02 -2.902024611830711365e-02 -6.865995377302169800e-02 4.249358177185058594e-02 -2.128110080957412720e-02 -3.188631311058998108e-02 2.893310785293579102e-02 4.774294048547744751e-02 -2.142712846398353577e-02 1.728958077728748322e-02 -3.275349270552396774e-03 2.685469388961791992e-02 2.888461016118526459e-02 -7.169660180807113647e-02 8.098089694976806641e-02 2.778686583042144775e-02 -8.544627577066421509e-02 -4.259146377444267273e-02 7.924044132232666016e-02 -3.860623762011528015e-02 -8.562699891626834869e-03 -6.092755589634180069e-03 3.783040866255760193e-02 6.872936338186264038e-02 -7.492107897996902466e-02 -4.752537980675697327e-02 -3.938750177621841431e-02 -8.771479479037225246e-04 1.010995358228683472e-02 1.878380775451660156e-02 -5.946419760584831238e-02 -6.497092545032501221e-02 9.646417200565338135e-02 -3.777586854994297028e-03 5.209996551275253296e-02
6.380548235028982162e-03 1.790130510926246643e-02 -2.780023030936717987e-02 3.816818643826991320e-04 -5.633543804287910461e-02 3.253508731722831726e-02 -3.839546814560890198e-02 -3.592884866520762444e-03 1.149172931909561157e-01 -5.007849261164665222e-02 1.154078287072479725e-03 -9.173390269279479980e-02 -9.376119077205657959e-02 5.712396465241909027e-03 3.937638178467750549e-02 -1.691854186356067657e-02 2.785539627075195312e-02 -5.527765676379203796e-02 -3.075694106519222260e-02 9.160812944173812866e-03 6.809525191783905029e-02 2.013102732598781586e-02 -4.387687949929386377e-04 6.907911598682403564e-02 -7.248973101377487183e-02 1.840155757963657379e-02 -6.353177130222320557e-02 4.966229572892189026e-02 -4.121339414268732071e-03 -1.097753271460533142e-02 -6.348191201686859131e-02 -2.401116071268916130e-03 3.712137416005134583e-02 2.300456725060939789e-02 6.256123632192611694e-02 3.281565010547637939e-02 -1.044988445937633514e-02 -2.640667743980884552e-02 2.461489289999008179e-02 -5.576474219560623169e-02 3.462262079119682312e-02 -4.840714856982231140e-02 1.901953667402267456e-02 -2.820687554776668549e-02 -1.859626732766628265e-02 -7.437220960855484009e-02 1.974802277982234955e-02 1.005927920341491699e-01 9.935792535543441772e-02 1.714488142170011997e-03 8.726651221513748169e-02 -1.418785192072391510e-03 -1.293130870908498764e-02 7.606032490730285645e-02 -6.271059811115264893e-02 8.739718049764633179e-02 -3.249904140830039978e-02 5.463539808988571167e-02 1.546796411275863647e-02 6.010499224066734314e-02 -3.409233875572681427e-03 -1.580518111586570740e-02 -4.576055333018302917e-02 -1.532114949077367783e-02 -3.795599797740578651e-03 1.533341128379106522e-02 2.692223340272903442e-02 -1.877660118043422699e-02 -3.775533288717269897e-02 -5.004573613405227661e-02 9.152001142501831055e-02 -2.175878733396530151e-02 -1.478295959532260895e-02 2.807269804179668427e-02 -8.737211674451828003e-02 3.817949444055557251e-02 -9.357063099741935730e-03 -7.673610001802444458e-02 1.351150963455438614e-02 2.542448043823242188e-02 -1.904773153364658356e-02 -3.693637996912002563e-02 -1.016553640365600586e-01 -1.238771621137857437e-02 3.034919872879981995e-02 1.856073923408985138e-02 -3.505581617355346680e-02 -1.631210185587406158e-02 -1.196344266645610332e-03 1.570264995098114014e-02 7.475160062313079834e-02 8.226591348648071289e-02 -4.733987897634506226e-02 3.723123297095298767e-02 3.465160727500915527e-02 -8.652411634102463722e-04 -8.159504830837249756e-02 7.859017699956893921e-02 2.625440433621406555e-02 -6.626208871603012085e-02
-1.883388906717300415e-01 -7.920154184103012085e-02 1.239031460136175156e-02 -7.660241425037384033e-02 -8.787561953067779541e-02 -6.800366565585136414e-03 -4.838511720299720764e-02 -5.579467862844467163e-02 1.362640857696533203e-01 -1.471961755305528641e-02 3.080489486455917358e-02 -9.048842824995517731e-03 -1.190129294991493225e-01 -6.376648694276809692e-02 -5.417996644973754883e-02 -1.261864881962537766e-02 -6.040302664041519165e-02 -5.313477665185928345e-02 -2.739993296563625336e-02 -1.011693570762872696e-02 -2.216900140047073364e-02 -4.181611537933349609e-02 -3.106565959751605988e-02 5.087083578109741211e-02 -6.113841012120246887e-02 5.503221601247787476e-02 6.552153732627630234e-03 -3.045594692230224609e-02 3.534023836255073547e-02 -7.780175656080245972e-02 -3.015247732400894165e-02 6.944856047630310059e-02 -3.303709207102656364e-03 -9.656345844268798828e-02 -2.658756449818611145e-02 4.916141554713249207e-02 -9.188783168792724609e-02 2.170815132558345795e-02 -6.089485064148902893e-02 -1.672154641710221767e-03 -1.182307023555040359e-02 1.266818307340145111e-02 -4.493758082389831543e-02 -1.948896050453186035e-01 -5.910565331578254700e-02 -3.979075700044631958e-03 -7.910782843828201294e-02 4.337178915739059448e-02 -5.048204958438873291e-02 6.353892385959625244e-03 3.009475022554397583e-02 -4.954453557729721069e-03 1.080987527966499329e-01 3.695627674460411072e-02 -5.108836106956005096e-03 -9.477936476469039917e-02 -6.339800357818603516e-02 -4.035379737615585327e-02 -3.860813379287719727e-02 7.985459268093109131e-02 -5.342293158173561096e-02 -1.138286665081977844e-02 -7.961565256118774414e-02 1.167682856321334839e-01 -5.798114463686943054e-03 -1.717875748872756958e-01 -2.212279103696346283e-02 2.273450233042240143e-02 -1.464854553341865540e-02 9.879232943058013916e-02 4.299917817115783691e-02 9.322912432253360748e-03 5.603155121207237244e-03 -1.676951721310615540e-02 -8.469971269369125366e-02 5.977977067232131958e-02 8.008892834186553955e-02 -3.422925993800163269e-02 -4.298149421811103821e-02 -8.977067470550537109e-02 -8.014100603759288788e-03 6.105810403823852539e-02 -6.078128516674041748e-02 -5.608334392309188843e-02 -1.035596951842308044e-01 -1.462963968515396118e-01 -1.063070539385080338e-02 -7.671889662742614746e-02 2.779354527592658997e-02 -4.055188503116369247e-03 -1.145972758531570435e-01 -1.026814877986907959e-01 -4.627207235898822546e-04 3.635147958993911743e-02 2.694204822182655334e-02 9.164083003997802734e-02 -6.118189543485641479e-03 3.572368621826171875e-02 -3.642804548144340515e-02 5.030242027714848518e-04
1.711346209049224854e-01 -9.961636736989021301e-03 7.004427909851074219e-02 -4.108305647969245911e-02 -1.067523509263992310e-01 -7.302916049957275391e-02 -1.637480221688747406e-02 3.834270872175693512e-03 -1.032618135213851929e-01 9.066707640886306763e-02 2.514473721385002136e-02 3.473552688956260681e-02 3.518704324960708618e-03 -4.978817328810691833e-02 -6.377442926168441772e-02 -9.207420982420444489e-03 1.662313751876354218e-02 -6.301052123308181763e-02 6.135446205735206604e-02 7.431301474571228027e-02 -2.339706383645534515e-02 -5.581042915582656860e-02 -1.033879630267620087e-02 2.584468200802803040e-02 -4.333077464252710342e-03 3.723043203353881836e-02 -7.284131646156311035e-02 -7.085190713405609131e-02 3.980087116360664368e-02 -7.675721496343612671e-02 -4.383826628327369690e-02 5.365140736103057861e-02 7.344048470258712769e-02 -5.331063270568847656e-02 3.163235029205679893e-03 -8.416100591421127319e-02 -5.627540126442909241e-02 -8.891197293996810913e-02 3.196309879422187805e-02 1.403138507157564163e-02 6.036151573061943054e-02 -4.790696874260902405e-02 4.341809451580047607e-02 -1.191283538937568665e-01 7.140208780765533447e-02 7.534684240818023682e-02 -1.809131167829036713e-02 8.191300928592681885e-02 -3.127471730113029480e-02 3.658018261194229126e-02 -7.907912135124206543e-02 -2.853658795356750488e-02 8.160799741744995117e-02 -1.927025616168975830e-02 5.002022162079811096e-02 -7.603718340396881104e-02 -1.566923558712005615e-01 1.936642080545425415e-02 -9.113665670156478882e-03 5.043205618858337402e-02 -1.119345240294933319e-02 -1.363013535737991333e-01 -2.148407325148582458e-02 -3.950436413288116455e-02 6.186356768012046814e-04 1.329596340656280518e-01 9.097693115472793579e-02 2.939419448375701904e-02 7.644818723201751709e-02 5.469263345003128052e-02 -8.445081859827041626e-02 1.234187185764312744e-02 4.591541737318038940e-02 -4.988196492195129395e-02 5.514844134449958801e-02 6.242149323225021362e-02 -8.753498643636703491e-02 7.200210541486740112e-02 -9.779411554336547852e-02 -5.429629236459732056e-02 -6.875238567590713501e-02 3.147969394922256470e-02 -4.962348565459251404e-02 -9.464775025844573975e-02 -1.968580298125743866e-02 -3.694222774356603622e-03 -3.469276800751686096e-02 1.081041246652603149e-02 4.936308041214942932e-02 2.455852518323808908e-04 1.707546599209308624e-02 8.500629663467407227e-02 -2.021844498813152313e-02 -8.784762024879455566e-02 -9.429462999105453491e-02 -9.821611642837524414e-02 3.412877768278121948e-02 -1.063366010785102844e-01 -5.017267167568206787e-02 3.742410242557525635e-02
-5.787614267319440842e-03 -3.134092083200812340e-03 2.196024358272552490e-02 -1.467003393918275833e-02 -2.711849473416805267e-02 -7.389350235462188721e-02 8.346106857061386108e-02 3.286761045455932617e-02 -1.235355660319328308e-01 8.298560231924057007e-02 4.608365707099437714e-03 -6.602335721254348755e-02 -3.280786052346229553e-02 3.328311443328857422e-02 -3.827448561787605286e-02 2.503970824182033539e-02 -4.687797650694847107e-02 9.404114633798599243e-02 -5.081810802221298218e-02 3.112838789820671082e-02 -8.590910583734512329e-02 1.038180664181709290e-01 -5.475189536809921265e-03 -8.311104029417037964e-02 3.890102496370673180e-03 -3.463935106992721558e-03 2.136420272290706635e-02 -3.652523271739482880e-03 1.556920818984508514e-02 2.502370625734329224e-02 2.558035589754581451e-02 9.213874116539955139e-03 -1.569407293573021889e-03 -9.361953288316726685e-02 -3.298676759004592896e-02 1.259032171219587326e-02 7.045712321996688843e-02 6.906434148550033569e-02 -3.499411419034004211e-02 -7.863964140415191650e-02 -2.665910683572292328e-02 -8.335269242525100708e-02 3.802223503589630127e-02 -7.171753793954849243e-02 -7.944685965776443481e-02 6.730224937200546265e-02 -3.650412335991859436e-02 5.352878943085670471e-02 9.040401130914688110e-02 1.693892292678356171e-02 8.948492258787155151e-02 -1.345513947308063507e-02 2.269520796835422516e-02 6.594946235418319702e-02 -2.003465406596660614e-02 5.444070324301719666e-02 -3.322208300232887268e-02 -1.032583266496658325e-01 3.101603873074054718e-02 6.240241974592208862e-02 -4.164212197065353394e-02 1.995502039790153503e-02 -3.691962733864784241e-02 -9.150699526071548462e-02 4.681131977122277021e-04 1.103047514334321022e-03 -7.047728449106216431e-02 -3.788426518440246582e-02 3.427232429385185242e-02 8.929237723350524902e-03 2.970431372523307800e-02 -1.067436560988426208e-01 -1.448025181889533997e-02 9.570074826478958130e-02 -1.896083354949951172e-02 2.768574282526969910e-02 4.021385218948125839e-03 -4.415713716298341751e-03 -1.379512548446655273e-01 -9.799444675445556641e-02 -2.967651188373565674e-02 -5.446860939264297485e-02 3.249976411461830139e-02 -2.804970555007457733e-02 6.119597703218460083e-02 1.922146044671535492e-02 5.997190717607736588e-03 4.616356641054153442e-02 -6.643596291542053223e-02 2.740629948675632477e-02 -6.192357838153839111e-02 1.081601604819297791e-01 -1.211341097950935364e-02 2.446412667632102966e-02 5.246283486485481262e-03 -1.294382382184267044e-02 3.581631183624267578e-02 4.863444343209266663e-02 -6.839802116155624390e-02 3.859201446175575256e-02
-4.620592296123504639e-02 -1.213007047772407532e-01 -7.277041673660278320e-02 7.719843834638595581e-02 -3.598758252337574959e-03 -5.273347720503807068e-02 -5.989163368940353394e-02 -5.299415811896324158e-02 2.230153083801269531e-01 -9.694886952638626099e-02 1.196104474365711212e-02 -5.959435552358627319e-02 -1.738237440586090088e-01 -9.041167795658111572e-02 -8.244471251964569092e-02 1.983640342950820923e-02 -4.774790629744529724e-02 2.817332744598388672e-02 -2.142384089529514313e-02 -1.516063362360000610e-01 -1.112073585391044617e-01 -1.375591307878494263e-01 4.646551236510276794e-02 -6.552858650684356689e-02 -1.465291678905487061e-01 1.701027527451515198e-02 4.915585741400718689e-02 1.615764051675796509e-01 -1.556725706905126572e-02 -8.437872678041458130e-02 -1.267880946397781372e-01 -1.283863466233015060e-02 -4.147417377680540085e-03 4.675175994634628296e-02 6.363490130752325058e-03 -9.661199152469635010e-02 9.219934791326522827e-02 -8.464636653661727905e-02 5.532671138644218445e-02 -1.179511100053787231e-01 -1.331063546240329742e-02 -9.603337198495864868e-02 -8.273995667695999146e-02 5.643420666456222534e-02 -3.883352503180503845e-02 -2.419778890907764435e-02 1.814891211688518524e-02 -2.758954837918281555e-02 -3.212179290130734444e-03 -5.910885334014892578e-02 3.133325651288032532e-02 4.631867632269859314e-02 -4.140664357692003250e-03 5.480019003152847290e-02 -9.672674536705017090e-02 3.471512719988822937e-02 -1.323397457599639893e-01 8.610659837722778320e-02 7.474784553050994873e-02 6.135563552379608154e-02 3.083359450101852417e-02 -3.391910344362258911e-02 4.422955214977264404e-02 -9.515202045440673828e-02 -1.297319307923316956e-02 1.562101244926452637e-01 8.723498880863189697e-02 -1.907967403531074524e-02 -5.433270707726478577e-03 -7.287427783012390137e-02 -7.212398946285247803e-02 -6.830064952373504639e-02 8.295107632875442505e-03 1.375619769096374512e-01 5.172119289636611938e-02 -2.540072426199913025e-02 7.687639445066452026e-02 1.278388053178787231e-01 1.617770455777645111e-02 -1.588714192621409893e-03 -1.419732812792062759e-02 -5.209374427795410156e-02 8.973677456378936768e-02 -5.269563943147659302e-02 -1.230799779295921326e-01 1.390750259160995483e-01 -3.341104462742805481e-02 -4.179734364151954651e-02 9.100095182657241821e-02 -2.885802276432514191e-02 -2.061632275581359863e-01 -2.100206613540649414e-01 -2.706743311136960983e-03 6.944914162158966064e-02 -1.138212755322456360e-01 -5.102139711380004883e-02 -5.264796689152717590e-02 6.219662353396415710e-02 1.194344554096460342e-02 -4.269736260175704956e-02
1.864086464047431946e-02 1.482019871473312378e-01 1.682008802890777588e-02 7.919325493276119232e-03 8.548845350742340088e-02 -7.259206380695104599e-03 1.693920977413654327e-02 -8.512554317712783813e-02 -5.804786831140518188e-02 -1.401303149759769440e-02 1.242820452898740768e-02 -9.658827446401119232e-03 6.909132748842239380e-02 2.767285518348217010e-02 -3.080504573881626129e-02 -4.946335777640342712e-02 -7.101836800575256348e-02 1.344036590307950974e-02 8.704963326454162598e-02 3.215819001197814941e-01 8.829014748334884644e-02 8.354363590478897095e-02 -2.368898689746856689e-02 -1.696385256946086884e-02 6.374297291040420532e-02 1.095253787934780121e-02 -7.924912869930267334e-02 -5.851805955171585083e-02 2.556135691702365875e-02 -1.153340935707092285e-01 3.735376149415969849e-02 -3.487896174192428589e-03 -2.573293074965476990e-02 -1.026048436760902405e-01 -8.460617065429687500e-02 -5.649177357554435730e-02 4.550907178781926632e-04 -5.341458320617675781e-02 -9.960012137889862061e-02 -1.337443441152572632e-01 -9.155780076980590820e-02 -1.789470575749874115e-02 -1.976651698350906372e-01 1.271756086498498917e-02 -4.562523588538169861e-02 1.780412346124649048e-02 4.811985418200492859e-03 -8.155824989080429077e-02 -1.485353261232376099e-01 -9.730193018913269043e-02 7.550456095486879349e-03 7.587707787752151489e-02 1.176679972559213638e-02 -1.606774702668190002e-02 -9.097614139318466187e-02 -8.254082500934600830e-02 -1.571187376976013184e-01 -3.809999441727995872e-03 -6.448990851640701294e-02 -2.538142167031764984e-02 4.606154561042785645e-02 6.174072623252868652e-02 3.755478560924530029e-02 4.970999807119369507e-02 2.088540606200695038e-02 -4.774501547217369080e-02 5.583379790186882019e-02 8.653951436281204224e-02 3.172984719276428223e-02 -2.338776178658008575e-02 -8.951749652624130249e-02 -1.197260897606611252e-02 4.972461238503456116e-02 5.552820116281509399e-02 1.898856833577156067e-02 -1.593248918652534485e-02 -1.184399612247943878e-02 2.521944418549537659e-02 -9.542455524206161499e-02 9.783979505300521851e-02 5.314421723596751690e-04 -3.155817836523056030e-02 4.413175582885742188e-02 9.635598212480545044e-02 -6.712862104177474976e-02 -5.759163573384284973e-02 -1.740450710058212280e-01 -9.991710633039474487e-02 1.795152015984058380e-02 9.281371533870697021e-02 1.861376017332077026e-01 9.867370873689651489e-02 -8.789920061826705933e-02 1.552773080766201019e-02 -9.684377908706665039e-02 1.382408547215163708e-03 -1.273451652377843857e-02 -5.734035279601812363e-03 3.184301406145095825e-02 -6.755492836236953735e-02
-1.829160004854202271e-02 -1.527657080441713333e-02 8.029062300920486450e-02 1.624586246907711029e-02 -4.994917660951614380e-02 1.113551706075668335e-01 -4.034970328211784363e-02 -1.126875132322311401e-01 1.284928768873214722e-01 7.113462686538696289e-02 -1.343500148504972458e-02 -4.951468855142593384e-02 -1.154111176729202271e-01 -2.644798718392848969e-02 5.211479961872100830e-02 1.574399508535861969e-02 -6.266986578702926636e-02 7.830393314361572266e-02 -3.272044414188712835e-04 2.342075109481811523e-01 -9.803157299757003784e-02 -1.016591638326644897e-01 -3.268385678529739380e-02 -2.315135113894939423e-02 1.325460523366928101e-01 -7.206916064023971558e-02 2.025011181831359863e-02 1.214549690485000610e-01 2.474338002502918243e-02 -1.642517149448394775e-01 -4.435706138610839844e-02 -1.250086911022663116e-02 -1.183650572784245014e-03 -1.482125967741012573e-01 -1.424073278903961182e-01 2.168214321136474609e-02 -1.195694413036108017e-02 1.835225969552993774e-01 -1.145602762699127197e-01 -4.503339901566505432e-02 1.699305884540081024e-02 2.170725911855697632e-02 1.079372987151145935e-01 3.820845112204551697e-02 1.003858353942632675e-02 3.634618595242500305e-02 -9.545189887285232544e-02 -7.920882105827331543e-02 1.668093800544738770e-01 -1.077061798423528671e-02 2.429447695612907410e-02 7.854753173887729645e-03 -8.115509897470474243e-02 -8.759504556655883789e-02 2.469811215996742249e-02 -5.029833316802978516e-02 3.059883974492549896e-02 2.662977389991283417e-02 7.640448212623596191e-02 1.800168156623840332e-01 -9.624182432889938354e-02 -1.681686565279960632e-02 -8.494300395250320435e-02 7.673165947198867798e-02 3.944999538362026215e-03 -6.294514983892440796e-03 -1.881429105997085571e-01 -5.702689662575721741e-02 -4.625854082405567169e-03 -1.231676200404763222e-03 -7.455873489379882812e-02 -3.829560428857803345e-02 -3.770923614501953125e-02 -1.106182560324668884e-01 4.084798973053693771e-03 -1.893946342170238495e-02 -1.517477929592132568e-01 1.055630296468734741e-01 -6.531237158924341202e-03 7.514014095067977905e-02 3.669841587543487549e-02 4.891793802380561829e-02 8.962475508451461792e-02 1.519240811467170715e-02 5.592157319188117981e-02 -7.837626338005065918e-02 -1.439472883939743042e-01 7.240983843803405762e-02 -2.688869275152683258e-02 -8.443063497543334961e-02 -1.264354307204484940e-02 1.167550012469291687e-01 -7.147286832332611084e-02 -2.134346216917037964e-02 3.681266680359840393e-02 -2.077930048108100891e-02 -1.148325949907302856e-01 4.777083522640168667e-04 1.205092947930097580e-02 -1.080803498625755310e-01
1.100265905261039734e-01 -1.779324002563953400e-02 1.195842251181602478e-01 2.502334676682949066e-02 3.397109359502792358e-02 -9.209742397069931030e-02 -4.424832388758659363e-02 1.025691442191600800e-02 8.299525827169418335e-02 5.623649805784225464e-02 4.541588015854358673e-03 -7.253802567720413208e-02 2.710507996380329132e-02 7.051340490579605103e-02 -3.708248212933540344e-02 -1.753314025700092316e-02 8.534684032201766968e-02 2.645961754024028778e-02 -1.466605812311172485e-01 8.490742184221744537e-03 -7.169490307569503784e-02 -3.332836925983428955e-01 8.756359107792377472e-03 -7.858312688767910004e-03 -5.327641591429710388e-02 8.123315870761871338e-02 -8.770280331373214722e-02 -3.537581861019134521e-02 -5.161108449101448059e-03 -4.860586673021316528e-02 -6.581864506006240845e-02 -5.146874114871025085e-03 -6.937775295227766037e-03 5.210351943969726562e-02 2.995062619447708130e-02 1.192404404282569885e-01 -5.691172555088996887e-02 3.103728406131267548e-02 -1.512339413166046143e-01 -1.955466344952583313e-02 -2.121298387646675110e-02 -3.740150481462478638e-02 -1.159780547022819519e-01 4.824405163526535034e-02 -8.817916363477706909e-02 2.932864241302013397e-02 1.419595209881663322e-03 5.909125134348869324e-02 -1.149429604411125183e-01 1.191368699073791504e-01 6.462237238883972168e-02 -9.198943525552749634e-02 -3.180235251784324646e-02 -7.407525181770324707e-02 8.075957745313644409e-02 -9.124044328927993774e-02 -3.069383278489112854e-02 2.495353342965245247e-03 -1.426927838474512100e-02 9.922265261411666870e-02 -9.635789319872856140e-03 1.539311707019805908e-01 3.655864670872688293e-02 5.683530494570732117e-02 -3.742564097046852112e-02 -2.150901854038238525e-01 -3.120510466396808624e-02 -5.236173793673515320e-02 -6.885476410388946533e-02 -1.673666834831237793e-01 2.740014344453811646e-02 5.924458056688308716e-02 4.930155351758003235e-02 1.008879542350769043e-01 -8.398613333702087402e-02 -1.810042187571525574e-02 -1.430549770593643188e-01 -1.114984080195426941e-01 -1.370382159948348999e-01 1.954795233905315399e-02 -1.202155947685241699e-01 5.643013864755630493e-02 1.157437562942504883e-01 -2.527765743434429169e-02 -6.915248185396194458e-02 -4.946961626410484314e-02 -6.124193593859672546e-02 3.075629007071256638e-03 -6.444353610277175903e-02 -1.975460350513458252e-02 -7.102707773447036743e-02 2.108672261238098145e-02 5.034555122256278992e-02 1.389714516699314117e-02 -4.092198610305786133e-02 -1.075256019830703735e-01 2.838193438947200775e-02 -2.359068393707275391e-02 -9.299877285957336426e-02 -1.882715383544564247e-03
-3.694281727075576782e-02 9.483362548053264618e-03 -1.410493254661560059e-02 -6.811316125094890594e-03 1.051313281059265137e-01 2.658410556614398956e-02 7.558930665254592896e-02 -5.403205379843711853e-02 -6.149190664291381836e-02 6.444486230611801147e-02 -1.138744503259658813e-02 4.078628122806549072e-02 6.121947243809700012e-02 -6.194111425429582596e-03 -3.962181136012077332e-02 1.415182352066040039e-01 1.860582381486892700e-01 4.968776181340217590e-02 -1.230944544076919556e-01 -1.656708568334579468e-01 1.531317532062530518e-01 -1.127188578248023987e-01 2.573297533672302961e-04 8.250005543231964111e-02 7.884532213211059570e-02 9.419930726289749146e-02 -6.448933482170104980e-02 -1.690114736557006836e-01 -1.211955118924379349e-02 -5.012781172990798950e-02 -6.282062828540802002e-02 2.229655801784247160e-04 -2.253419533371925354e-02 3.939428366720676422e-03 8.411580324172973633e-02 -4.897252842783927917e-02 2.578347176313400269e-02 -1.328236050903797150e-02 -1.046980321407318115e-01 9.306439012289047241e-02 9.906148165464401245e-02 4.649348929524421692e-02 1.144684404134750366e-01 -6.026969850063323975e-02 -6.764061748981475830e-02 -2.020643651485443115e-02 -5.254367366433143616e-02 4.413558170199394226e-02 4.266900941729545593e-02 -8.724731206893920898e-02 1.792269386351108551e-02 6.808680295944213867e-02 -2.666987851262092590e-02 -6.968858093023300171e-02 5.278316512703895569e-02 6.705210357904434204e-02 -3.429225832223892212e-02 3.952155262231826782e-02 -6.909078359603881836e-02 2.993712723255157471e-01 -8.356025815010070801e-02 -9.931134991347789764e-03 -6.867179274559020996e-02 8.888553828001022339e-03 -2.352668531239032745e-02 -2.665654756128787994e-02 1.285158749669790268e-02 4.448052495718002319e-02 -3.882898017764091492e-02 -1.596261374652385712e-02 1.069425195455551147e-01 -1.545054954476654530e-03 6.420731544494628906e-02 5.318795144557952881e-02 -8.565678447484970093e-02 -1.878154464066028595e-02 2.397762052714824677e-02 8.849655091762542725e-02 1.170946732163429260e-01 -7.167629152536392212e-02 2.726596081629395485e-03 -7.401034981012344360e-02 -2.136426419019699097e-02 1.431965269148349762e-02 9.408286213874816895e-02 1.003985777497291565e-01 -2.116107940673828125e-02 -1.952318288385868073e-02 -8.957216143608093262e-02 6.338735669851303101e-02 -8.318585902452468872e-02 6.156435608863830566e-02 -5.956431850790977478e-02 5.730811972171068192e-03 -1.072040274739265442e-01 5.636761337518692017e-02 4.545407369732856750e-02 2.925651147961616516e-03 -1.333299744874238968e-02 6.525757908821105957e-02
-6.225861981511116028e-02 2.061088569462299347e-02 3.861720208078622818e-03 2.559979213401675224e-03 -5.907946079969406128e-02 -4.807258769869804382e-02 -1.555099617689847946e-02 5.205266550183296204e-02 -4.543231800198554993e-02 -7.624086737632751465e-02 -7.309707812964916229e-03 -1.001136153936386108e-01 -1.429232396185398102e-02 -4.325051791965961456e-03 3.883230686187744141e-02 1.930657327175140381e-01 -8.891369402408599854e-02 -7.693791389465332031e-02 7.523265480995178223e-02 6.994906812906265259e-02 1.153830736875534058e-01 -4.855029657483100891e-02 -4.147293977439403534e-03 -6.248321756720542908e-02 3.192783566191792488e-03 2.001613005995750427e-02 3.342184424400329590e-02 3.135356307029724121e-02 7.113989908248186111e-03 -9.590512514114379883e-02 5.078055546618998051e-04 -6.863751914352178574e-03 3.043799102306365967e-02 -1.089631840586662292e-01 -1.246700435876846313e-01 -1.769177243113517761e-02 -1.351542538031935692e-03 9.393940865993499756e-02 6.261961162090301514e-02 -1.175864860415458679e-01 -3.025765530765056610e-02 -4.590415582060813904e-02 1.020389497280120850e-01 3.315933048725128174e-02 9.855230897665023804e-02 -4.763985797762870789e-02 -8.179603517055511475e-02 6.726262718439102173e-02 -1.796891093254089355e-01 -6.467477977275848389e-02 5.753276869654655457e-02 4.925296455621719360e-02 -8.227990567684173584e-02 -5.033344496041536331e-03 6.752882897853851318e-02 -9.006344527006149292e-02 -1.377182155847549438e-01 -8.677905052900314331e-02 -1.964152418076992035e-02 8.482058346271514893e-02 -1.989002339541912079e-03 1.387339644134044647e-02 7.553398609161376953e-02 -6.379424780607223511e-02 1.660980470478534698e-02 1.040777377784252167e-02 -9.611728787422180176e-02 -8.683339506387710571e-02 -5.527440086007118225e-02 -5.146847572177648544e-03 1.438631117343902588e-01 -4.041930660605430603e-02 4.294900596141815186e-02 -5.120216868817806244e-03 -6.230062991380691528e-02 -5.688313394784927368e-03 -1.157698109745979309e-01 1.549607887864112854e-02 -7.084772735834121704e-02 5.883258581161499023e-02 4.884606599807739258e-02 7.479361444711685181e-02 -4.420569911599159241e-02 7.926625013351440430e-02 4.309252649545669556e-02 4.528013616800308228e-02 1.907382905483245850e-01 -6.420879811048507690e-02 -6.268373131752014160e-02 -4.519500304013490677e-03 -7.106104493141174316e-02 -6.547468900680541992e-02 -5.331551656126976013e-02 -6.734193116426467896e-02 1.790901422500610352e-01 -1.021976321935653687e-01 -7.132460828870534897e-03 -8.415491320192813873e-03 8.853919804096221924e-02 -1.210699416697025299e-02
-1.943539269268512726e-02 2.677248604595661163e-02 7.369045168161392212e-02 -5.561504978686571121e-03 2.835259586572647095e-02 -3.518445044755935669e-02 -8.790049701929092407e-02 6.636096537113189697e-02 -3.606764599680900574e-02 -2.547232434153556824e-04 5.859375000000000000e-03 -8.715603500604629517e-03 3.160306066274642944e-02 -2.634647302329540253e-02 6.393988430500030518e-02 -5.356455687433481216e-03 3.002103604376316071e-02 -6.529216468334197998e-02 -8.875803090631961823e-03 5.681883543729782104e-02 -1.264255940914154053e-01 -4.234584048390388489e-02 -1.473349519073963165e-03 -3.397334739565849304e-02 5.680236965417861938e-02 -1.506541203707456589e-02 6.571494042873382568e-02 -2.840653806924819946e-02 -9.089465020224452019e-04 9.703534841537475586e-02 -5.103506147861480713e-02 8.852289989590644836e-03 7.432824373245239258e-02 -6.891393661499023438e-02 -6.365914642810821533e-02 -2.308761700987815857e-02 5.272863432765007019e-02 5.644174292683601379e-03 -1.000978574156761169e-01 -1.916337944567203522e-02 -2.223529852926731110e-02 3.511381149291992188e-02 -1.076422557234764099e-01 -6.315136700868606567e-02 -1.472782045602798462e-01 -8.151675760746002197e-02 2.222929336130619049e-02 -1.846912689507007599e-02 -2.406673319637775421e-02 -8.477087318897247314e-02 -2.487813681364059448e-02 6.572817265987396240e-02 -5.531598255038261414e-02 -2.126695122569799423e-03 5.623195786029100418e-03 2.113590203225612640e-02 -3.172932937741279602e-02 8.166611194610595703e-02 6.733343750238418579e-02 1.699623098829761147e-04 -7.320229709148406982e-02 -6.463290005922317505e-02 -1.076626479625701904e-01 2.379808016121387482e-02 6.759724579751491547e-03 2.874838411808013916e-01 -6.076487246900796890e-03 -4.032446444034576416e-02 2.077696658670902252e-02 -1.158684715628623962e-01 -7.651213556528091431e-03 4.876546189188957214e-02 4.059578478336334229e-02 -9.016273170709609985e-02 6.943928450345993042e-02 3.464742004871368408e-02 -1.075942143797874451e-01 -7.659123837947845459e-02 -8.318148553371429443e-02 6.320239603519439697e-02 -4.596329759806394577e-03 -6.517931818962097168e-02 -2.841948717832565308e-02 9.887374192476272583e-02 1.220967546105384827e-01 2.212503738701343536e-02 1.860865578055381775e-02 -1.567565649747848511e-02 4.638586938381195068e-02 -7.927560061216354370e-02 -5.598187819123268127e-02 -1.127571612596511841e-01 2.211313322186470032e-02 9.432335197925567627e-02 -9.096308797597885132e-02 -9.600464999675750732e-02 -2.909610420465469360e-02 -9.219535440206527710e-02 2.055349759757518768e-02 -4.829073697328567505e-02
2.900425158441066742e-02 6.859584152698516846e-02 -3.686349093914031982e-02 1.077794004231691360e-03 -5.022086575627326965e-02 -3.817996382713317871e-02 -6.251348555088043213e-02 4.035313799977302551e-02 -3.196636587381362915e-02 -7.400379329919815063e-02 -2.825901377946138382e-03 6.769409030675888062e-02 -1.144078187644481659e-02 5.493906792253255844e-03 -2.395341917872428894e-02 -7.920183241367340088e-02 4.026442766189575195e-02 -2.122012339532375336e-02 -4.760091379284858704e-02 -4.328426718711853027e-02 5.547715350985527039e-02 -5.033631250262260437e-02 2.967435284517705441e-04 -9.443391859531402588e-02 4.256839677691459656e-02 -3.639831021428108215e-02 3.314509615302085876e-02 -6.148197688162326813e-03 -2.106363186612725258e-03 -4.986470937728881836e-02 4.373618960380554199e-02 -1.823714468628168106e-03 -1.854366995394229889e-02 6.250168662518262863e-03 1.016439497470855713e-01 -3.718451410531997681e-02 3.062629699707031250e-02 1.119509618729352951e-02 -5.780981108546257019e-02 -7.503904402256011963e-02 -1.773238182067871094e-04 -7.137085497379302979e-02 -6.215627118945121765e-02 7.904826104640960693e-02 -1.020150142721831799e-03 -4.969679564237594604e-02 1.152099445462226868e-01 2.742120623588562012e-02 7.238709181547164917e-02 1.834992319345474243e-02 -7.413721829652786255e-02 -1.409781537950038910e-02 -7.204665988683700562e-02 -7.124810945242643356e-03 -3.937222808599472046e-02 6.588412821292877197e-02 -1.785516366362571716e-02 2.756850235164165497e-02 -6.602259725332260132e-02 -3.107974492013454437e-02 -1.444317493587732315e-02 -1.578117534518241882e-02 8.860416710376739502e-02 -5.369701981544494629e-02 -1.465766504406929016e-02 -2.446245588362216949e-02 -1.154919713735580444e-02 -5.027619004249572754e-02 6.423780322074890137e-02 1.311862319707870483e-01 -2.148870937526226044e-02 -5.507389828562736511e-02 6.274940818548202515e-02 -5.612221360206604004e-02 5.179369822144508362e-02 2.305729314684867859e-02 3.222200646996498108e-02 1.104231327772140503e-01 1.711368374526500702e-02 -5.836565420031547546e-02 -5.876488611102104187e-02 -3.355357050895690918e-02 2.492355182766914368e-02 5.820396170020103455e-02 8.899819105863571167e-02 3.045098623260855675e-03 1.025544479489326477e-01 9.833794087171554565e-02 -3.067841008305549622e-02 8.819992095232009888e-02 2.114587835967540741e-02 -8.730872720479965210e-02 5.701718479394912720e-02 -9.071894735097885132e-02 2.282623015344142914e-02 -5.097670946270227432e-03 -1.095127663575112820e-04 5.086629837751388550e-02 8.354663103818893433e-02 1.621007546782493591e-02
9.252311661839485168e-03 2.912793681025505066e-02 -4.510546848177909851e-02 5.044921999797224998e-04 1.512943673878908157e-02 6.404049228876829147e-03 -1.491791568696498871e-02 5.108379572629928589e-02 -5.798591673374176025e-02 -1.028520148247480392e-02 -1.407103147357702255e-03 1.364844851195812225e-02 -6.265121698379516602e-02 6.647948920726776123e-02 6.571511924266815186e-02 1.136337965726852417e-02 5.710546672344207764e-02 -2.347425743937492371e-02 -3.996114712208509445e-03 1.865592971444129944e-02 -1.232573995366692543e-03 1.313597429543733597e-02 -9.622197831049561501e-05 8.743894286453723907e-03 -5.414916202425956726e-02 -4.144420102238655090e-02 1.349320542067289352e-02 -3.928834572434425354e-03 2.649393631145358086e-03 1.360489986836910248e-02 1.288710627704858780e-02 -1.332152402028441429e-03 -1.310073421336710453e-03 4.816241189837455750e-02 -3.659952431917190552e-02 -1.794229377992451191e-03 -1.721980981528759003e-02 7.900204509496688843e-03 7.336815446615219116e-02 -1.172601059079170227e-01 9.690185636281967163e-02 -4.533255472779273987e-02 6.605425477027893066e-02 3.228630230296403170e-04 -8.240468800067901611e-02 -7.581020891666412354e-02 5.727069452404975891e-02 -6.745294481515884399e-02 -1.987485401332378387e-02 -3.177947178483009338e-02 -9.877296537160873413e-02 2.459175139665603638e-02 2.453527227044105530e-02 -6.337077170610427856e-02 5.614939332008361816e-02 -1.167093496769666672e-02 -8.110019564628601074e-02 3.406757954508066177e-03 2.296574227511882782e-02 1.304996460676193237e-01 -6.294638663530349731e-02 8.622229099273681641e-02 5.777648091316223145e-02 -5.148223042488098145e-02 4.938387777656316757e-03 -1.913360133767127991e-02 -7.897200994193553925e-03 2.736664842814207077e-03 -2.974533848464488983e-02 1.043462082743644714e-01 3.382066730409860611e-03 -1.293324050493538380e-03 -1.674677478149533272e-03 -3.140014037489891052e-02 5.528675392270088196e-02 8.697957731783390045e-03 -1.040310263633728027e-01 -4.015079513192176819e-02 -1.525879465043544769e-02 7.299759238958358765e-02 8.630514889955520630e-02 6.442445795983076096e-03 8.154297620058059692e-02 8.062586188316345215e-03 7.765945792198181152e-02 6.610031239688396454e-03 1.439849101006984711e-02 2.271868474781513214e-02 -2.539899200201034546e-02 8.465706557035446167e-02 -1.596305146813392639e-02 3.617618605494499207e-02 -1.228349097073078156e-02 7.776795327663421631e-02 -4.112777858972549438e-02 3.335678949952125549e-02 6.757122278213500977e-02 4.118887335062026978e-02 3.237764164805412292e-02 1.321594510227441788e-02
