-3.154871286824345589e-03
8.762842416763305664e-02
-6.512061506509780884e-02
-8.052993565797805786e-03
-3.405264019966125488e-02
6.725808233022689819e-02
1.241957652382552624e-03
-8.546260744333267212e-02
7.413409650325775146e-03
-9.398091584444046021e-02
2.287064492702484131e-02
-6.456512957811355591e-02
-1.754197105765342712e-02
-4.216421023011207581e-02
1.463640015572309494e-02
2.994870580732822418e-02
-7.235701382160186768e-02
-3.669454157352447510e-02
2.104835584759712219e-02
4.702816368080675602e-04
-5.569981411099433899e-02
7.713444996625185013e-03
8.609082549810409546e-03
-1.663508452475070953e-02
1.960125938057899475e-02
-2.363436110317707062e-02
-8.636592887341976166e-03
3.249512985348701477e-02
1.330685019493103027e-01
3.952863626182079315e-03
-6.520751118659973145e-02
-2.265910245478153229e-02
1.766573637723922729e-02
-1.787536428309977055e-03
-1.888293586671352386e-02
-1.006880104541778564e-01
-6.767079979181289673e-02
2.307175844907760620e-02
-2.328370511531829834e-02
-2.920161001384258270e-03
-7.919738441705703735e-02
-1.241379976272583008e-01
-5.683911964297294617e-02
-7.258346676826477051e-02
1.088092178106307983e-01
-9.672515839338302612e-02
-3.310886025428771973e-02
-5.740380287170410156e-02
7.032059878110885620e-02
-7.801661640405654907e-02
-7.444020360708236694e-02
9.501849859952926636e-02
-3.538674116134643555e-02
-2.470224909484386444e-02
-1.991939172148704529e-02
3.243684768676757812e-02
5.204658210277557373e-02
2.595817483961582184e-02
3.022908233106136322e-03
-5.111885443329811096e-02
5.341056734323501587e-02
1.335936784744262695e-02
-7.280517369508743286e-02
-1.009752973914146423e-01
5.733846500515937805e-02
7.263287901878356934e-02
-1.660213619470596313e-02
-1.225986704230308533e-01
-7.924064993858337402e-02
1.140702981501817703e-03
-3.073047101497650146e-02
-8.983647823333740234e-02
2.648930065333843231e-02
4.248004034161567688e-02
-1.928011141717433929e-02
5.180246010422706604e-02
3.282991796731948853e-02
-4.931231588125228882e-02
-5.606071557849645615e-03
-9.152711927890777588e-02
-6.463053822517395020e-02
2.692482247948646545e-02
-5.000204965472221375e-02
-4.244012758135795593e-02
-3.984695300459861755e-02
7.970895385369658470e-04
9.317927993834018707e-03
1.596623286604881287e-02
-1.984568126499652863e-02
-9.721771627664566040e-02
-2.353578619658946991e-02
-3.158144652843475342e-02
-3.885315963998436928e-03
-1.063972786068916321e-01
-4.789457097649574280e-02
2.797218598425388336e-02
2.816647104918956757e-02
-1.076970621943473816e-01
-7.656491547822952271e-02
-8.586592040956020355e-03
