1.243991926312446594e-01 -2.330690063536167145e-02 2.060039155185222626e-02 1.096198260784149170e-01 4.830652475357055664e-02 -7.137608528137207031e-02 -8.637207746505737305e-02 2.395327389240264893e-02 -4.503202065825462341e-02 -1.546237524598836899e-02 1.666858196258544922e-01 -2.077597230672836304e-01 -3.010889329016208649e-02 6.765727885067462921e-04 -2.394786477088928223e-02 -7.684034109115600586e-02 -5.437537282705307007e-02 -5.210188776254653931e-02 1.678311973810195923e-01 -6.084176525473594666e-02 6.734511256217956543e-02 9.376087784767150879e-02 9.155274927616119385e-02 2.490608766674995422e-02 -6.247520446777343750e-03 -4.763815924525260925e-02 -2.609063312411308289e-02 6.501161307096481323e-02 -1.206998899579048157e-01 8.142004162073135376e-02 7.816004008054733276e-02 -1.038694158196449280e-01 -1.276117376983165741e-02 1.400255411863327026e-01 -2.299276553094387054e-02 -1.394496019929647446e-02 -4.571925476193428040e-02 -8.098422735929489136e-02 -9.617457538843154907e-02 -9.804288297891616821e-02 -6.221247836947441101e-02 -1.475328486412763596e-02 6.616938114166259766e-02 -7.222229987382888794e-02 9.506873041391372681e-02 8.210350573062896729e-02 6.823548674583435059e-02 6.482948362827301025e-02 -7.927062362432479858e-02 3.243885189294815063e-02 5.890636518597602844e-02 1.786384731531143188e-01 -9.644286334514617920e-02 9.794852882623672485e-02 1.894141435623168945e-01 -4.070904478430747986e-02 -2.063213661313056946e-02 -8.694877475500106812e-02 3.813021257519721985e-02 2.460827119648456573e-02 -1.374264992773532867e-02 9.834247827529907227e-02 -1.896018162369728088e-02 5.065592750906944275e-02 -6.344001740217208862e-02 6.291657686233520508e-02 2.676906622946262360e-02 -3.855286538600921631e-02 7.364211231470108032e-02 -3.438550233840942383e-02 -2.985373884439468384e-02 4.355051368474960327e-02 -3.224004525691270828e-03 1.239563804119825363e-02 9.379690885543823242e-02 -9.623891115188598633e-02 1.032733637839555740e-02 2.582266367971897125e-02 2.660914696753025055e-02 -2.146333456039428711e-02 2.257147803902626038e-02 -3.773665428161621094e-02 1.157884672284126282e-01 -5.485388264060020447e-02 -8.248215913772583008e-02 -1.158102322369813919e-02 -3.951430320739746094e-03 -4.163087531924247742e-02 -2.112260274589061737e-02 8.531045168638229370e-02 -2.532045915722846985e-02 6.738317757844924927e-02 -5.886637046933174133e-02 7.957215607166290283e-02 1.932813040912151337e-02 4.456944391131401062e-02 5.547044426202774048e-02 -5.534124374389648438e-02 -7.913328707218170166e-02 -5.403272062540054321e-02
-4.082814976572990417e-02 3.847490996122360229e-02 8.513927459716796875e-02 1.270511769689619541e-03 -2.208139980211853981e-03 6.981420516967773438e-02 -6.463466584682464600e-02 1.312164366245269775e-01 -5.566288158297538757e-02 5.198710039258003235e-02 7.157694548368453979e-02 7.772971689701080322e-02 -6.528891623020172119e-02 -5.261405371129512787e-03 -1.679979637265205383e-02 -7.445856928825378418e-02 2.367733791470527649e-02 1.001370623707771301e-01 9.690632671117782593e-02 -7.168189622461795807e-03 4.593281447887420654e-02 -2.219058386981487274e-02 1.649738987907767296e-03 -8.738949894905090332e-02 -6.555093824863433838e-02 -2.273805439472198486e-04 -8.040516823530197144e-02 1.690253168344497681e-01 -7.068412750959396362e-02 -6.500297039747238159e-02 -4.233908839523792267e-03 2.514886669814586639e-03 3.877469524741172791e-02 8.431345224380493164e-03 4.946948215365409851e-02 2.483698911964893341e-02 9.746610373258590698e-02 -5.329718813300132751e-02 -9.228920191526412964e-02 3.437569364905357361e-02 3.013669513165950775e-02 2.076593041419982910e-02 4.378775134682655334e-02 -1.431835349649190903e-02 1.288726273924112320e-02 3.483392670750617981e-02 1.258394122123718262e-01 6.815411895513534546e-02 2.955873124301433563e-02 3.664338961243629456e-02 -3.549727424979209900e-02 -2.757706865668296814e-02 1.176185607910156250e-01 -3.011995740234851837e-02 2.232725545763969421e-02 9.162401407957077026e-02 -7.936812192201614380e-02 4.930258146487176418e-04 1.076985374093055725e-01 3.694741055369377136e-02 -2.447845973074436188e-02 5.883098766207695007e-02 6.963413208723068237e-02 4.575918987393379211e-02 -7.689483463764190674e-02 -4.945031926035881042e-02 5.087014287710189819e-02 2.179038524627685547e-02 4.412305727601051331e-02 -1.014456339180469513e-02 -2.477910369634628296e-02 -6.914899498224258423e-02 -6.643211096525192261e-02 6.233419105410575867e-02 -6.456193327903747559e-02 -1.034612674266099930e-02 6.503636389970779419e-02 -3.967523574829101562e-02 -7.291011512279510498e-02 -4.296227917075157166e-02 7.422307971864938736e-03 2.434948273003101349e-02 6.292681396007537842e-02 4.853868391364812851e-03 -3.938950970768928528e-02 -5.923050642013549805e-02 -3.842107951641082764e-02 6.781297922134399414e-02 -1.328686177730560303e-01 -8.370738476514816284e-02 -3.512084484100341797e-02 1.198490560054779053e-01 -3.737269714474678040e-02 -7.078853994607925415e-02 4.771910980343818665e-02 -8.318804949522018433e-02 9.373486042022705078e-02 4.180976003408432007e-02 -5.478657409548759460e-02 9.914790093898773193e-02
-1.109207980334758759e-02 5.663465335965156555e-02 1.044988632202148438e-03 2.260855399072170258e-02 -3.138167411088943481e-02 5.107035860419273376e-02 6.563978642225265503e-02 -3.120002150535583496e-02 -1.028938144445419312e-01 -9.647043794393539429e-02 2.886644005775451660e-02 1.718877628445625305e-02 4.649713262915611267e-02 -2.171606570482254028e-02 -1.092135384678840637e-01 -2.299761772155761719e-02 3.943791240453720093e-02 6.723723560571670532e-02 -2.667452953755855560e-02 8.438628911972045898e-02 -1.013435199856758118e-01 -1.056079342961311340e-01 3.659421205520629883e-02 3.860634565353393555e-02 -4.655802156776189804e-03 7.050017267465591431e-02 3.718621656298637390e-02 8.453107625246047974e-02 -1.764575578272342682e-02 -7.035209238529205322e-02 7.626458257436752319e-02 -7.263156585395336151e-03 -3.575195372104644775e-02 -5.628975108265876770e-02 -6.753677129745483398e-02 3.980276733636856079e-02 3.946542739868164062e-03 3.386965021491050720e-02 3.492208942770957947e-02 -9.253613650798797607e-02 -2.599796839058399200e-02 -9.460744261741638184e-02 -5.125401169061660767e-02 6.034503877162933350e-02 3.070451132953166962e-02 6.290526688098907471e-02 -1.175510138273239136e-01 1.561046857386827469e-02 -8.639943599700927734e-02 -1.897999085485935211e-02 7.752807438373565674e-02 4.383791610598564148e-02 2.218956127762794495e-02 1.892015524208545685e-02 -2.284978888928890228e-02 -5.612331628799438477e-02 -9.294050186872482300e-02 -9.511496871709823608e-02 -3.639867529273033142e-02 3.738206811249256134e-03 -9.010424464941024780e-02 -5.850961431860923767e-02 -1.506556756794452667e-02 -2.923125028610229492e-02 4.716622829437255859e-02 -5.316130071878433228e-02 -6.807707995176315308e-02 -8.891103416681289673e-02 -9.211041778326034546e-02 -6.711076945066452026e-02 1.182783511467278004e-03 -3.832494840025901794e-02 -1.101583540439605713e-01 -4.755121096968650818e-02 -1.581370830535888672e-02 9.194304049015045166e-02 4.746625944972038269e-02 -4.457924515008926392e-02 -3.490457683801651001e-02 6.426291912794113159e-02 -7.952872663736343384e-02 -6.750716269016265869e-02 3.176039457321166992e-02 2.721452713012695312e-02 9.110010229051113129e-03 -8.143194951117038727e-03 2.437026612460613251e-02 -9.014288336038589478e-02 -7.059087604284286499e-02 3.607441112399101257e-02 -5.867980793118476868e-02 -4.158407449722290039e-03 -1.239935215562582016e-02 -9.507908672094345093e-02 -7.081134617328643799e-02 -9.202683344483375549e-03 -3.306493908166885376e-02 -3.646780177950859070e-02 -1.350204925984144211e-02 2.642601728439331055e-02
-1.795158535242080688e-01 -3.088409900665283203e-01 -7.221107929944992065e-02 -1.181754190474748611e-02 -1.807141751050949097e-01 -3.859156742691993713e-02 4.303919151425361633e-02 -5.232261959463357925e-03 1.779079288244247437e-01 1.606664620339870453e-02 8.772303909063339233e-02 -2.895734310150146484e-01 -1.149174012243747711e-02 -4.072784632444381714e-02 3.064842196181416512e-03 -3.165085241198539734e-02 -2.323520556092262268e-02 4.376483336091041565e-02 -1.746703870594501495e-02 1.965568959712982178e-02 -2.418461441993713379e-02 5.273833274841308594e-01 -6.665146350860595703e-02 1.893535442650318146e-02 2.660037390887737274e-02 2.110635787248611450e-01 1.044114828109741211e-01 1.863263919949531555e-02 7.447607815265655518e-02 -9.027057886123657227e-02 2.057325839996337891e-02 1.342475693672895432e-02 -2.314797639846801758e-01 3.756109252572059631e-02 6.494985520839691162e-02 -7.517638802528381348e-02 -3.474347665905952454e-02 -3.350516781210899353e-02 -9.087065607309341431e-02 -3.684021532535552979e-02 1.005841419100761414e-01 -1.164546143263578415e-02 -4.361182078719139099e-02 -3.519735336303710938e-01 -8.308486081659793854e-03 3.317001461982727051e-02 1.315912511199712753e-02 2.316820621490478516e-02 8.880778402090072632e-02 -8.122651278972625732e-02 -8.866753429174423218e-02 -9.919250011444091797e-02 1.358869820833206177e-01 1.700448989868164062e-01 -1.966743469238281250e-01 -2.389237843453884125e-02 7.935812324285507202e-02 9.390926919877529144e-03 6.757071241736412048e-03 -1.418312788009643555e-01 -4.127992317080497742e-02 -2.619922161102294922e-03 5.253047496080398560e-02 -1.976445689797401428e-02 -4.273276403546333313e-02 -8.137413114309310913e-02 4.900897666811943054e-02 1.870475150644779205e-02 9.205613285303115845e-02 8.002518117427825928e-02 1.360751539468765259e-01 -8.672758936882019043e-02 6.428787112236022949e-02 1.124434825032949448e-02 5.083569511771202087e-02 -3.663759306073188782e-02 -2.107854336500167847e-01 8.493077009916305542e-02 8.333600126206874847e-03 3.322782739996910095e-02 -2.298315167427062988e-01 -6.603803485631942749e-02 1.615115068852901459e-02 9.860064834356307983e-02 6.412340700626373291e-02 -4.413763061165809631e-03 -1.346387900412082672e-02 -7.643701881170272827e-02 5.826893076300621033e-02 9.042276442050933838e-02 7.510614581406116486e-03 -1.524731749668717384e-03 -8.437043428421020508e-02 8.056060969829559326e-02 -8.518709242343902588e-02 -4.386926442384719849e-02 -1.136838179081678391e-02 5.537944659590721130e-02 8.196960389614105225e-02 -6.714097410440444946e-02
-5.617063865065574646e-02 -8.309491723775863647e-02 -7.620854675769805908e-02 -3.458459302783012390e-02 -1.038860380649566650e-01 -3.564839810132980347e-02 -5.244863219559192657e-03 5.826333165168762207e-02 -8.333903551101684570e-02 1.390476245433092117e-02 2.541012503206729889e-02 3.244800120592117310e-02 1.713445223867893219e-02 2.351730130612850189e-02 -2.990678511559963226e-02 -1.479700766503810883e-02 1.903660409152507782e-02 -9.226449579000473022e-02 4.682347178459167480e-02 -2.683582715690135956e-02 -8.926008641719818115e-02 2.181852236390113831e-02 4.101630672812461853e-02 5.465192347764968872e-02 -3.414905164390802383e-03 -3.970943763852119446e-02 4.115219693630933762e-03 -9.488067775964736938e-02 5.974030494689941406e-02 -7.358621060848236084e-02 -4.811617359519004822e-02 -7.173804193735122681e-02 -8.701572567224502563e-02 -8.585819602012634277e-02 -4.862719401717185974e-02 6.816146522760391235e-02 1.003923453390598297e-02 -3.457086160778999329e-02 -3.739962726831436157e-02 -5.903022363781929016e-02 -4.335201904177665710e-02 3.800271451473236084e-02 2.835511043667793274e-02 -5.218321923166513443e-03 1.342354994267225266e-02 -4.910109192132949829e-02 -1.280332952737808228e-01 -3.881017118692398071e-02 -7.707858085632324219e-02 2.082875370979309082e-02 3.001981182023882866e-03 4.985607811249792576e-04 -6.674291938543319702e-02 -2.499653026461601257e-02 -1.766909845173358917e-02 8.038212358951568604e-02 8.734611421823501587e-02 -9.335184469819068909e-03 6.616871803998947144e-02 -1.242563053965568542e-01 3.836503252387046814e-02 -1.944295130670070648e-02 4.180697351694107056e-02 -8.975098282098770142e-02 8.748918026685714722e-02 9.476794302463531494e-02 9.185546636581420898e-02 5.217647179961204529e-02 7.104177027940750122e-02 2.543914876878261566e-02 -8.944925665855407715e-02 -4.753835871815681458e-02 -1.946481689810752869e-02 -1.057776659727096558e-01 -2.007832750678062439e-02 2.468645572662353516e-02 -9.272360056638717651e-02 -2.975270710885524750e-02 4.963070154190063477e-02 1.716470695100724697e-03 -5.536085367202758789e-02 -6.691044569015502930e-02 -1.016656607389450073e-01 -7.065601646900177002e-02 1.507018413394689560e-02 1.315787434577941895e-03 -3.497311100363731384e-02 -7.181145250797271729e-02 -1.003300584852695465e-02 5.734568089246749878e-02 4.859022051095962524e-02 -7.292642444372177124e-02 -7.328414823859930038e-03 1.017041783779859543e-02 -9.094596025533974171e-04 1.913670264184474945e-02 9.153189510107040405e-02 1.865903614088892937e-03 7.041825354099273682e-02 -5.290913861244916916e-03
-7.406287640333175659e-02 -3.864745423197746277e-02 8.889301866292953491e-02 3.434608131647109985e-02 -4.856866598129272461e-02 -1.235817074775695801e-01 -7.867262512445449829e-02 -2.858013659715652466e-02 -2.718054165598005056e-04 9.710885584354400635e-02 -1.516900956630706787e-01 1.091443747282028198e-01 4.932698234915733337e-02 1.190479844808578491e-01 -4.005571827292442322e-02 -1.930488459765911102e-02 -1.092777326703071594e-01 8.098062127828598022e-02 -6.115915998816490173e-02 1.028676778078079224e-01 1.198774352669715881e-01 -8.964470587670803070e-03 -6.440711766481399536e-02 -8.269485086202621460e-02 -3.230589628219604492e-02 4.518150351941585541e-03 -1.359816547483205795e-02 -8.389741927385330200e-02 2.350022085011005402e-02 -4.810453951358795166e-02 4.886269569396972656e-02 1.201419159770011902e-01 1.204323545098304749e-01 3.911654464900493622e-03 -4.881893470883369446e-02 7.313628494739532471e-02 -3.877810761332511902e-02 3.219811990857124329e-02 -7.244860380887985229e-02 -5.748274922370910645e-02 -5.935511086136102676e-03 -2.770152874290943146e-02 2.705533057451248169e-02 -1.195185258984565735e-01 9.758725017309188843e-02 -8.389841020107269287e-02 -5.501970648765563965e-02 3.451965004205703735e-02 2.098665200173854828e-02 -4.755696281790733337e-02 -7.545647770166397095e-02 6.560601294040679932e-02 2.553695254027843475e-02 8.526587858796119690e-03 1.040601283311843872e-01 1.846895180642604828e-02 -6.543458253145217896e-02 5.161726381629705429e-03 -4.850777331739664078e-03 -3.912703692913055420e-02 5.717766284942626953e-02 -9.283658117055892944e-02 9.445261955261230469e-02 -1.456380076706409454e-02 1.336864288896322250e-02 5.183013528585433960e-02 2.659174241125583649e-02 2.424992853775620461e-03 2.196495048701763153e-02 -5.669897422194480896e-02 1.700977422297000885e-02 -4.798824340105056763e-02 1.168372780084609985e-01 -6.056095287203788757e-02 -6.392082571983337402e-02 9.386942535638809204e-02 -2.384786494076251984e-02 -4.315065219998359680e-02 -2.017297968268394470e-02 1.343266945332288742e-02 1.177314072847366333e-01 8.220621943473815918e-02 2.023191004991531372e-01 -2.601904980838298798e-02 -2.230383455753326416e-02 6.213850900530815125e-02 3.098303079605102539e-02 5.563377216458320618e-02 -7.267362624406814575e-02 7.060419023036956787e-02 7.460691034793853760e-02 1.706854905933141708e-03 6.088879331946372986e-02 8.364710956811904907e-03 3.261160850524902344e-02 9.538276493549346924e-02 -9.981552511453628540e-02 5.971065536141395569e-02 -6.026427820324897766e-02 8.492586761713027954e-02
-7.484971731901168823e-02 -2.055863291025161743e-02 1.852892711758613586e-02 -1.182049363851547241e-01 -1.360359489917755127e-01 -1.230702176690101624e-01 -8.809801191091537476e-02 1.434556767344474792e-02 -4.592780396342277527e-02 -2.660476043820381165e-02 -1.013702154159545898e-01 -1.747177541255950928e-02 -7.894887775182723999e-02 -2.341418154537677765e-02 -4.041356965899467468e-02 -6.857935339212417603e-02 -8.603981137275695801e-02 7.138712704181671143e-02 -1.178915500640869141e-01 1.848980970680713654e-02 -6.908631883561611176e-03 -7.794976979494094849e-02 2.909660397563129663e-04 -6.237475201487541199e-02 4.288123920559883118e-02 -1.145934760570526123e-01 -1.198454648256301880e-01 -1.824341341853141785e-02 -1.287941541522741318e-02 -1.690093241631984711e-02 -2.779960632324218750e-04 3.495989367365837097e-02 -8.056636899709701538e-02 1.917739212512969971e-02 4.307147487998008728e-02 2.575936354696750641e-02 -3.613695129752159119e-02 4.005416855216026306e-02 -5.654669925570487976e-02 4.483857378363609314e-02 -1.308086067438125610e-01 -9.281671792268753052e-02 1.086272019892930984e-02 -3.490075841546058655e-02 -2.072749100625514984e-02 -1.084098741412162781e-01 1.462050620466470718e-02 9.706672281026840210e-02 -5.420980602502822876e-02 -3.617509827017784119e-02 9.040542691946029663e-02 2.044972591102123260e-02 9.590241126716136932e-03 1.015747524797916412e-02 7.675733882933855057e-03 2.596547640860080719e-02 5.766236688941717148e-03 3.511362150311470032e-02 -9.812183678150177002e-02 -9.022543579339981079e-02 3.512839227914810181e-02 -5.521965213119983673e-03 4.844912514090538025e-02 -8.931481093168258667e-02 2.722759358584880829e-02 -1.807050779461860657e-02 -5.072004720568656921e-02 -1.049745827913284302e-01 2.702899090945720673e-02 2.454050816595554352e-02 -1.272011548280715942e-01 -2.860647253692150116e-02 4.256084933876991272e-02 -7.718018256127834320e-03 -1.319582480937242508e-02 9.777716547250747681e-02 -1.323171108961105347e-01 8.792835474014282227e-02 -8.531302213668823242e-02 -6.784933805465698242e-02 -1.150727868080139160e-01 -6.922153383493423462e-02 -1.424151007086038589e-02 -8.152402006089687347e-03 -1.191411074250936508e-02 -1.058170273900032043e-01 -9.185995161533355713e-02 1.934051542775705457e-04 -8.698978275060653687e-02 -7.796243578195571899e-02 4.510641098022460938e-03 -8.555616438388824463e-02 -8.488596975803375244e-02 9.441068023443222046e-02 4.205212742090225220e-02 7.512034475803375244e-02 7.866594940423965454e-02 -5.386668071150779724e-02 -6.773214787244796753e-02 4.205026850104331970e-02
2.669483236968517303e-02 1.991841569542884827e-02 -5.559476837515830994e-02 -3.880078718066215515e-02 1.829769345931708813e-03 -7.800922542810440063e-02 3.009200096130371094e-03 -9.683158993721008301e-02 4.679847974330186844e-03 -8.503379672765731812e-02 -5.752891674637794495e-02 -6.083495914936065674e-02 8.944421261548995972e-02 2.871719375252723694e-02 -1.005267500877380371e-01 9.874744713306427002e-02 -1.050313413143157959e-01 4.933738708496093750e-02 4.471630975604057312e-02 7.712403684854507446e-02 -7.305708248168230057e-03 4.070017114281654358e-02 -8.335852622985839844e-02 -1.152694374322891235e-01 4.573425278067588806e-02 4.285807907581329346e-02 2.074227668344974518e-03 -1.003011837601661682e-01 -8.747599273920059204e-02 -1.108259558677673340e-01 9.640856087207794189e-02 -2.865162305533885956e-02 -9.212657064199447632e-02 -9.050092846155166626e-02 -9.037780761718750000e-02 -4.626630619168281555e-02 7.229135185480117798e-02 1.288477238267660141e-02 4.536366555839776993e-03 -9.126765653491020203e-03 4.835396260023117065e-02 1.879649236798286438e-02 -1.422102469950914383e-02 -7.252909988164901733e-02 -2.125804498791694641e-02 2.521897107362747192e-02 -3.020068071782588959e-02 4.023645073175430298e-02 -7.633838802576065063e-02 9.415026754140853882e-02 4.409450292587280273e-02 -2.057409100234508514e-02 3.156381472945213318e-02 -4.655349627137184143e-02 2.038839273154735565e-02 -2.311729267239570618e-02 7.180561125278472900e-02 1.364299096167087555e-02 -9.922546148300170898e-02 -1.004204079508781433e-01 -6.885843724012374878e-02 -3.035247325897216797e-02 -2.662241645157337189e-02 3.623334318399429321e-02 5.041426420211791992e-02 -7.478506863117218018e-02 -5.211817100644111633e-02 -7.956213504076004028e-02 -5.379932001233100891e-02 -1.660158671438694000e-02 -6.483437120914459229e-02 -5.790409445762634277e-02 -1.045084372162818909e-01 -9.360995143651962280e-02 -3.810686990618705750e-02 -5.741596221923828125e-03 6.499490235000848770e-03 5.159161239862442017e-02 1.835287921130657196e-02 -7.543618977069854736e-02 -7.887987792491912842e-02 -4.943907260894775391e-02 -1.558123342692852020e-02 9.750771522521972656e-02 4.595696926116943359e-03 -7.260414212942123413e-02 8.767414093017578125e-02 7.894237339496612549e-02 5.939552187919616699e-02 6.775648891925811768e-02 4.618129879236221313e-02 5.783053487539291382e-02 -7.688149064779281616e-02 5.026662349700927734e-02 -7.249169796705245972e-02 2.817260101437568665e-02 8.642842620611190796e-02 3.664459288120269775e-02 1.030677556991577148e-02 9.802337735891342163e-02
3.109308779239654541e-01 -2.628658115863800049e-01 6.065417453646659851e-02 -8.359577506780624390e-02 -6.270077079534530640e-02 -1.685977876186370850e-01 -4.933507740497589111e-02 2.269117347896099091e-02 3.517265617847442627e-01 9.281895309686660767e-02 4.777516052126884460e-02 -3.978753834962844849e-02 -7.216779142618179321e-02 1.384585648775100708e-01 -1.796427220106124878e-01 -7.569983601570129395e-02 -1.166329383850097656e-01 -3.658321127295494080e-02 -4.534199714660644531e+00 2.247122526168823242e-01 -5.387732759118080139e-03 -2.445753514766693115e-01 -8.108925819396972656e-02 -1.859059780836105347e-01 7.183785736560821533e-02 -4.984118789434432983e-02 2.266533970832824707e-01 -2.626486420631408691e-01 -1.479857414960861206e-01 2.024138229899108410e-04 1.999429427087306976e-02 -2.120905816555023193e-01 -1.516992039978504181e-02 9.944360703229904175e-02 2.805968746542930603e-02 4.137462377548217773e-02 -7.894288003444671631e-02 -4.382821545004844666e-02 4.440658167004585266e-02 -2.232586406171321869e-02 -8.697269111871719360e-02 -5.687625333666801453e-02 -1.671089045703411102e-02 1.240776404738426208e-01 8.327354490756988525e-02 -3.115382231771945953e-02 -8.097834140062332153e-02 2.493394725024700165e-02 3.132140729576349258e-03 6.892535090446472168e-02 -3.826706856489181519e-02 -2.244708873331546783e-02 -1.659404113888740540e-02 1.087009608745574951e-01 5.109606776386499405e-03 -6.185868009924888611e-02 -6.962503492832183838e-02 1.067540701478719711e-02 -4.099012538790702820e-02 1.784192174673080444e-01 -5.428555235266685486e-02 3.732892498373985291e-02 6.794149428606033325e-02 -7.227959483861923218e-02 3.609666973352432251e-02 -6.971303373575210571e-02 -7.638234645128250122e-02 -7.369415834546089172e-03 -2.163108438253402710e-02 -8.539109677076339722e-02 -4.605708122253417969e-01 -9.401175379753112793e-02 -3.805830702185630798e-02 4.126111511141061783e-03 -1.021434888243675232e-01 -1.282510813325643539e-02 2.703328728675842285e-01 2.460898272693157196e-02 -3.654566034674644470e-02 9.570571035146713257e-02 -1.785613894462585449e-01 -1.728307083249092102e-02 2.812911197543144226e-02 -1.262403745204210281e-02 8.844052255153656006e-02 1.167804375290870667e-01 -5.712869390845298767e-02 7.422268390655517578e-02 7.664078474044799805e-02 -6.508938968181610107e-02 4.873732477426528931e-02 -1.503433287143707275e-01 -5.385625362396240234e-02 -4.361055046319961548e-02 7.216554880142211914e-02 -1.770764589309692383e-02 2.191381528973579407e-02 -1.361752511002123356e-03 -2.794286049902439117e-02 -9.244712442159652710e-02
4.644278436899185181e-02 -5.028608441352844238e-02 2.471849881112575531e-02 1.654059067368507385e-02 3.887446224689483643e-02 2.342070825397968292e-02 -3.284989297389984131e-02 -2.143504843115806580e-02 4.527575895190238953e-02 -1.131362933665513992e-02 8.763395249843597412e-02 -8.799291402101516724e-02 -9.087508171796798706e-02 2.504322864115238190e-02 7.546867430210113525e-02 6.967911124229431152e-02 -7.937254756689071655e-02 8.052774518728256226e-02 -1.011278703808784485e-01 -6.397292017936706543e-02 2.386854961514472961e-02 -5.630910024046897888e-02 -2.256820350885391235e-02 2.175648324191570282e-02 -1.836906746029853821e-02 -8.682129532098770142e-02 1.763122715055942535e-02 -1.375515107065439224e-02 1.619940251111984253e-02 -2.242987044155597687e-02 2.402423694729804993e-02 -1.021344913169741631e-03 5.076856538653373718e-02 -8.411939442157745361e-02 3.975198045372962952e-02 7.461105287075042725e-02 -2.472790330648422241e-02 7.108058035373687744e-02 2.162523381412029266e-02 -5.652091652154922485e-02 -5.027656443417072296e-03 -8.434011042118072510e-02 8.565364032983779907e-02 -1.048513725399971008e-01 3.982737287878990173e-02 -4.557159543037414551e-02 -2.589150518178939819e-02 -4.445675760507583618e-02 -7.182013988494873047e-02 4.288415610790252686e-02 -5.435315519571304321e-02 2.788924798369407654e-02 5.149499699473381042e-02 -4.272407665848731995e-02 8.965146541595458984e-02 6.309769302606582642e-02 -3.128315508365631104e-02 9.490572661161422729e-02 1.625952310860157013e-03 2.460770681500434875e-02 5.154334381222724915e-02 6.600072234869003296e-02 -7.287564128637313843e-02 3.884184360504150391e-02 -2.292972803115844727e-02 5.334568768739700317e-02 -7.504271715879440308e-02 3.475458920001983643e-02 6.411121785640716553e-02 -2.926308847963809967e-02 5.129139870405197144e-02 -7.394428551197052002e-02 1.876878784969449043e-03 8.787410706281661987e-02 1.502966973930597305e-02 -6.191401556134223938e-02 1.492098625749349594e-02 9.288469702005386353e-02 -2.329684607684612274e-02 -4.259346798062324524e-02 7.006505876779556274e-02 -4.954998381435871124e-03 6.651438027620315552e-02 4.267475754022598267e-02 -3.312624245882034302e-02 -5.358294025063514709e-02 2.775939553976058960e-02 7.680447399616241455e-02 3.267707303166389465e-02 -3.490811586380004883e-02 4.160086065530776978e-02 -6.707841157913208008e-02 -5.952811334282159805e-03 -8.278754353523254395e-02 -3.529321029782295227e-02 -8.467885106801986694e-02 8.154711872339248657e-02 -7.469177246093750000e-02 -2.748154662549495697e-02 1.968037150800228119e-02
1.695811152458190918e-01 -2.342764139175415039e-01 -3.403469547629356384e-02 -7.639545947313308716e-02 1.551683545112609863e-01 -4.848872125148773193e-02 8.146784454584121704e-02 1.652822941541671753e-01 2.809855155646800995e-02 5.188903957605361938e-02 -1.165580078959465027e-01 -2.441244199872016907e-02 -6.256239861249923706e-02 -1.125014349818229675e-01 -9.751147590577602386e-03 -6.898064166307449341e-02 -4.923836141824722290e-02 4.374706745147705078e-02 6.904309242963790894e-02 -1.893821544945240021e-02 -3.313551191240549088e-03 1.467525810003280640e-01 -7.583629339933395386e-02 -1.256989389657974243e-01 3.888290002942085266e-02 6.192830950021743774e-02 -1.036716625094413757e-01 7.941754907369613647e-02 5.258357524871826172e-02 -2.871293723583221436e-01 7.107432931661605835e-02 -1.098235026001930237e-01 -1.230421289801597595e-01 -1.700638793408870697e-02 -5.580010637640953064e-02 -6.544139981269836426e-02 -6.317988038063049316e-02 2.859333716332912445e-02 5.534604936838150024e-02 -1.163648590445518494e-01 3.683251794427633286e-03 1.321082711219787598e-01 2.016129530966281891e-02 -1.340079158544540405e-01 -1.186088379472494125e-02 6.032271310687065125e-02 2.920754626393318176e-02 -7.813169807195663452e-02 6.955520063638687134e-02 7.603036612272262573e-02 -3.937236219644546509e-02 -1.970107555389404297e-01 2.077101916074752808e-02 7.399593293666839600e-02 -1.378629952669143677e-01 9.385850280523300171e-02 5.814748257398605347e-02 -7.772626727819442749e-02 4.717250168323516846e-02 -5.617269277572631836e-01 8.400928974151611328e-02 8.437014184892177582e-03 -1.067835018038749695e-01 -9.334744513034820557e-02 -8.096764236688613892e-02 -9.869901090860366821e-02 1.662892475724220276e-02 1.223400048911571503e-02 -4.233855009078979492e-02 -4.742952808737754822e-02 -6.271364400163292885e-04 4.267924651503562927e-02 3.973466902971267700e-02 4.155346006155014038e-02 1.134621631354093552e-02 -1.327048521488904953e-02 2.513257563114166260e-01 3.846323583275079727e-03 8.340648561716079712e-02 -1.650547981262207031e-02 -1.017531901597976685e-01 -6.474406272172927856e-02 -5.687287822365760803e-02 -3.318982198834419250e-02 8.735521882772445679e-02 6.825480610132217407e-02 -4.756347090005874634e-02 -5.468797683715820312e-02 5.697550624608993530e-02 7.703282684087753296e-02 4.700111225247383118e-02 2.222563885152339935e-02 9.666574001312255859e-02 5.216863006353378296e-02 8.213690668344497681e-02 -6.928600370883941650e-02 -9.576332755386829376e-03 -1.455635484308004379e-02 8.843892067670822144e-02 5.411004275083541870e-02
-5.795517191290855408e-02 -1.221565753221511841e-01 1.385856885462999344e-02 6.515051424503326416e-02 -1.811168156564235687e-02 -8.128318935632705688e-02 -3.259146213531494141e-02 -9.208901971578598022e-02 -3.890556097030639648e-02 -7.008393853902816772e-02 -1.158792078495025635e-01 4.249190445989370346e-03 2.624743059277534485e-02 3.086315095424652100e-02 -2.409448102116584778e-02 -1.592434756457805634e-02 -6.589568685740232468e-03 -3.579723881557583809e-03 4.349491372704505920e-02 6.718274205923080444e-02 -1.722713746130466461e-02 -2.409503608942031860e-02 8.280605077743530273e-02 -1.827355287969112396e-02 1.626653783023357391e-02 4.030699282884597778e-02 -3.061275638174265623e-04 -1.940876804292201996e-02 5.578611046075820923e-02 -5.618824809789657593e-02 9.605471044778823853e-02 -2.234562672674655914e-02 -1.144771277904510498e-01 -3.166567161679267883e-02 -3.141033696010708809e-03 1.417146902531385422e-02 -4.631708934903144836e-02 -9.921317547559738159e-02 -5.761444568634033203e-02 -7.049371302127838135e-02 2.798319980502128601e-02 -4.988349508494138718e-03 -3.032013215124607086e-02 5.992164090275764465e-02 5.401712656021118164e-02 -1.069709360599517822e-01 2.900559268891811371e-02 -5.052304267883300781e-02 -1.494526863098144531e-02 -2.222895622253417969e-02 -7.992708683013916016e-02 -2.374783903360366821e-02 -6.767550110816955566e-02 -1.199769880622625351e-02 1.317930966615676880e-02 9.071420878171920776e-02 -3.855998441576957703e-02 -5.502200219780206680e-03 7.272048294544219971e-02 -2.149418741464614868e-02 -1.340390462428331375e-02 6.471710652112960815e-02 -4.062848538160324097e-02 -6.400501728057861328e-02 6.517880409955978394e-02 6.200214847922325134e-02 -7.187644392251968384e-02 -1.929504331201314926e-03 7.682152092456817627e-02 -8.922735601663589478e-02 2.881010062992572784e-02 -9.255588054656982422e-02 -1.119336187839508057e-01 -5.482704937458038330e-02 -6.491199880838394165e-02 -8.093656599521636963e-02 4.107479006052017212e-03 -1.772308372892439365e-03 -8.745062164962291718e-03 6.461999565362930298e-02 -8.429352194070816040e-02 -5.359013006091117859e-02 6.595555692911148071e-02 -8.238389343023300171e-02 5.730960518121719360e-02 -9.089917689561843872e-02 -6.329869478940963745e-02 -8.126473985612392426e-03 -6.271859258413314819e-02 8.717298507690429688e-03 5.333501100540161133e-02 -6.541119515895843506e-02 7.412334531545639038e-02 5.213866382837295532e-02 7.135652750730514526e-02 9.866980463266372681e-02 -8.987714350223541260e-02 -8.936821669340133667e-02 9.815007448196411133e-02 -3.196913003921508789e-02
4.917110502719879150e-02 -1.053488701581954956e-01 -7.816626876592636108e-02 2.661943435668945312e-02 3.046681731939315796e-02 1.237850338220596313e-01 2.166284993290901184e-02 4.739074036478996277e-02 -1.923591457307338715e-02 -3.636280447244644165e-02 -3.253625705838203430e-02 1.459400206804275513e-01 9.551011770963668823e-02 6.732634454965591431e-02 9.812896698713302612e-02 9.225165098905563354e-02 1.207896843552589417e-01 -7.834368944168090820e-02 2.294338196516036987e-01 -7.589886337518692017e-02 1.246002018451690674e-01 9.288319200277328491e-02 2.045040205121040344e-02 4.941885918378829956e-02 9.543084353208541870e-02 1.163809793069958687e-03 -4.676605761051177979e-02 4.663702100515365601e-02 5.741353332996368408e-02 1.364143639802932739e-01 -3.572071716189384460e-02 3.096956387162208557e-02 9.463832713663578033e-03 8.111002855002880096e-03 -6.720703095197677612e-02 2.387529611587524414e-02 6.285439711064100266e-03 -5.393091589212417603e-02 -1.957409456372261047e-02 1.130186691880226135e-01 9.566607326269149780e-02 -1.640021651983261108e-01 2.829828858375549316e-02 -1.998393796384334564e-02 -8.319119364023208618e-02 -1.138774752616882324e-01 -8.211316168308258057e-02 -5.210343748331069946e-02 -1.214237231761217117e-02 -8.785980939865112305e-02 -4.681337624788284302e-02 1.773937642574310303e-01 -7.885401695966720581e-02 -7.849345915019512177e-03 1.462012529373168945e-02 -1.167937554419040680e-02 -9.350664168596267700e-02 1.716836728155612946e-02 1.069182455539703369e-01 -1.142515428364276886e-02 -4.152647405862808228e-02 -9.800735861063003540e-02 -9.700160473585128784e-03 -1.450615935027599335e-02 -9.821019321680068970e-02 -8.021194487810134888e-02 2.055546268820762634e-02 7.926817238330841064e-02 -3.934815526008605957e-02 5.135246738791465759e-02 -5.784355103969573975e-02 -6.630904227495193481e-02 -4.582563415169715881e-02 1.205487623810768127e-01 -8.996823430061340332e-02 5.656392499804496765e-02 -7.929111272096633911e-02 6.657975912094116211e-02 8.105750195682048798e-03 7.265599817037582397e-02 2.296647429466247559e-02 1.095655262470245361e-01 1.345994044095277786e-02 1.789871416985988617e-02 8.914715796709060669e-02 -5.963102355599403381e-02 8.120287954807281494e-02 2.145866118371486664e-02 -2.496622130274772644e-02 -2.111312933266162872e-02 3.218495845794677734e-02 1.411451250314712524e-01 7.816641777753829956e-02 -6.764740496873855591e-02 -9.208346903324127197e-02 -8.747308701276779175e-02 -6.960990279912948608e-02 8.311154693365097046e-02 -6.939154700376093388e-04 5.286517366766929626e-02
-1.061539426445960999e-01 5.123669747263193130e-03 -8.457320928573608398e-02 8.225215226411819458e-02 7.270064204931259155e-02 -6.046734005212783813e-02 1.010628533549606800e-03 7.180874794721603394e-02 7.345683127641677856e-02 -2.396615780889987946e-02 -3.704564878717064857e-03 -4.727984592318534851e-02 6.007814314216375351e-03 -7.438859902322292328e-03 -3.938827663660049438e-02 -8.552417159080505371e-03 -8.616840094327926636e-02 -4.096144065260887146e-02 6.515855342149734497e-02 5.705809965729713440e-02 3.755269572138786316e-02 -8.493868261575698853e-02 8.290041238069534302e-02 8.788324892520904541e-02 2.666190825402736664e-02 -7.405742257833480835e-02 -8.365552872419357300e-02 -5.953374132513999939e-02 -2.915522456169128418e-02 -1.059232726693153381e-01 3.894779831171035767e-02 6.969150155782699585e-02 2.435680106282234192e-02 -7.657337933778762817e-02 -6.468707229942083359e-03 1.957009546458721161e-02 -6.749662756919860840e-02 -7.488622516393661499e-02 -8.843427896499633789e-02 3.183230012655258179e-02 6.968809664249420166e-02 -7.073296606540679932e-02 8.387929201126098633e-02 -2.624010853469371796e-02 1.288017071783542633e-02 -1.252278778702020645e-02 -4.729124717414379120e-03 5.331864580512046814e-02 5.158954858779907227e-02 2.588310837745666504e-02 7.477176934480667114e-02 -1.016829684376716614e-01 7.459793984889984131e-02 4.299110732972621918e-03 4.494662955403327942e-02 -3.635650873184204102e-02 7.083592563867568970e-02 9.923279285430908203e-03 6.487517058849334717e-02 -2.934330143034458160e-02 2.870360575616359711e-02 5.204988643527030945e-02 4.532857611775398254e-02 3.140490502119064331e-02 -8.066158741712570190e-02 3.812421485781669617e-02 2.537777833640575409e-02 -1.066484139300882816e-03 -5.820215493440628052e-02 2.037075906991958618e-02 -4.368082806468009949e-02 -8.615451306104660034e-02 -4.875183105468750000e-02 1.586023904383182526e-02 1.413947343826293945e-02 -1.575769297778606415e-02 -5.526503175497055054e-02 -6.776466220617294312e-02 -6.447311490774154663e-02 2.983334101736545563e-02 -2.770010381937026978e-02 1.216134708374738693e-02 -1.531627867370843887e-02 -1.336723566055297852e-02 -1.708018966019153595e-02 3.235041722655296326e-02 -8.388964086771011353e-02 9.987807273864746094e-02 -8.619276434183120728e-02 -5.326292291283607483e-02 6.837534159421920776e-02 -1.593527011573314667e-02 -3.025577031075954437e-02 3.890674933791160583e-02 4.767872020602226257e-02 -8.209607750177383423e-02 1.587690226733684540e-02 3.213196620345115662e-02 5.618858709931373596e-02 -4.918311908841133118e-02
7.139483094215393066e-02 -9.267947077751159668e-02 1.032088976353406906e-02 5.302675440907478333e-02 -3.121355734765529633e-02 -1.121516451239585876e-01 5.755567178130149841e-02 -8.387330174446105957e-02 -9.174442291259765625e-02 -7.708255201578140259e-02 -2.207272127270698547e-02 -5.292828427627682686e-04 2.867751196026802063e-02 -8.813809603452682495e-02 -8.311007916927337646e-02 -2.795852534472942352e-02 -1.108212023973464966e-01 -3.363028913736343384e-02 4.127255827188491821e-02 -9.045783430337905884e-03 9.894952178001403809e-03 2.908811718225479126e-02 8.498957008123397827e-02 -8.008778840303421021e-02 9.046731144189834595e-02 -7.459182292222976685e-02 -1.215984746813774109e-01 4.570127651095390320e-02 -2.726672962307929993e-02 -1.114292256534099579e-02 -3.094825707376003265e-02 -5.051367729902267456e-02 4.111418500542640686e-02 -8.549141883850097656e-02 -5.964919179677963257e-02 8.807194977998733521e-02 8.391541987657546997e-02 9.738484770059585571e-02 6.946267932653427124e-02 3.926059603691101074e-02 -1.078192144632339478e-01 1.791562139987945557e-02 -1.314023789018392563e-02 -6.158134713768959045e-02 1.860456541180610657e-02 -1.823989301919937134e-02 -2.701297029852867126e-02 7.755120843648910522e-02 4.943760856986045837e-02 4.894875735044479370e-02 -8.704777806997299194e-02 2.165595255792140961e-02 -2.753921039402484894e-02 6.915197521448135376e-02 -7.207907736301422119e-02 -1.622664975002408028e-03 6.000201031565666199e-02 -3.748041391372680664e-02 4.220626130700111389e-02 -8.583711832761764526e-02 -7.741501182317733765e-02 -1.646577194333076477e-02 -2.866384945809841156e-02 -2.395460009574890137e-02 5.646347999572753906e-04 1.654950529336929321e-02 -8.587444573640823364e-02 -2.765280008316040039e-02 -1.122740097343921661e-02 1.259456854313611984e-02 -1.047852914780378342e-02 3.208108944818377495e-03 -5.619378387928009033e-02 -3.251608461141586304e-02 -7.840386778116226196e-02 -7.391213625669479370e-02 3.323889104649424553e-03 7.476226240396499634e-02 1.154947280883789062e-02 -7.689698040485382080e-02 6.822735071182250977e-02 -1.022578924894332886e-01 -4.952014610171318054e-02 -9.695871174335479736e-02 -7.826472073793411255e-02 5.611201003193855286e-02 6.172528862953186035e-02 -2.943164110183715820e-02 -2.660746127367019653e-02 -3.588254563510417938e-03 -9.258724749088287354e-02 1.176812686026096344e-02 -3.809442743659019470e-02 8.837959915399551392e-02 4.623929411172866821e-02 -1.923862472176551819e-02 -3.770439699292182922e-02 -1.284003853797912598e-01 -4.745615273714065552e-02 -7.210220396518707275e-02
-2.073781378567218781e-02 2.119767665863037109e-02 6.994743645191192627e-02 -1.034836918115615845e-01 4.858017340302467346e-02 -6.168889999389648438e-02 7.624361664056777954e-02 2.229852080345153809e-01 -2.444893762003630400e-04 -7.508976757526397705e-02 1.260790973901748657e-01 9.036125242710113525e-02 4.458069801330566406e-03 -9.181122481822967529e-02 5.134913325309753418e-02 -1.649993844330310822e-02 7.021199911832809448e-02 4.065801948308944702e-02 8.994553983211517334e-02 8.070546388626098633e-02 5.153223499655723572e-02 3.041580552235245705e-03 7.755727320909500122e-02 -7.009636610746383667e-02 5.945819616317749023e-02 5.517710465937852859e-03 7.599927484989166260e-02 3.191333636641502380e-02 1.581248790025711060e-01 2.312707901000976562e-02 -2.060704305768013000e-02 -7.299800217151641846e-02 -1.502116210758686066e-02 -1.000016033649444580e-01 -3.275767713785171509e-02 6.988663226366043091e-02 -4.465064033865928650e-02 -6.158958747982978821e-02 -1.246558409184217453e-02 5.783857777714729309e-02 1.747314073145389557e-02 5.310405418276786804e-02 -9.896843880414962769e-02 1.385810598731040955e-02 1.501616742461919785e-02 6.206344813108444214e-02 -1.502304822206497192e-01 1.705491566099226475e-03 -3.673648927360773087e-03 6.135066971182823181e-02 5.589695274829864502e-02 1.088186427950859070e-01 -4.796511307358741760e-02 1.121117249131202698e-01 -1.863266108557581902e-03 1.922925747931003571e-02 7.016329467296600342e-02 9.004421532154083252e-02 -7.166950404644012451e-02 -5.171818658709526062e-02 -1.597250811755657196e-02 -5.745467171072959900e-02 1.662874966859817505e-01 3.147124871611595154e-02 -2.707710303366184235e-02 -5.053072236478328705e-03 -4.100633040070533752e-02 -9.364100545644760132e-02 3.255274146795272827e-02 6.256105005741119385e-02 -2.371220104396343231e-02 1.215252354741096497e-01 -5.122724175453186035e-02 -7.572407275438308716e-02 2.210446074604988098e-02 -7.884018868207931519e-02 4.569417238235473633e-02 6.049778684973716736e-02 -2.553112572059035301e-03 4.757211357355117798e-02 7.522560656070709229e-02 -4.065167158842086792e-02 2.326501347124576569e-02 1.267070788890123367e-02 -7.371294498443603516e-02 7.166646420955657959e-02 8.319729566574096680e-02 8.251065015792846680e-02 7.705772668123245239e-02 9.097764641046524048e-02 9.896478801965713501e-02 7.949958741664886475e-02 -8.266306482255458832e-03 4.499525576829910278e-02 -5.537746101617813110e-02 -2.638197876513004303e-02 -2.768695354461669922e-02 5.469026044011116028e-02 -8.299347013235092163e-02 1.396925467997789383e-02
8.325257897377014160e-02 8.732356876134872437e-02 -5.225023254752159119e-02 1.423038989305496216e-01 3.884064406156539917e-02 1.085469126701354980e-01 2.723644301295280457e-02 1.534852683544158936e-01 3.966096416115760803e-02 5.740848928689956665e-02 1.173384264111518860e-01 -7.965501397848129272e-03 -5.003231763839721680e-02 3.979063406586647034e-02 3.339852392673492432e-02 -5.601957440376281738e-02 -9.579847753047943115e-02 -5.770922079682350159e-02 6.710286438465118408e-02 -3.153162449598312378e-02 -1.489542517811059952e-02 -6.529465317726135254e-02 -3.626893833279609680e-02 -3.869619686156511307e-03 5.833018105477094650e-03 3.137617558240890503e-02 2.821554616093635559e-02 8.926016837358474731e-02 2.826882898807525635e-01 6.561028212308883667e-02 3.037370555102825165e-02 -3.042123466730117798e-02 3.863457217812538147e-02 8.889988064765930176e-02 -4.437331110239028931e-02 -3.907530754804611206e-02 6.779444962739944458e-02 3.391892835497856140e-02 1.237522345036268234e-02 4.333095625042915344e-02 4.095223173499107361e-02 1.338686347007751465e-01 -4.614546522498130798e-02 -1.165248006582260132e-01 4.816793277859687805e-02 -1.207874417304992676e-01 2.650146186351776123e-02 4.034646973013877869e-02 -4.852539300918579102e-02 -3.424258204177021980e-03 3.658219426870346069e-02 4.478952288627624512e-02 1.238366439938545227e-01 4.920584335923194885e-02 3.405883908271789551e-02 8.504183590412139893e-02 -5.053997784852981567e-02 1.611375808715820312e-02 1.559495273977518082e-02 9.727426804602146149e-03 2.174776792526245117e-02 2.980617247521877289e-02 1.665109843015670776e-01 5.062295589596033096e-03 4.604965448379516602e-02 -2.943304739892482758e-02 2.583878487348556519e-02 9.015468508005142212e-02 -4.752020910382270813e-02 2.659489400684833527e-02 9.182859212160110474e-02 -1.848028898239135742e-01 -1.147474050521850586e-01 -1.127998009324073792e-01 1.079668030142784119e-01 2.985225990414619446e-02 -1.646733656525611877e-02 2.767331711947917938e-02 7.967685908079147339e-02 -1.308084744960069656e-02 -4.981564357876777649e-02 2.366418950259685516e-02 1.140082105994224548e-01 -9.461420029401779175e-02 -2.191606350243091583e-02 1.516307611018419266e-02 -6.563808768987655640e-02 -9.301640093326568604e-02 1.589336693286895752e-01 1.102967467159032822e-02 -1.564894989132881165e-02 -8.826858364045619965e-03 -2.909672260284423828e-02 -3.898557275533676147e-02 2.083730651065707207e-03 1.837447844445705414e-02 -1.452790480107069016e-02 1.519543677568435669e-01 -7.271456718444824219e-02 7.027165591716766357e-02
1.482576876878738403e-02 1.752862781286239624e-01 -1.022921781986951828e-02 1.173205114901065826e-02 7.510782033205032349e-02 1.077633500099182129e-01 -3.815476596355438232e-02 2.260300964117050171e-01 3.373687714338302612e-02 -6.517990678548812866e-02 8.321470767259597778e-02 7.237771153450012207e-02 -8.800188452005386353e-02 -2.960391808301210403e-03 1.254833303391933441e-02 3.309544920921325684e-02 3.172969445586204529e-02 -4.255170375108718872e-02 1.487754285335540771e-01 -5.852245911955833435e-02 -3.687008097767829895e-02 1.166496332734823227e-02 -5.037211254239082336e-02 4.567376524209976196e-02 8.736272156238555908e-02 2.119054794311523438e-01 5.577860027551651001e-02 -1.456851959228515625e-01 -7.393235713243484497e-02 8.704198524355888367e-03 -3.169131278991699219e-02 -4.004669189453125000e-02 -8.884243667125701904e-02 -5.715352948755025864e-03 -4.351113364100456238e-02 -8.014135062694549561e-03 -5.139491334557533264e-02 3.201531246304512024e-02 8.052968233823776245e-02 1.066984906792640686e-01 -2.517133019864559174e-02 -3.096755407750606537e-02 -4.579005390405654907e-02 1.049184519797563553e-02 2.176528610289096832e-02 2.705549448728561401e-02 8.044316619634628296e-02 -9.267778694629669189e-02 -2.701114490628242493e-02 7.717067003250122070e-02 -1.828206889331340790e-02 7.999105006456375122e-02 -8.859390020370483398e-02 -1.889022067189216614e-02 1.440056413412094116e-01 8.245897479355335236e-03 8.858257532119750977e-02 7.935148477554321289e-02 -2.999542094767093658e-02 -9.938880056142807007e-02 3.829482942819595337e-02 -5.887044593691825867e-02 6.702991575002670288e-02 -6.696222722530364990e-02 -3.549212217330932617e-02 -4.534044489264488220e-02 -7.765356451272964478e-02 -9.859984368085861206e-02 -7.320091873407363892e-02 1.564147509634494781e-02 -5.027380585670471191e-02 -4.372227564454078674e-02 1.429350674152374268e-01 -2.652722597122192383e-02 -5.736812949180603027e-02 -2.975606918334960938e-02 8.255071938037872314e-02 5.120587535202503204e-03 7.781523466110229492e-02 5.920524522662162781e-02 1.392112970352172852e-01 -5.848171561956405640e-02 3.774968385696411133e-01 9.973179548978805542e-02 4.915453866124153137e-02 1.378087420016527176e-02 5.117605999112129211e-02 -4.926799610257148743e-02 -1.431005774065852165e-03 -8.073472231626510620e-02 2.372482977807521820e-02 -4.636472836136817932e-02 7.769835181534290314e-03 -6.679689139127731323e-02 -4.591142013669013977e-02 -6.100035458803176880e-02 -4.924006387591362000e-02 1.671621799468994141e-01 -5.405956879258155823e-02 -1.267503481358289719e-02
1.069367602467536926e-01 -7.584366202354431152e-02 -5.960951000452041626e-02 -1.185380518436431885e-01 4.930851235985755920e-02 -6.234434898942708969e-03 -3.349907323718070984e-02 1.616845577955245972e-01 9.822281450033187866e-02 -4.587848111987113953e-02 6.739222258329391479e-02 -5.444056168198585510e-02 5.815303418785333633e-03 -5.497512966394424438e-02 8.860316127538681030e-02 -3.792672231793403625e-02 5.026602745056152344e-02 -8.557313680648803711e-02 6.407234072685241699e-02 1.268262565135955811e-01 -3.428491577506065369e-02 -3.453075140714645386e-02 4.141912609338760376e-02 4.835210368037223816e-02 7.722627371549606323e-02 -6.458628177642822266e-02 -2.047523111104965210e-02 -9.355711936950683594e-02 1.371405571699142456e-01 -7.990438491106033325e-02 6.475817412137985229e-02 8.789795450866222382e-03 7.966752350330352783e-02 4.932658746838569641e-02 6.291987746953964233e-02 9.585397690534591675e-02 3.044510027393698692e-03 4.592704772949218750e-02 -1.855856180191040039e-02 8.821703493595123291e-03 1.885166466236114502e-01 3.229426220059394836e-02 -7.231513410806655884e-02 2.635684330016374588e-03 -7.137471437454223633e-02 1.077968627214431763e-01 5.767979845404624939e-02 -8.006018400192260742e-02 2.716823853552341461e-02 -3.044275008141994476e-02 -4.954716190695762634e-02 1.166962087154388428e-01 -4.073156043887138367e-02 1.444703433662652969e-03 4.173178225755691528e-02 9.854902327060699463e-02 2.495622634887695312e-02 3.950904682278633118e-02 -4.219416528940200806e-02 8.687531948089599609e-02 4.664979130029678345e-02 5.452165752649307251e-02 9.176158905029296875e-02 -5.329343304038047791e-02 -7.498973608016967773e-02 -5.613541696220636368e-03 4.612880945205688477e-02 -4.455419257283210754e-02 2.135505713522434235e-02 -5.311696603894233704e-02 4.078095406293869019e-02 6.933315098285675049e-02 -1.609401032328605652e-02 1.122298538684844971e-01 -6.484949588775634766e-02 4.021760448813438416e-02 -1.592728495597839355e-02 7.586403936147689819e-02 -2.291168086230754852e-02 -8.504194021224975586e-02 7.192321866750717163e-02 1.610459089279174805e-01 3.722495138645172119e-01 1.248178537935018539e-02 8.409097045660018921e-02 -9.837281890213489532e-03 -5.245452001690864563e-02 -7.483990490436553955e-02 -1.016372069716453552e-01 8.850129693746566772e-02 -2.261227369308471680e-02 -2.584766782820224762e-02 -8.298217505216598511e-02 9.847321361303329468e-02 5.686866119503974915e-02 -7.695687003433704376e-03 8.884185552597045898e-02 1.312757730484008789e-01 6.659632921218872070e-02 5.392873194068670273e-03
-2.437178194522857666e-01 -5.864967405796051025e-02 -2.266260422766208649e-02 -2.009747475385665894e-01 -6.915820837020874023e-01 -5.406441092491149902e-01 -5.963011458516120911e-02 -2.300105243921279907e-01 5.575811862945556641e-01 -7.744039595127105713e-02 1.373992413282394409e-01 -1.361642479896545410e-01 3.018260002136230469e-02 1.863538101315498352e-02 -1.333573460578918457e-01 -6.666133552789688110e-02 2.461027354001998901e-01 -2.148543670773506165e-02 2.027564644813537598e-01 -1.897267997264862061e-01 -1.843223124742507935e-01 2.083760946989059448e-01 -3.293926641345024109e-02 -5.101381987333297729e-02 -7.941247522830963135e-02 -3.529593944549560547e-01 2.469216883182525635e-01 8.599655330181121826e-02 1.380635648965835571e-01 1.751457899808883667e-01 -8.960026502609252930e-02 -1.361647248268127441e-01 -1.060658544301986694e-01 -2.451086491346359253e-01 4.889164865016937256e-02 4.605536814779043198e-03 6.487374007701873779e-02 -6.645970791578292847e-02 3.015468083322048187e-02 4.316007792949676514e-01 2.694730646908283234e-02 2.029986530542373657e-01 9.269139915704727173e-02 -9.315231442451477051e-02 -3.593629598617553711e-02 9.987579286098480225e-02 2.031758129596710205e-01 -8.683186024427413940e-02 -9.782028384506702423e-03 4.605742171406745911e-02 1.224666647613048553e-02 1.297824084758758545e-01 -1.480997055768966675e-01 -2.315026335418224335e-02 6.761737912893295288e-02 7.893944159150123596e-03 -3.722390532493591309e-02 6.615702062845230103e-02 2.234063483774662018e-02 8.580747991800308228e-02 -1.096129417419433594e-04 3.488637134432792664e-02 -1.253510415554046631e-01 -2.776316925883293152e-02 8.205746859312057495e-02 8.150488138198852539e-02 5.217894911766052246e-02 -2.081674635410308838e-01 1.247789524495601654e-02 8.700450509786605835e-02 -6.089474260807037354e-02 1.582921296358108521e-02 3.515660762786865234e-02 -1.101049967110157013e-02 6.705783307552337646e-02 8.607662282884120941e-03 2.023613750934600830e-01 1.047346647828817368e-02 -7.839869707822799683e-02 7.719667255878448486e-02 -2.276798933744430542e-01 -1.496216282248497009e-02 2.892374396324157715e-01 -5.831160768866539001e-02 4.074793308973312378e-02 -1.009344160556793213e-01 -3.114940598607063293e-03 -4.439425654709339142e-03 -1.504120707511901855e+00 6.794153153896331787e-02 -2.930544689297676086e-02 3.902369737625122070e-02 6.320535391569137573e-02 -4.767153039574623108e-02 -4.483648762106895447e-02 -3.170261904597282410e-02 -1.657956838607788086e-02 -2.257804572582244873e-01 3.946973755955696106e-02 1.550567150115966797e-02
1.205669250339269638e-02 3.967962786555290222e-02 -3.059357404708862305e-02 -2.056610025465488434e-02 2.209841087460517883e-02 -4.326225444674491882e-02 7.921415567398071289e-02 -6.053460389375686646e-02 -2.403533086180686951e-02 -2.760973013937473297e-02 9.365073591470718384e-02 -2.045954950153827667e-02 -2.371231280267238617e-02 2.035173587501049042e-02 -1.150323543697595596e-03 -6.839237362146377563e-02 4.127341136336326599e-02 5.047561600804328918e-02 3.111940622329711914e-02 5.112088099122047424e-02 -5.239776894450187683e-02 -1.135142222046852112e-01 -7.620692253112792969e-02 -7.280339952558279037e-03 -3.906476497650146484e-02 1.754551529884338379e-01 4.897565394639968872e-02 -2.229740284383296967e-02 -1.857006698846817017e-01 -2.468273509293794632e-03 9.850680083036422729e-02 2.285511791706085205e-01 6.565802544355392456e-02 4.745765775442123413e-02 2.973210811614990234e-02 9.384365379810333252e-02 -3.703157603740692139e-02 5.947903543710708618e-02 -4.201298952102661133e-02 6.383713334798812866e-03 -1.738153956830501556e-02 -1.041668653488159180e-01 -6.267848610877990723e-02 -5.987008102238178253e-03 7.692697644233703613e-02 7.484187930822372437e-02 -1.562960892915725708e-01 -1.063970383256673813e-02 -8.473790250718593597e-03 9.734444320201873779e-02 9.841185994446277618e-03 1.050292029976844788e-01 1.201976686716079712e-01 4.884751979261636734e-03 1.973384618759155273e-02 1.200907211750745773e-02 -1.686114817857742310e-02 3.749341890215873718e-02 -2.145618014037609100e-02 -7.715829461812973022e-02 9.193491935729980469e-02 6.744195520877838135e-02 -4.141563922166824341e-02 9.521758556365966797e-02 -5.121686682105064392e-02 1.313412748277187347e-02 -4.915252327919006348e-02 1.315171569585800171e-01 -8.396599441766738892e-02 -4.924939200282096863e-02 5.339416489005088806e-02 7.833155989646911621e-02 -2.419994957745075226e-02 -1.327646076679229736e-01 -7.897351868450641632e-03 4.449364170432090759e-02 3.358687832951545715e-02 -6.343521177768707275e-02 9.819780476391315460e-03 3.381121205165982246e-03 -7.544574886560440063e-02 9.471090883016586304e-02 -1.467855572700500488e-01 4.043182358145713806e-02 -6.885499507188796997e-02 1.844416372478008270e-03 -8.134980499744415283e-02 -1.324203051626682281e-02 -1.977297849953174591e-02 7.223799079656600952e-02 3.882126882672309875e-02 1.629801690578460693e-01 -6.982053816318511963e-02 -4.698456823825836182e-02 9.781694971024990082e-03 -7.114861905574798584e-02 -4.478695616126060486e-02 1.696625798940658569e-01 8.592054992914199829e-02 -2.585046365857124329e-02
-1.733417659997940063e-01 -9.463872015476226807e-02 1.436405163258314133e-02 -1.129304021596908569e-01 -7.163868751376867294e-03 3.062620235141366720e-04 -3.438695520162582397e-02 6.448297947645187378e-02 1.537890057079493999e-03 5.798977613449096680e-02 -1.106098517775535583e-01 1.983636058866977692e-02 -9.132456965744495392e-03 1.157635301351547241e-01 8.849395811557769775e-02 8.528202772140502930e-02 -3.181848675012588501e-02 -2.838735654950141907e-02 2.051013708114624023e-01 -7.209771126508712769e-02 6.442367285490036011e-02 5.905938521027565002e-02 -9.926450438797473907e-03 -6.323623657226562500e-02 6.216545030474662781e-02 1.043165475130081177e-01 5.972281843423843384e-02 -2.607529610395431519e-02 1.048524230718612671e-01 3.960467129945755005e-02 -3.397373110055923462e-02 1.293641626834869385e-01 -5.468520894646644592e-02 8.795782923698425293e-02 5.934509262442588806e-02 -6.082865223288536072e-02 5.984530970454216003e-02 2.476370334625244141e-02 4.944235086441040039e-02 1.526511162519454956e-01 -2.162439562380313873e-02 3.450030460953712463e-02 -2.344211377203464508e-02 1.577721536159515381e-01 -3.680199384689331055e-02 2.280649729073047638e-02 8.907859772443771362e-02 -3.280878008808940649e-04 -9.756803512573242188e-03 -1.230687275528907776e-02 -1.284703053534030914e-02 -3.631130605936050415e-02 1.281926184892654419e-01 -7.480371743440628052e-02 -3.154829842969775200e-03 8.894217014312744141e-02 7.418983429670333862e-02 -7.123788446187973022e-02 8.401189744472503662e-02 -9.273068606853485107e-02 -9.921204298734664917e-02 8.930563926696777344e-03 -1.075052618980407715e-01 -1.058360002934932709e-02 -8.759601414203643799e-02 3.168658167123794556e-02 -1.093658711761236191e-02 2.610532753169536591e-02 -8.631284534931182861e-02 6.010512262582778931e-02 4.515348374843597412e-02 1.791672557592391968e-01 9.503525495529174805e-02 1.387062519788742065e-01 6.520491093397140503e-02 2.991083823144435883e-02 -6.172165647149085999e-02 -7.352655380964279175e-02 -4.662400484085083008e-02 2.407068014144897461e-02 -3.193645551800727844e-02 4.507056996226310730e-02 -5.687311291694641113e-03 1.024968642741441727e-02 -2.252958714962005615e-02 2.064363956451416016e-01 -2.946605719625949860e-02 3.600609302520751953e-02 -8.760876022279262543e-03 -1.062899082899093628e-02 8.162200450897216797e-03 3.394789248704910278e-02 -6.289434432983398438e-02 9.902395308017730713e-03 -6.438284367322921753e-02 -9.625289589166641235e-02 7.489478588104248047e-02 -2.215402275323867798e-01 1.072035208344459534e-01 -3.121802769601345062e-02
1.962319388985633850e-02 3.515105843544006348e-01 7.729754596948623657e-02 7.515195291489362717e-03 6.313505768775939941e-02 -4.461744427680969238e-01 3.282960131764411926e-02 1.666326224803924561e-01 -3.949938118457794189e-01 -3.702223300933837891e-03 -1.698810458183288574e-01 1.655767858028411865e-02 7.944293320178985596e-02 1.116909384727478027e-01 2.765143290162086487e-02 -2.483086660504341125e-02 1.111061871051788330e-01 -4.767731577157974243e-02 -1.089797262102365494e-02 1.256809663027524948e-02 -2.079220414161682129e-01 -6.450387835502624512e-02 -3.941688686609268188e-02 1.012776270508766174e-01 -1.534556131809949875e-02 3.344986587762832642e-02 -2.532605230808258057e-01 -5.790099501609802246e-02 -3.975556045770645142e-02 1.365194022655487061e-01 2.546218596398830414e-02 -7.155732810497283936e-02 1.576246917247772217e-01 1.366021484136581421e-02 -7.188629359006881714e-02 8.523330837488174438e-02 -9.906790405511856079e-02 -5.342077091336250305e-02 8.015304803848266602e-02 -6.433988362550735474e-02 5.586208403110504150e-02 -1.341682970523834229e-01 -6.466754712164402008e-03 -7.201210595667362213e-03 -9.130261093378067017e-02 3.087319433689117432e-02 4.829803481698036194e-02 5.402801185846328735e-02 -5.812078714370727539e-02 6.245473399758338928e-02 8.431646227836608887e-02 -4.071412235498428345e-02 -2.653428912162780762e-02 -3.994143754243850708e-02 1.195597574114799500e-01 8.246437460184097290e-02 -8.973622694611549377e-03 -8.816134929656982422e-02 2.274531126022338867e-02 -7.967213541269302368e-02 6.862083822488784790e-02 4.698843881487846375e-02 2.507200650870800018e-02 -8.117283135652542114e-02 -1.658933237195014954e-02 -6.152723915874958038e-03 4.648340493440628052e-02 -1.048007234930992126e-01 -9.617589414119720459e-02 -3.838238492608070374e-02 -6.607486307621002197e-02 -4.468373209238052368e-02 4.591281525790691376e-03 -1.279649138450622559e-02 4.287943243980407715e-02 -4.001572355628013611e-02 1.357674896717071533e-01 -4.667881876230239868e-02 3.298334777355194092e-02 -7.003324478864669800e-02 -1.706651002168655396e-01 -1.498269266448915005e-03 -8.703302592039108276e-02 -5.312191322445869446e-02 -5.144059658050537109e-02 3.182727843523025513e-02 -7.044675201177597046e-02 5.223159864544868469e-02 6.190625950694084167e-02 2.095727249979972839e-02 -4.004479572176933289e-02 6.971024721860885620e-02 -2.718836069107055664e-02 -1.067706663161516190e-02 3.935668617486953735e-02 -6.571809202432632446e-02 7.622840255498886108e-02 3.090892732143402100e-02 -7.263071089982986450e-02 -3.978778421878814697e-02
-7.990521192550659180e-02 -9.200938791036605835e-02 -9.011705964803695679e-02 -4.064704105257987976e-02 -6.821056455373764038e-02 3.435921669006347656e-02 7.138427346944808960e-02 -5.633177980780601501e-02 -7.150701433420181274e-02 9.748236089944839478e-02 -8.313586562871932983e-02 4.636240191757678986e-03 -7.604294270277023315e-02 -8.342342823743820190e-02 -3.360285982489585876e-02 4.093788936734199524e-02 6.308007519692182541e-03 -3.631293773651123047e-02 2.175529114902019501e-02 2.865579165518283844e-02 8.728078752756118774e-02 -9.807590395212173462e-02 -7.304699718952178955e-02 -7.239643484354019165e-02 4.825076088309288025e-02 2.016305952565744519e-04 1.592239178717136383e-02 -4.559136554598808289e-02 3.206482157111167908e-02 -7.062684744596481323e-02 5.193252488970756531e-02 -4.358296468853950500e-02 8.533183485269546509e-02 3.505718661472201347e-03 1.840024068951606750e-02 -3.060318343341350555e-02 -2.914512297138571739e-03 -7.363285869359970093e-02 2.395036257803440094e-02 -4.073189571499824524e-02 -4.995614290237426758e-02 2.761647664010524750e-02 4.632883146405220032e-02 -8.814366906881332397e-02 8.038723841309547424e-03 9.995854459702968597e-03 -4.694610834121704102e-02 -9.671203047037124634e-02 -7.692867517471313477e-02 7.624979317188262939e-02 8.481054753065109253e-02 -1.047593355178833008e-02 -4.561306163668632507e-02 6.631597131490707397e-02 -7.196281105279922485e-02 4.278665781021118164e-02 5.007649585604667664e-02 3.261333703994750977e-02 -2.541282214224338531e-02 -6.062518432736396790e-02 7.679648697376251221e-02 -1.891144551336765289e-02 -6.140565965324640274e-03 -7.163641601800918579e-02 4.358882829546928406e-02 5.216673761606216431e-02 7.285449653863906860e-02 2.641415689140558243e-03 7.296764757484197617e-03 4.501738771796226501e-02 -1.597080193459987640e-02 -7.149790972471237183e-02 2.189984358847141266e-02 7.186663337051868439e-03 5.967316776514053345e-02 -5.324878916144371033e-02 6.923794746398925781e-03 -6.039341911673545837e-02 9.025097242556512356e-04 7.906375080347061157e-02 6.897544115781784058e-02 8.984822034835815430e-02 6.538747996091842651e-02 9.959544241428375244e-02 4.802710935473442078e-02 -6.849917024374008179e-02 -8.798122406005859375e-03 -8.037520945072174072e-02 7.493519689887762070e-03 -6.901438534259796143e-02 6.364679336547851562e-02 1.376489456743001938e-02 -6.192198023200035095e-02 7.803680747747421265e-02 2.038741251453757286e-03 -6.078020483255386353e-02 -5.290865898132324219e-03 -2.576259337365627289e-02 -1.021280325949192047e-02 1.373708248138427734e-03
-2.546687755966559052e-05 5.845486372709274292e-02 1.246542949229478836e-02 1.170290708541870117e-01 -8.908445388078689575e-02 -1.060774698853492737e-01 -6.410493701696395874e-02 -1.352177858352661133e-01 -1.475829724222421646e-02 5.823564715683460236e-03 4.098016023635864258e-02 9.797657281160354614e-02 1.938275061547756195e-02 -9.680023649707436562e-04 -1.050656195729970932e-03 -7.336004823446273804e-02 9.125014394521713257e-02 -1.650054939091205597e-02 6.366145610809326172e-02 7.928124815225601196e-02 1.267592459917068481e-01 9.706194698810577393e-02 -1.677297987043857574e-02 6.312897056341171265e-02 -3.527224063873291016e-02 4.141798242926597595e-02 3.670486062765121460e-02 7.884022593498229980e-02 3.148361295461654663e-02 -7.768782228231430054e-02 -7.158082723617553711e-02 -4.101527109742164612e-02 -1.317474544048309326e-01 -8.849813044071197510e-02 9.354295581579208374e-02 -6.435196846723556519e-02 -7.791863381862640381e-02 7.157718390226364136e-02 4.786074161529541016e-03 -8.623653650283813477e-02 -2.263847179710865021e-02 1.939624734222888947e-02 -2.975227870047092438e-02 6.070550903677940369e-02 1.015517953783273697e-02 1.370137184858322144e-01 4.172530025243759155e-03 -1.995811425149440765e-02 1.731286011636257172e-02 -2.457770332694053650e-02 7.274895161390304565e-02 -3.439442068338394165e-02 -7.203542441129684448e-02 3.114464692771434784e-02 9.890852496027946472e-03 9.044545143842697144e-02 6.173080205917358398e-02 -5.044007301330566406e-02 -1.160033326596021652e-02 -1.587911136448383331e-02 -5.794086679816246033e-02 -8.200860023498535156e-02 5.384297575801610947e-03 9.039151668548583984e-02 -4.361703619360923767e-02 -5.935022979974746704e-02 4.279575869441032410e-02 1.615725755691528320e-01 -6.187526881694793701e-02 3.625014424324035645e-02 5.856845155358314514e-02 -5.297600850462913513e-02 1.835862696170806885e-01 2.603238634765148163e-02 -9.034180641174316406e-02 -9.643447399139404297e-02 -2.454652078449726105e-02 3.979145362973213196e-02 -3.409619256854057312e-02 1.976163499057292938e-02 7.392007857561111450e-02 -6.576927006244659424e-02 -2.186061888933181763e-01 -5.004203412681818008e-03 -2.811676356941461563e-03 -4.169455543160438538e-02 3.735498338937759399e-02 5.415241792798042297e-02 -1.013070046901702881e-01 5.903736129403114319e-02 5.208212137222290039e-02 1.287869065999984741e-01 -3.285331651568412781e-02 6.550069898366928101e-02 9.655489027500152588e-02 8.491187542676925659e-02 9.799329191446304321e-02 -1.868596374988555908e-01 9.616801142692565918e-02 -4.148428887128829956e-02
-4.497299715876579285e-02 -1.310044080018997192e-01 8.226612955331802368e-02 -8.795189857482910156e-02 -8.289520442485809326e-02 -9.013608098030090332e-02 -9.217324107885360718e-02 -4.638522863388061523e-02 -9.054440259933471680e-02 -5.806509405374526978e-02 -8.571298420429229736e-02 -1.883630827069282532e-02 -8.636146783828735352e-02 -1.091963052749633789e-01 -4.892261698842048645e-02 8.548089861869812012e-02 -1.147610917687416077e-01 -1.786006800830364227e-02 4.492657259106636047e-02 4.261700063943862915e-02 3.775720298290252686e-02 5.619679577648639679e-03 -8.196869492530822754e-02 -2.084626629948616028e-02 8.443172276020050049e-02 3.118944726884365082e-02 -1.015786007046699524e-01 7.187124807387590408e-03 -1.100677624344825745e-01 -1.124277636408805847e-01 8.136638253927230835e-02 -7.000174373388290405e-02 -6.269729882478713989e-02 -4.067659378051757812e-02 6.336282193660736084e-02 -6.773813068866729736e-02 -3.802200779318809509e-02 -8.685971796512603760e-02 -1.509499549865722656e-02 4.730965569615364075e-02 2.736914902925491333e-02 -1.199163645505905151e-01 -5.508637428283691406e-02 -4.805069044232368469e-02 7.083820551633834839e-02 3.532962501049041748e-02 -3.464755043387413025e-02 5.869492515921592712e-02 -7.448744773864746094e-02 -1.478465273976325989e-02 3.385375067591667175e-02 -1.471160948276519775e-01 1.182084437459707260e-02 1.890919916331768036e-02 -1.278228498995304108e-02 -6.019933149218559265e-02 -1.038922816514968872e-01 1.082122325897216797e-02 -8.972741663455963135e-02 -1.124114319682121277e-01 -3.243086487054824829e-02 -9.872400760650634766e-02 1.425110641866922379e-02 3.549621254205703735e-02 5.865335697308182716e-04 -8.910424262285232544e-02 1.537613570690155029e-02 4.546832665801048279e-02 -2.390394918620586395e-02 -3.145322203636169434e-02 -1.469921022653579712e-01 -1.826213486492633820e-02 -9.801277518272399902e-02 4.083134979009628296e-02 5.067119374871253967e-02 -6.580376531928777695e-03 -2.835599519312381744e-02 -5.816124752163887024e-02 -5.453168228268623352e-02 -4.763023927807807922e-02 -1.353277359157800674e-03 2.863296121358871460e-02 3.904423862695693970e-02 -8.941527456045150757e-02 2.617510594427585602e-02 -4.515521228313446045e-02 -2.129814960062503815e-02 -8.780401945114135742e-02 -6.801476329565048218e-02 6.045135855674743652e-02 -7.320590317249298096e-02 -6.267093704082071781e-04 1.953130960464477539e-02 1.532447058707475662e-02 -8.705753087997436523e-02 1.274640113115310669e-02 7.549756765365600586e-02 6.837967783212661743e-02 -1.181824039667844772e-02 -3.642927110195159912e-02
-2.779787220060825348e-02 6.676641106605529785e-02 3.138816356658935547e-02 -3.331898152828216553e-02 -8.860323578119277954e-02 2.166154421865940094e-02 -1.695160754024982452e-02 -4.195521026849746704e-02 -7.556247711181640625e-02 7.848814874887466431e-02 3.633844479918479919e-02 -8.389139920473098755e-02 -6.709521263837814331e-02 -3.644295502454042435e-03 6.645739823579788208e-02 9.150733053684234619e-02 4.926576092839241028e-02 -5.441813915967941284e-02 3.362860530614852905e-02 -2.872659824788570404e-02 5.432533100247383118e-02 -1.079124510288238525e-01 3.348266705870628357e-02 4.601576551795005798e-02 6.870450824499130249e-02 -1.317322370596230030e-03 1.548642106354236603e-02 -9.555657953023910522e-02 -2.944647893309593201e-02 2.027205377817153931e-02 7.544267456978559494e-03 -4.148211795836687088e-03 6.400516629219055176e-02 2.751009538769721985e-02 -1.052340716123580933e-01 -1.965770497918128967e-02 -7.035887986421585083e-02 -2.204120159149169922e-02 2.843061648309230804e-02 7.947036623954772949e-02 -5.917283520102500916e-02 1.270360127091407776e-02 -2.666070684790611267e-02 -5.141471512615680695e-03 -9.406694024801254272e-02 -1.523271203041076660e-02 -1.053246632218360901e-01 1.128160976804792881e-03 9.829183667898178101e-02 -3.971270285546779633e-03 1.420959271490573883e-02 -1.347817387431859970e-02 -4.988082870841026306e-02 6.700654327869415283e-02 8.434567600488662720e-02 7.190965861082077026e-02 2.543510869145393372e-02 -3.968205675482749939e-02 8.140730857849121094e-02 -8.589035272598266602e-02 7.900471985340118408e-02 -2.815080992877483368e-02 -9.134097397327423096e-02 4.950404912233352661e-02 6.008568033576011658e-02 -4.874953627586364746e-02 8.896039426326751709e-02 -1.074909865856170654e-01 -4.791337414644658566e-04 7.926210761070251465e-02 -4.296854883432388306e-02 5.029146000742912292e-02 -2.315227314829826355e-02 -1.942964643239974976e-02 -1.018934398889541626e-01 -1.988931931555271149e-02 1.034007295966148376e-01 1.044447440654039383e-02 5.639801919460296631e-02 -8.597435057163238525e-02 7.330051064491271973e-02 5.389379709959030151e-02 6.198135390877723694e-02 -5.633491277694702148e-02 -4.525334388017654419e-02 -1.076164171099662781e-01 2.961724437773227692e-02 -5.927010998129844666e-02 -8.767134696245193481e-02 3.164556622505187988e-02 -4.991766437888145447e-02 2.617198228836059570e-02 9.395269304513931274e-02 -4.017934575676918030e-02 -4.091677814722061157e-02 4.841002076864242554e-02 2.294958941638469696e-02 -1.094306856393814087e-01 -4.804484173655509949e-02 8.419266343116760254e-02
1.495576947927474976e-01 -4.026648774743080139e-02 -6.117892451584339142e-03 -3.565119206905364990e-02 5.677084624767303467e-02 -4.754971712827682495e-02 -6.733757257461547852e-02 4.756505042314529419e-02 -8.438925445079803467e-02 3.869443014264106750e-02 4.770144447684288025e-02 2.186664845794439316e-03 6.780640035867691040e-02 -6.962032988667488098e-03 -4.978615418076515198e-02 3.289777413010597229e-02 7.789216935634613037e-02 8.301722258329391479e-02 -2.241235524415969849e-01 1.082833856344223022e-01 1.805174909532070160e-02 8.756678551435470581e-02 7.772385329008102417e-02 2.066107653081417084e-02 1.769096963107585907e-02 4.926461260765790939e-03 3.914831578731536865e-02 -1.034630760550498962e-01 1.021917238831520081e-01 1.278938204050064087e-01 -6.394629925489425659e-02 -3.694263845682144165e-02 -2.649128437042236328e-02 4.409755021333694458e-02 -1.021369695663452148e-01 -8.563346415758132935e-02 9.904808364808559418e-03 -3.122930601239204407e-02 5.027404054999351501e-02 -4.213080275803804398e-03 2.699308970477432013e-04 -8.011069148778915405e-02 9.552756696939468384e-02 1.128357946872711182e-01 5.289236456155776978e-02 8.424869924783706665e-02 6.655364483594894409e-02 -3.929938003420829773e-02 3.786076232790946960e-02 -7.767281681299209595e-02 3.579970821738243103e-02 2.917710505425930023e-02 4.835188388824462891e-02 -8.402749896049499512e-02 1.408920623362064362e-02 4.478017240762710571e-02 -6.608098000288009644e-02 5.639968067407608032e-02 3.106348775327205658e-02 -5.874826572835445404e-03 -4.096693918108940125e-02 7.516862452030181885e-02 1.887126713991165161e-01 -6.573211401700973511e-02 -7.192174345254898071e-02 1.034568101167678833e-01 7.271289080381393433e-02 -1.133575513958930969e-01 -3.313259407877922058e-02 1.804275624454021454e-02 -2.163778245449066162e-02 3.259432688355445862e-02 1.173034980893135071e-01 1.334395557641983032e-01 -9.438398480415344238e-02 -2.112461440265178680e-02 1.324925720691680908e-01 3.098553419113159180e-02 -6.151254102587699890e-02 7.946449518203735352e-02 1.544109452515840530e-02 -6.332488358020782471e-02 4.941800981760025024e-02 -1.028342265635728836e-02 6.527236104011535645e-02 6.201436743140220642e-03 8.261987008154392242e-03 5.121363326907157898e-02 -8.898268570192158222e-04 -9.614214301109313965e-03 7.928904145956039429e-02 -7.483095675706863403e-02 -1.929152011871337891e-02 8.712175302207469940e-03 -1.693228445947170258e-02 -6.965962052345275879e-02 6.186336278915405273e-02 -7.631750404834747314e-02 3.347824513912200928e-02 -2.802667394280433655e-02
1.273764073848724365e-01 -1.301313787698745728e-01 1.064202841371297836e-02 3.817574307322502136e-02 6.318621337413787842e-02 5.258562788367271423e-02 -6.606938689947128296e-02 6.215956434607505798e-02 -1.145705580711364746e-01 5.719387438148260117e-03 4.625996351242065430e-01 -6.830732524394989014e-02 -3.632971271872520447e-02 -1.387561261653900146e-01 1.036579757928848267e-01 -8.458049595355987549e-02 8.165334910154342651e-02 -3.866350650787353516e-02 1.754425466060638428e-02 5.627948790788650513e-03 1.518072336912155151e-01 -1.479590311646461487e-02 1.218627672642469406e-02 2.621144615113735199e-02 2.063781023025512695e-02 -9.113921970129013062e-02 -1.777281165122985840e-01 -8.987582474946975708e-02 -2.749194158241152763e-03 1.566544473171234131e-01 -9.440767019987106323e-02 -8.499584347009658813e-02 6.953328102827072144e-02 -7.836121320724487305e-02 -9.506914019584655762e-02 5.909806862473487854e-02 -9.190013259649276733e-02 8.772100508213043213e-02 2.863270044326782227e-02 7.658200711011886597e-02 -1.672270894050598145e-01 -2.359903901815414429e-01 5.553587153553962708e-02 1.474675387144088745e-01 4.237056523561477661e-02 1.708571612834930420e-02 -7.414237409830093384e-02 -8.863725513219833374e-02 4.145084694027900696e-02 4.615120589733123779e-02 -1.678778231143951416e-02 3.443474322557449341e-02 2.029249677434563637e-03 -1.315862089395523071e-01 -4.217894077301025391e-01 -2.111919037997722626e-02 -9.251011162996292114e-02 2.210081927478313446e-02 6.655567884445190430e-02 2.904706262052059174e-02 8.920866250991821289e-02 6.818716973066329956e-02 -7.521677762269973755e-02 -3.289048746228218079e-02 2.896652184426784515e-02 -3.859492763876914978e-02 -4.434195160865783691e-02 7.116141915321350098e-02 -5.002931877970695496e-02 5.871924385428428650e-02 -9.226500988006591797e-02 3.641801327466964722e-02 3.155931457877159119e-02 4.662409797310829163e-02 3.286613791715353727e-04 -2.652837149798870087e-02 4.590995237231254578e-02 6.645733118057250977e-02 -2.347846981137990952e-03 -8.716235309839248657e-02 -3.082132525742053986e-02 -6.280062347650527954e-02 -4.232056811451911926e-02 9.136120229959487915e-02 -2.830178849399089813e-02 -1.522043533623218536e-02 -1.329962350428104401e-02 5.152444913983345032e-02 -7.486315071582794189e-02 -2.329211495816707611e-02 4.913533851504325867e-02 4.104895889759063721e-02 -4.750820621848106384e-02 8.641041070222854614e-02 5.331007391214370728e-02 -2.351351268589496613e-02 4.556368663907051086e-02 -7.322625070810317993e-02 6.715997308492660522e-02 3.301420435309410095e-02
-7.537641376256942749e-02 -1.814934313297271729e-01 -8.107995986938476562e-02 9.586778283119201660e-02 -8.508007228374481201e-02 3.236091136932373047e-02 -7.979882508516311646e-02 -5.292205512523651123e-02 -1.533528417348861694e-01 -2.834162674844264984e-02 2.580877020955085754e-02 1.509669721126556396e-01 3.930769115686416626e-02 -1.197603642940521240e-01 3.063615970313549042e-02 4.413855448365211487e-02 -1.031037140637636185e-02 -1.257891487330198288e-02 1.613359451293945312e-01 6.535165756940841675e-02 -1.856234669685363770e-01 -2.433884330093860626e-02 -6.296959519386291504e-02 2.201189845800399780e-02 9.624805301427841187e-02 -1.168571785092353821e-01 -3.457421064376831055e-02 7.674837857484817505e-02 -4.305819980800151825e-03 -1.830100081861019135e-02 -7.941261678934097290e-02 -3.663708642125129700e-02 -4.146892949938774109e-02 9.172447025775909424e-02 -5.333567783236503601e-02 1.908625662326812744e-02 -7.360287010669708252e-02 -2.338954247534275055e-02 3.919601658708415926e-05 5.360190942883491516e-02 1.333211362361907959e-02 -1.322033405303955078e-01 -8.881835639476776123e-02 -6.231032311916351318e-02 -4.860031232237815857e-02 -6.558842957019805908e-02 1.329205930233001709e-01 -8.638221025466918945e-02 7.122956961393356323e-02 1.025903671979904175e-01 -6.881784647703170776e-02 -5.641755461692810059e-02 8.302655816078186035e-02 -4.697170108556747437e-02 -3.662676736712455750e-02 -3.418874694034457207e-03 3.581768646836280823e-02 -2.060844935476779938e-02 8.452013880014419556e-02 -7.360986620187759399e-02 7.143719494342803955e-02 9.561304003000259399e-02 -9.473914653062820435e-02 -1.136054657399654388e-02 5.726163461804389954e-02 -4.628450796008110046e-02 -6.341757625341415405e-02 -6.015913560986518860e-02 -5.506434291601181030e-02 5.289296433329582214e-02 4.018364474177360535e-03 1.344229429960250854e-01 1.678591780364513397e-02 1.017897352576255798e-01 6.743150204420089722e-02 -1.783674955368041992e-02 -6.454859673976898193e-02 -4.559451341629028320e-02 9.854661673307418823e-02 5.800253152847290039e-02 4.518697038292884827e-02 -2.207031659781932831e-02 -1.372494697570800781e-01 8.092645555734634399e-02 1.547308638691902161e-02 2.742428705096244812e-02 7.946797460317611694e-02 -6.642023473978042603e-02 9.351459890604019165e-02 -6.026406213641166687e-02 1.091974973678588867e-02 -6.643518060445785522e-02 5.121426656842231750e-02 -5.123393610119819641e-02 -7.452130666933953762e-04 6.426764279603958130e-02 4.614747688174247742e-02 -3.244734555482864380e-02 -8.864586055278778076e-02 9.712759405374526978e-02
-5.537012964487075806e-02 -5.806428939104080200e-02 -7.921592146158218384e-02 -1.426789071410894394e-02 -1.509922090917825699e-02 2.000700309872627258e-02 9.632862173020839691e-03 -9.957686811685562134e-02 -4.155528545379638672e-02 -5.831408500671386719e-02 -5.029141530394554138e-02 2.027832157909870148e-02 9.894283860921859741e-02 6.032246723771095276e-02 -5.629842355847358704e-02 -2.055693976581096649e-02 -5.787441506981849670e-02 6.323771923780441284e-02 -4.195925220847129822e-02 4.055378586053848267e-02 4.385970532894134521e-02 3.638482466340065002e-02 -8.928751200437545776e-02 -4.989317432045936584e-02 -2.347868680953979492e-02 -2.376390434801578522e-02 -5.857251212000846863e-02 -1.094733849167823792e-01 -3.354532411321997643e-03 -1.029125303030014038e-01 -2.469098567962646484e-02 -5.527012422680854797e-02 -6.508628278970718384e-02 -1.229753643274307251e-01 -2.306556701660156250e-02 -4.371250793337821960e-02 -1.641475036740303040e-02 -6.812111288309097290e-02 2.053153468295931816e-03 -7.151723653078079224e-02 -2.889765053987503052e-02 -4.675950855016708374e-02 9.318017959594726562e-02 -7.865500450134277344e-02 3.506081178784370422e-02 -7.878439873456954956e-02 -5.248141661286354065e-02 1.815863884985446930e-02 8.267738670110702515e-02 -9.291470050811767578e-03 -6.740868091583251953e-02 -1.099338307976722717e-01 1.745379646308720112e-03 -9.600004553794860840e-02 -1.232528612017631531e-01 8.615713566541671753e-02 1.250505447387695312e-02 -9.437648206949234009e-02 2.635693643242120743e-03 -6.273702718317508698e-03 5.640561506152153015e-02 -2.692282199859619141e-02 3.238997980952262878e-02 -8.945045620203018188e-02 7.462915033102035522e-02 6.553286314010620117e-02 4.082379490137100220e-02 -2.649944834411144257e-02 9.616269916296005249e-02 7.591011375188827515e-02 -3.775085881352424622e-02 5.189996212720870972e-02 -2.087052166461944580e-02 2.915656007826328278e-02 8.190060034394264221e-03 2.648174762725830078e-02 -4.078464955091476440e-02 3.959012031555175781e-02 9.837422519922256470e-02 -8.271940052509307861e-02 4.091148823499679565e-02 -7.911751419305801392e-02 -1.087807305157184601e-02 -6.314229965209960938e-02 -7.339767366647720337e-02 2.765280194580554962e-03 -1.225235499441623688e-02 7.207009941339492798e-02 -9.937579184770584106e-02 -9.048786014318466187e-02 -1.718156412243843079e-02 -5.318839848041534424e-02 -1.939346827566623688e-02 -4.315465688705444336e-02 -9.542720764875411987e-02 1.417158823460340500e-02 -2.970033884048461914e-02 -1.225242987275123596e-01 -6.016296148300170898e-02 -2.257610671222209930e-02
3.569483458995819092e-01 -2.345001995563507080e-01 3.232487663626670837e-02 -6.212628446519374847e-03 -9.302641265094280243e-03 1.355866044759750366e-01 5.922013521194458008e-02 -1.196412965655326843e-01 -1.837787926197052002e-01 -2.128400839865207672e-02 7.072376608848571777e-01 5.132882669568061829e-02 -8.915016800165176392e-02 2.883112058043479919e-02 -2.481806278228759766e-02 3.292172774672508240e-02 6.737890094518661499e-02 4.936578124761581421e-02 1.015969812870025635e-01 9.875117987394332886e-02 -3.814557567238807678e-02 -1.200540140271186829e-01 6.599325686693191528e-02 6.435012072324752808e-02 -4.296344518661499023e-02 -1.739842742681503296e-01 1.127745062112808228e-01 -6.682141870260238647e-02 7.516466081142425537e-02 4.486981630325317383e-01 9.708585590124130249e-02 -1.469179391860961914e-01 -6.543030962347984314e-03 1.503235776908695698e-03 -1.487833354622125626e-02 7.004880160093307495e-02 -3.403189405798912048e-02 -1.655579917132854462e-02 -2.541496790945529938e-02 9.471222758293151855e-02 -6.390739977359771729e-02 -2.910282313823699951e-01 -6.640496104955673218e-02 1.354176402091979980e-01 -5.584064498543739319e-02 -1.138283684849739075e-02 -1.183654442429542542e-01 -3.767669200897216797e-03 2.991368807852268219e-02 -7.784611731767654419e-02 9.101244807243347168e-02 5.440704151988029480e-02 -2.235398069024085999e-02 -2.577151954174041748e-01 -6.630335748195648193e-02 -3.387282043695449829e-02 -3.893548995256423950e-02 -4.433294758200645447e-02 -3.634643554687500000e-02 1.733527034521102905e-01 2.173340320587158203e-02 5.582777410745620728e-02 -1.029973551630973816e-01 5.299436394125223160e-03 -6.962784379720687866e-02 6.958255171775817871e-02 -3.820193558931350708e-02 7.577399909496307373e-02 -1.955314725637435913e-02 -2.815532870590686798e-02 1.246828585863113403e-01 5.980550311505794525e-03 -1.606330391950905323e-03 -2.215544879436492920e-02 8.855425566434860229e-02 6.412801891565322876e-02 1.046108528971672058e-01 6.036780029535293579e-02 -3.516352549195289612e-02 5.947406217455863953e-02 -2.138731479644775391e-01 3.905704990029335022e-02 1.003042142838239670e-02 -1.510139741003513336e-02 -7.651809602975845337e-02 4.247850179672241211e-02 -5.360462144017219543e-02 -1.916489563882350922e-02 9.857088327407836914e-03 4.535499587655067444e-02 -6.923592183738946915e-03 6.755774468183517456e-02 -7.471442222595214844e-02 -5.822937563061714172e-02 -9.041597694158554077e-02 4.771540313959121704e-02 6.930428743362426758e-02 -2.270703017711639404e-01 5.649440363049507141e-02 6.225713714957237244e-02
4.777611233294010162e-03 -6.672553718090057373e-02 6.223881151527166367e-03 5.687698349356651306e-02 1.051596272736787796e-02 -1.289230138063430786e-01 -8.708956651389598846e-03 1.216415539383888245e-01 8.279810100793838501e-02 -4.555900022387504578e-02 -1.648370474576950073e-01 -1.363423001021146774e-02 5.855475738644599915e-02 9.016238152980804443e-02 5.063353478908538818e-02 -3.866670280694961548e-02 2.365988492965698242e-02 -7.645168155431747437e-02 -1.561204087920486927e-03 2.042715810239315033e-02 2.939102053642272949e-01 1.688771098852157593e-01 -9.369485080242156982e-02 4.169756919145584106e-02 9.501858055591583252e-02 -8.865041285753250122e-02 -1.002143993973731995e-01 1.001426279544830322e-01 3.167250752449035645e-02 7.515655457973480225e-02 5.517864227294921875e-02 -1.276991069316864014e-01 -8.304262906312942505e-02 1.816631667315959930e-02 -4.277525842189788818e-02 5.489180237054824829e-02 -8.255024254322052002e-02 -1.004515867680311203e-02 -7.579620927572250366e-02 -2.306275442242622375e-02 -1.213430194184184074e-03 -1.060879305005073547e-01 4.517647251486778259e-02 -4.637651145458221436e-02 4.960716888308525085e-02 1.333155632019042969e-01 -1.347795128822326660e-01 -7.957611232995986938e-02 -2.504117600619792938e-02 -3.109730780124664307e-02 4.622618108987808228e-02 1.072274297475814819e-01 9.489126503467559814e-02 -1.185395643115043640e-01 -4.777589812874794006e-02 -9.108548611402511597e-02 1.022104844450950623e-01 9.307231754064559937e-02 2.147955447435379028e-02 4.943551868200302124e-02 -2.402600087225437164e-02 3.209977224469184875e-02 2.770573645830154419e-02 2.239592932164669037e-02 3.901920467615127563e-02 -6.141226738691329956e-02 -9.306813776493072510e-02 -6.484426558017730713e-02 2.887218259274959564e-02 1.574032194912433624e-02 5.757463350892066956e-02 -3.589662909507751465e-02 -2.144766412675380707e-02 6.722914520651102066e-03 2.537607215344905853e-02 9.945487976074218750e-02 -2.403167309239506721e-03 4.504145309329032898e-02 9.033413976430892944e-02 -1.361385639756917953e-02 -1.304998248815536499e-01 -1.122764218598604202e-02 -3.863937780261039734e-02 -3.736210986971855164e-02 1.606129482388496399e-02 1.661049202084541321e-02 -7.330574560910463333e-03 -1.223191060125827789e-02 4.609139263629913330e-02 -1.776639744639396667e-02 -4.963145405054092407e-02 5.160028114914894104e-03 5.204666778445243835e-02 7.168573141098022461e-02 -5.382702499628067017e-02 2.913095243275165558e-02 -6.125415489077568054e-02 -9.048585593700408936e-02 3.412676602602005005e-02 -5.898048728704452515e-02
1.534537822008132935e-01 7.593037933111190796e-02 2.387723885476589203e-02 8.150421082973480225e-02 -5.431170761585235596e-02 5.398621410131454468e-02 1.419834792613983154e-02 8.789195120334625244e-02 -1.153785213828086853e-01 2.398312091827392578e-02 7.592795044183731079e-02 8.841507881879806519e-02 -1.518758572638034821e-02 -9.615345299243927002e-02 -7.152269780635833740e-02 7.655890285968780518e-02 -8.281568437814712524e-02 -8.669210225343704224e-02 -8.825461566448211670e-02 -5.371699854731559753e-02 9.688235074281692505e-02 5.651479214429855347e-02 -3.433939442038536072e-02 8.128537237644195557e-02 5.383152887225151062e-02 -5.751743912696838379e-03 -3.084298968315124512e-02 -5.986825749278068542e-02 2.324959076941013336e-02 5.787092074751853943e-02 4.626691341400146484e-03 5.372356995940208435e-02 -7.811837643384933472e-02 1.569209694862365723e-01 4.059769585728645325e-02 -1.040370482951402664e-02 8.678219467401504517e-02 -4.386724159121513367e-02 5.472278594970703125e-02 -3.742262348532676697e-02 3.435263410210609436e-02 -1.960786283016204834e-01 2.969310432672500610e-02 -1.549984514713287354e-02 7.886411994695663452e-02 -2.744197845458984375e-02 6.075479462742805481e-02 2.860891865566372871e-03 8.009419590234756470e-02 -7.522254250943660736e-03 1.048710346221923828e-01 3.196811676025390625e-02 1.161421090364456177e-02 1.246825382113456726e-01 7.626459747552871704e-02 3.656598553061485291e-02 -9.280645102262496948e-02 -2.164002694189548492e-02 1.552359084598720074e-03 2.214643545448780060e-02 -8.828299492597579956e-02 -7.604085654020309448e-02 7.214248925447463989e-02 -1.172119658440351486e-02 2.774279192090034485e-02 -3.089452907443046570e-02 9.101276844739913940e-02 1.725760288536548615e-02 6.574527174234390259e-02 3.785067051649093628e-02 -6.361994892358779907e-02 -2.736911550164222717e-02 -5.680606514215469360e-02 4.776690527796745300e-02 1.072511598467826843e-01 -7.769405096769332886e-02 -9.367772191762924194e-02 8.655730634927749634e-02 7.442785799503326416e-02 -6.057219579815864563e-02 2.650821954011917114e-02 -3.847640007734298706e-02 -8.917010575532913208e-02 -7.171522825956344604e-02 5.379938706755638123e-02 5.428579077124595642e-02 3.726691380143165588e-02 -3.835118934512138367e-02 1.164624020457267761e-01 -9.137739986181259155e-02 1.453167200088500977e-02 3.673117235302925110e-02 -4.552572965621948242e-02 1.061040088534355164e-01 6.251864880323410034e-02 -2.618192695081233978e-02 1.415823679417371750e-02 -1.140902712941169739e-01 -8.491241186857223511e-02 9.590766578912734985e-02
1.570766977965831757e-02 8.466971665620803833e-02 -8.772730082273483276e-02 1.075316742062568665e-01 7.697712630033493042e-02 -8.983989246189594269e-03 -1.029691938310861588e-02 6.946147978305816650e-02 1.585367694497108459e-02 1.558060664683580399e-02 -2.623389661312103271e-02 -7.784981280565261841e-02 -9.681264311075210571e-02 9.732263162732124329e-03 5.872630700469017029e-02 -7.955857366323471069e-02 -1.701455749571323395e-02 -5.131000280380249023e-02 -8.831539005041122437e-02 1.115436758846044540e-02 7.949660718441009521e-02 1.133401989936828613e-01 -2.072939183562994003e-03 4.714511707425117493e-02 -7.346987724304199219e-03 -4.980952944606542587e-03 2.353507652878761292e-02 6.497562676668167114e-02 4.594645649194717407e-02 -1.075029894709587097e-01 -4.426509141921997070e-02 3.339863196015357971e-02 1.442344784736633301e-01 1.165071725845336914e-01 -6.938143074512481689e-02 3.175979107618331909e-02 -6.552309542894363403e-02 3.176771476864814758e-02 8.663769811391830444e-02 1.352724432945251465e-02 1.614543199539184570e-01 -1.336173806339502335e-02 -9.613350778818130493e-02 5.803437158465385437e-02 9.317545592784881592e-02 1.023520752787590027e-01 -8.602378889918327332e-03 8.253842592239379883e-02 -6.538525968790054321e-02 5.769664421677589417e-02 3.582352772355079651e-02 -8.638736605644226074e-02 9.360262006521224976e-02 -5.107523873448371887e-02 1.654346287250518799e-01 -7.519127428531646729e-02 9.334950894117355347e-02 4.113291576504707336e-02 -7.743529230356216431e-02 -7.823180407285690308e-03 1.481746416538953781e-02 4.489837959408760071e-02 6.945752352476119995e-02 -7.732598483562469482e-02 -4.037361219525337219e-02 -5.621915683150291443e-02 4.806951433420181274e-02 1.589613221585750580e-02 -4.564311727881431580e-02 7.014434039592742920e-02 -5.242554098367691040e-02 -1.382115036249160767e-01 -8.462491631507873535e-02 6.727944314479827881e-02 4.946934431791305542e-02 6.002808734774589539e-02 7.686308771371841431e-02 6.317830085754394531e-02 4.249781370162963867e-02 5.581944063305854797e-02 8.001466840505599976e-02 -2.803074009716510773e-02 -1.900761276483535767e-01 3.518027067184448242e-02 -7.148743141442537308e-03 4.798987135291099548e-02 -8.601785451173782349e-02 4.692042991518974304e-02 1.642471253871917725e-01 8.261104673147201538e-02 -5.327640846371650696e-02 -3.050079685635864735e-04 -3.458738501649349928e-04 -7.365569472312927246e-02 -2.900826977565884590e-03 2.161332778632640839e-02 1.223969506099820137e-03 7.089360058307647705e-02 -5.860070511698722839e-02 1.543637551367282867e-02
1.336458921432495117e-01 1.294902712106704712e-01 6.658776104450225830e-02 1.157068982720375061e-01 7.998397201299667358e-02 -4.308844357728958130e-02 -9.898394346237182617e-02 8.587202429771423340e-02 9.720382839441299438e-02 1.933589018881320953e-02 -2.811716310679912567e-02 1.574361696839332581e-02 4.973267391324043274e-02 3.931125253438949585e-02 -1.240332145243883133e-02 -6.064444780349731445e-02 -6.883320212364196777e-02 -6.185232475399971008e-02 -1.739651896059513092e-02 5.639712885022163391e-02 7.929320633411407471e-02 -1.364590823650360107e-01 -9.446807205677032471e-02 -3.482517972588539124e-02 -9.948515892028808594e-02 8.854847401380538940e-02 -2.956117875874042511e-02 9.132502973079681396e-02 2.261976897716522217e-02 1.682294011116027832e-01 6.495250761508941650e-02 -1.197530180215835571e-01 -7.400125265121459961e-02 6.781601160764694214e-02 -8.459592238068580627e-03 9.239184111356735229e-02 -7.264178246259689331e-02 8.421192318201065063e-02 -9.961893409490585327e-02 -4.900012910366058350e-02 1.285077631473541260e-01 1.160696670413017273e-01 7.160542160272598267e-02 8.199228346347808838e-02 -4.131374508142471313e-02 -3.443951532244682312e-02 2.478878945112228394e-02 9.332992136478424072e-02 2.153226174414157867e-02 -5.821039900183677673e-02 9.941525757312774658e-02 -4.344502463936805725e-02 3.767715767025947571e-02 2.886890433728694916e-02 2.742969244718551636e-02 1.868987106718122959e-03 9.740364737808704376e-03 -3.809240087866783142e-02 -9.608458727598190308e-02 -7.214805483818054199e-02 4.025790840387344360e-02 7.743989676237106323e-02 -6.926584243774414062e-02 -1.234390772879123688e-02 5.801389366388320923e-02 -6.189167499542236328e-02 -2.012819051742553711e-02 -3.212105855345726013e-02 -9.663026779890060425e-02 8.702016435563564301e-03 7.079936098307371140e-03 1.424122303724288940e-01 6.339826434850692749e-02 3.453395888209342957e-02 6.459450721740722656e-02 -8.299048990011215210e-02 -8.239017426967620850e-02 -2.662701718509197235e-02 6.692961603403091431e-02 -7.900210469961166382e-02 -1.732524484395980835e-02 -1.091583073139190674e-02 -4.082267731428146362e-02 -1.070235949009656906e-02 3.296334668993949890e-02 -6.033566594123840332e-02 8.462836593389511108e-02 -4.758421331644058228e-02 3.036225028336048126e-02 -7.652989774942398071e-02 3.491517528891563416e-02 7.462251815013587475e-04 8.260826021432876587e-02 -6.417234987020492554e-02 -6.268978118896484375e-03 7.238581031560897827e-02 -6.766736507415771484e-02 4.506500363349914551e-01 7.379262894392013550e-02 -7.543569058179855347e-02
5.364566668868064880e-02 7.792595773935317993e-02 2.386498497799038887e-03 -9.394825249910354614e-02 5.232914909720420837e-02 -6.881477311253547668e-03 -8.628290891647338867e-02 -3.927081450819969177e-02 -4.126990959048271179e-02 -9.886991232633590698e-02 2.365042222663760185e-03 -7.410782575607299805e-02 3.116424195468425751e-02 6.944132596254348755e-02 -8.094024658203125000e-02 8.102890104055404663e-02 -3.837296366691589355e-02 1.006044168025255203e-02 -5.668346956372261047e-02 2.259254641830921173e-02 4.180600494146347046e-02 -1.054990589618682861e-01 -2.135675027966499329e-02 -2.777746133506298065e-02 4.705286026000976562e-02 2.781499410048127174e-03 -2.303368598222732544e-02 -2.859824523329734802e-02 5.386442691087722778e-02 7.106993347406387329e-02 -5.528656393289566040e-02 -3.103747777640819550e-02 7.163272053003311157e-02 -5.975813791155815125e-02 -1.012327000498771667e-01 8.132159709930419922e-02 -2.099634520709514618e-02 7.186981290578842163e-02 -7.695806212723255157e-03 5.368741601705551147e-02 -1.001277267932891846e-01 -1.020620167255401611e-01 -4.428428411483764648e-02 -1.062683761119842529e-02 -3.464962169528007507e-02 7.967130839824676514e-02 -2.279510349035263062e-02 9.136307053267955780e-03 8.738633245229721069e-02 5.767229199409484863e-02 1.201314944773912430e-02 4.252301156520843506e-02 -1.034682318568229675e-01 -8.172897994518280029e-02 -4.821159318089485168e-02 8.680310100317001343e-02 -6.044802069664001465e-02 7.034506648778915405e-02 -7.168734073638916016e-02 -3.170360252261161804e-02 5.857902765274047852e-02 -9.500304609537124634e-02 -1.319676190614700317e-01 -1.097022648900747299e-02 -6.324261426925659180e-02 -8.352951705455780029e-02 9.415115416049957275e-02 1.862632483243942261e-02 3.785543516278266907e-02 2.261965349316596985e-02 1.495589385740458965e-03 1.069118967279791832e-03 1.189841050654649734e-02 4.721407592296600342e-02 -5.533895641565322876e-02 -9.487932175397872925e-02 -5.714613571763038635e-02 -1.558562554419040680e-02 4.445227608084678650e-02 -9.483877569437026978e-02 6.803456693887710571e-02 -5.349058657884597778e-02 -2.534202672541141510e-02 -9.256863594055175781e-02 2.960489876568317413e-02 -1.382765080779790878e-02 1.181939896196126938e-02 5.908539518713951111e-02 -7.479885965585708618e-02 -8.220971375703811646e-02 -6.498002260923385620e-02 -1.449694763869047165e-02 -9.796267747879028320e-02 2.049185521900653839e-02 -4.605383798480033875e-02 7.708515971899032593e-02 4.784087091684341431e-02 -9.382312744855880737e-02 1.622441038489341736e-02 7.494445145130157471e-02
1.612009257078170776e-01 -3.941727429628372192e-02 -9.286468476057052612e-02 -2.510422281920909882e-02 8.441868424415588379e-02 1.409778743982315063e-01 -6.946556270122528076e-02 6.884339451789855957e-02 1.899082213640213013e-02 5.908613279461860657e-02 -4.134992510080337524e-02 1.011448800563812256e-01 5.839828401803970337e-02 8.353172242641448975e-02 1.747129112482070923e-01 7.998295873403549194e-02 8.276988565921783447e-02 -4.478035122156143188e-02 6.589064747095108032e-02 -7.171091623604297638e-03 2.836681343615055084e-02 4.387832432985305786e-02 7.085484266281127930e-02 -8.223026245832443237e-02 5.260049179196357727e-02 -7.971481233835220337e-02 2.429089508950710297e-02 8.359411358833312988e-02 -6.279425695538520813e-03 -6.774245947599411011e-02 -7.580786943435668945e-02 -6.892213970422744751e-02 1.592961996793746948e-01 -2.532673180103302002e-01 -5.396224558353424072e-02 7.874964922666549683e-02 -7.054554671049118042e-02 -9.567826241254806519e-02 1.406480092555284500e-02 -4.739116877317428589e-02 -6.216223165392875671e-02 5.671298131346702576e-03 -1.221275329589843750e-02 2.195214666426181793e-02 9.389377199113368988e-03 -1.052055507898330688e-01 1.170403584837913513e-01 -9.846540540456771851e-02 -7.527579367160797119e-02 -1.933212950825691223e-02 -6.495926529169082642e-02 -2.841582149267196655e-02 -1.350459456443786621e-01 -2.302950806915760040e-02 1.812217384576797485e-01 -4.255309328436851501e-02 -1.090509351342916489e-02 -6.419055908918380737e-02 -1.788550615310668945e-02 7.387624680995941162e-02 -4.163620620965957642e-02 5.869283899664878845e-02 7.750926911830902100e-02 6.182521954178810120e-02 -6.683468073606491089e-02 -5.611874535679817200e-02 3.147540614008903503e-02 -1.077404320240020752e-01 3.574902191758155823e-02 1.699165254831314087e-02 5.527101084589958191e-02 9.018639475107192993e-02 1.564794629812240601e-01 -5.087236687541007996e-02 -1.422754675149917603e-02 -3.257788345217704773e-02 4.963430389761924744e-02 -7.857002317905426025e-02 7.655632495880126953e-02 5.714285653084516525e-03 -3.698937222361564636e-02 -5.958861112594604492e-02 -1.436911076307296753e-01 8.210209757089614868e-02 6.870735436677932739e-03 -3.902174159884452820e-02 8.262562006711959839e-02 3.037179820239543915e-02 -5.343265831470489502e-02 8.560728281736373901e-03 9.459070116281509399e-02 -1.897259056568145752e-02 4.897342994809150696e-02 3.773687034845352173e-02 4.964518826454877853e-03 6.531582027673721313e-02 1.707379892468452454e-02 1.477175354957580566e-01 2.147355861961841583e-02 8.966581523418426514e-02
1.137882620096206665e-01 2.853809855878353119e-02 6.918139755725860596e-02 -4.769993573427200317e-02 -2.383582107722759247e-02 1.185254845768213272e-02 1.878241449594497681e-02 1.189836114645004272e-01 7.476641330868005753e-03 -7.689706236124038696e-02 2.514551579952239990e-02 -1.701884865760803223e-01 7.616718113422393799e-02 -5.727338790893554688e-02 -5.797508172690868378e-03 6.295324862003326416e-02 -7.575237751007080078e-02 4.395164176821708679e-02 1.440255437046289444e-02 -6.732677668333053589e-02 -9.889324195683002472e-03 7.471919804811477661e-02 3.074474446475505829e-02 -5.386876408010721207e-03 5.678436905145645142e-02 -2.384584769606590271e-02 9.701699018478393555e-03 -7.302989065647125244e-02 1.928007453680038452e-01 4.372695460915565491e-02 1.641058945097029209e-03 1.466287225484848022e-01 5.293165333569049835e-03 1.163234859704971313e-01 4.310446791350841522e-03 -3.855744004249572754e-02 3.071764670312404633e-02 3.548473119735717773e-02 -3.411436220631003380e-03 -3.755844756960868835e-02 -5.418681725859642029e-02 1.247341409325599670e-01 9.019078314304351807e-02 -1.069807410240173340e-01 4.564539715647697449e-02 4.411870241165161133e-02 7.660932838916778564e-02 -5.077362293377518654e-04 -9.628888219594955444e-02 -7.244295626878738403e-02 -4.112702608108520508e-02 8.668234199285507202e-02 -5.463561043143272400e-02 -8.109000325202941895e-02 3.523296117782592773e-02 7.135161012411117554e-02 -7.663898915052413940e-02 1.441503781825304031e-02 -3.794396296143531799e-02 -1.791208237409591675e-02 1.786867342889308929e-02 6.481160968542098999e-02 6.981877237558364868e-02 -6.299549341201782227e-02 5.028248051530681551e-05 8.490943908691406250e-02 -3.247874975204467773e-02 -4.951474070549011230e-02 -6.307296454906463623e-02 1.024384517222642899e-02 3.448663512244820595e-03 1.832155883312225342e-01 -1.518650166690349579e-02 8.835994452238082886e-02 -2.679489925503730774e-02 -8.358688652515411377e-02 1.130634080618619919e-02 7.379210088402032852e-03 4.779173061251640320e-02 -4.964515194296836853e-02 1.499393302947282791e-02 -1.557054091244935989e-02 -1.828558444976806641e-01 3.324315696954727173e-02 -2.246500551700592041e-02 1.037077605724334717e-01 -2.391541004180908203e-02 6.039619329385459423e-04 1.672455482184886932e-02 -2.015188895165920258e-02 8.415385335683822632e-02 -2.185602672398090363e-02 1.917224004864692688e-02 5.699563398957252502e-02 2.657355181872844696e-02 6.005224585533142090e-02 6.536902487277984619e-02 1.280936785042285919e-02 2.137343399226665497e-02 -1.671354845166206360e-02
