-1.216283366084098816e-01 -5.584495887160301208e-02 -6.564873456954956055e-02 1.060310527682304382e-01 -2.434193156659603119e-02 -8.800657093524932861e-02 3.791265934705734253e-02 8.450213074684143066e-02 -8.897932246327400208e-03 -2.300719618797302246e-01 1.761201620101928711e-01 4.314119741320610046e-02 9.792420268058776855e-02 2.574407123029232025e-02 5.965948849916458130e-02 -7.775734364986419678e-02 -2.910883165895938873e-02 -3.040925972163677216e-02 3.641653060913085938e-02 -6.403326243162155151e-02 -2.137801423668861389e-02 2.803097851574420929e-02 7.395360618829727173e-02 -1.443498115986585617e-02 -8.633286505937576294e-02 2.000173181295394897e-01 -9.185948222875595093e-02 6.774869281798601151e-03 7.491850107908248901e-02 -8.859540335834026337e-03 -7.919467240571975708e-02 1.961087062954902649e-02 -5.868279933929443359e-02 5.533362179994583130e-02 -3.322448953986167908e-02 -1.228255182504653931e-01 6.794685125350952148e-02 1.134874522686004639e-01 8.986008912324905396e-02 -2.021643333137035370e-02 9.515525400638580322e-02 -8.102510869503021240e-02 3.915352746844291687e-02 1.295435521751642227e-02 3.869108483195304871e-02 -7.579538226127624512e-02 -5.138202756643295288e-02 4.444792121648788452e-02 1.016719639301300049e-02 -3.186419978737831116e-02 -1.076941564679145813e-01 4.161354526877403259e-02 1.268528997898101807e-01 -9.699350921437144279e-04 1.657307520508766174e-02 1.247544065117835999e-01 -4.986264556646347046e-02 9.697949513792991638e-03 -5.712987855076789856e-02 5.291958525776863098e-02 -1.070033907890319824e-01 -8.697772771120071411e-02 -9.750664234161376953e-02 6.536642462015151978e-02 -1.979395747184753418e-04 -8.379971235990524292e-02 1.474454719573259354e-02 4.764311015605926514e-03 -5.489865690469741821e-02 -2.758705802261829376e-02 1.620441861450672150e-02 5.824258551001548767e-02 -2.891780622303485870e-02 -2.741488255560398102e-02 6.460948288440704346e-02 -1.189706027507781982e-01 3.334273397922515869e-02 -8.597095310688018799e-02 -1.946903020143508911e-02 -1.303793955594301224e-02 -6.252885609865188599e-02 2.024697698652744293e-02 -6.437212973833084106e-02 1.620031706988811493e-02 5.585192888975143433e-02 -8.971253037452697754e-02 3.759114816784858704e-02 -1.110947802662849426e-01 1.192452199757099152e-02 5.215952917933464050e-02 -1.751653999090194702e-01 -6.801019608974456787e-02 -9.115555882453918457e-02 -8.365698158740997314e-02 5.881586670875549316e-02 4.911376908421516418e-02 -3.677690029144287109e-02 -7.509485632181167603e-02 2.746712230145931244e-02 1.300384253263473511e-01 -1.395852714776992798e-01 9.027626365423202515e-02 -3.608543053269386292e-02 2.951920218765735626e-02 -3.483465313911437988e-02 -1.903800964355468750e-01 4.019956290721893311e-02 5.639334768056869507e-02 -1.035943329334259033e-01 7.495557516813278198e-02 2.202274091541767120e-02 -6.976015865802764893e-02 -1.566010266542434692e-01 -7.255461812019348145e-02 1.657040268182754517e-01 -2.283459901809692383e-01 4.423535615205764771e-02 -6.039481610059738159e-02 5.651747062802314758e-02 7.958197593688964844e-02 -1.926959007978439331e-01 5.445226281881332397e-02 -6.942428648471832275e-03 -6.519923452287912369e-03 5.034236982464790344e-02 9.404529631137847900e-02 -1.402496844530105591e-01 -1.547951698303222656e-01 8.889527991414070129e-03 2.112823575735092163e-01 -3.011413216590881348e-01 1.205004528164863586e-01 -1.090929210186004639e-01 -4.640335589647293091e-02 7.776380330324172974e-02 -1.676605194807052612e-01 5.420102179050445557e-02 -9.355125576257705688e-02 4.822934512048959732e-03 6.632201373577117920e-02 1.241113916039466858e-01 -1.107888594269752502e-01 -2.661617696285247803e-01 1.363705191761255264e-02 3.277923166751861572e-01 -2.961795926094055176e-01 9.806445986032485962e-02 -1.588066965341567993e-01 -2.793874219059944153e-02 6.800452619791030884e-02
-1.446808595210313797e-02 -9.580180794000625610e-02 -1.209517419338226318e-01 -1.773061901330947876e-01 4.454899579286575317e-02 2.834222912788391113e-01 -3.018989413976669312e-02 -1.768277287483215332e-01 -9.858412295579910278e-02 2.882160805165767670e-02 -2.132296860218048096e-01 -9.828002192080020905e-03 1.650002002716064453e-01 -9.198480844497680664e-02 -1.205112263560295105e-01 1.251189969480037689e-02 -1.772358518792316318e-04 -2.237697131931781769e-02 -9.613778442144393921e-02 1.232059579342603683e-02 2.411744743585586548e-01 -4.400667920708656311e-02 -1.080327481031417847e-01 -2.986542135477066040e-02 -2.176070399582386017e-02 -1.341984122991561890e-01 5.359816923737525940e-02 1.698144823312759399e-01 -1.194510087370872498e-01 -1.936933994293212891e-01 3.430650802329182625e-03 4.573515430092811584e-02 -7.529709488153457642e-02 -6.108226627111434937e-02 4.697444289922714233e-02 7.115048915147781372e-02 -3.081392310559749603e-02 -5.119210481643676758e-02 -5.737395584583282471e-02 -3.766059130430221558e-02 -1.059186235070228577e-01 3.526850044727325439e-02 1.104391925036907196e-02 -2.642248570919036865e-02 -7.391365617513656616e-02 -9.795153886079788208e-02 6.026923283934593201e-02 -5.551886186003684998e-02 -1.271915733814239502e-01 -3.103260509669780731e-02 6.076718121767044067e-02 4.226373881101608276e-02 -1.029386445879936218e-01 -8.003407716751098633e-02 2.529650926589965820e-02 -1.540574524551630020e-02 -4.450207110494375229e-03 9.064771234989166260e-02 -9.683410823345184326e-02 -1.570246368646621704e-02 -4.638157039880752563e-02 -6.598123162984848022e-02 -7.746464014053344727e-02 -1.909313537180423737e-02 2.267420664429664612e-02 7.143203169107437134e-02 -5.975843220949172974e-02 2.642684057354927063e-02 3.606910631060600281e-02 -2.772193588316440582e-02 9.926578029990196228e-03 9.794213622808456421e-02 5.551910027861595154e-02 1.422408240614458919e-04 -8.117024600505828857e-02 -8.389202505350112915e-02 2.530215494334697723e-02 -3.775253659114241600e-03 1.739177503623068333e-03 4.768880084156990051e-02 5.056754872202873230e-02 6.380499899387359619e-02 5.975333973765373230e-02 4.374288022518157959e-02 -1.411207579076290131e-02 4.141300159972161055e-04 -4.762657731771469116e-02 -8.797609061002731323e-02 -2.192099578678607941e-02 4.104880616068840027e-02 -3.434475883841514587e-02 -3.776654973626136780e-02 -1.448815166950225830e-01 1.054688319563865662e-01 -5.820590257644653320e-02 -3.973887860774993896e-02 -1.191780995577573776e-02 9.074527770280838013e-02 7.057359907776117325e-03 -5.483585409820079803e-03 7.225991040468215942e-02 8.275386877357959747e-03 -3.359686955809593201e-02 -2.370895072817802429e-02 1.549929082393646240e-01 -1.206617131829261780e-01 9.865598380565643311e-02 -4.696042463183403015e-02 1.337245553731918335e-01 -6.574527174234390259e-02 -1.676775962114334106e-01 1.374235562980175018e-02 3.919657319784164429e-02 8.554004877805709839e-02 5.628937110304832458e-02 8.646265417337417603e-02 -5.499427765607833862e-02 -8.670085668563842773e-02 5.243337526917457581e-02 9.749464690685272217e-02 -1.241234838962554932e-01 1.555091328918933868e-02 -2.295705303549766541e-02 1.424200385808944702e-01 1.202394161373376846e-02 -1.509268879890441895e-01 5.066909641027450562e-02 1.449241787195205688e-01 3.592411801218986511e-02 -5.421885848045349121e-02 1.526214182376861572e-01 -3.190554678440093994e-03 -6.842132657766342163e-02 1.547261029481887817e-01 9.070567041635513306e-02 -1.222233697772026062e-01 9.091355837881565094e-03 -1.561591494828462601e-02 2.418763488531112671e-01 -1.286079287528991699e-01 -1.659649312496185303e-01 2.597919106483459473e-02 8.850833028554916382e-02 -1.835464686155319214e-02 4.273600131273269653e-02 1.688632965087890625e-01 -3.831890970468521118e-02 -1.922636777162551880e-01 1.473308056592941284e-01 1.900486499071121216e-01
5.680267885327339172e-02 5.434376001358032227e-02 -2.799383597448468208e-03 -6.409111898392438889e-03 7.983417063951492310e-02 -4.115198925137519836e-02 -2.727545425295829773e-02 -6.820955127477645874e-02 -2.826073579490184784e-02 -2.488767541944980621e-02 -2.438979409635066986e-02 3.421093896031379700e-02 1.829718239605426788e-02 -8.037517964839935303e-02 -5.834487825632095337e-02 4.822963848710060120e-02 -3.623431548476219177e-02 3.760190680623054504e-02 -3.808905556797981262e-02 6.789444014430046082e-03 -6.104426924139261246e-03 -2.742900699377059937e-02 7.189966738224029541e-02 -7.096883375197649002e-03 -6.734080612659454346e-02 -5.925498902797698975e-02 -3.749869391322135925e-02 4.642745107412338257e-02 5.082861334085464478e-02 3.399867191910743713e-02 -1.874832622706890106e-02 -6.644733250141143799e-02 -8.459072560071945190e-03 -6.696372479200363159e-02 6.583257019519805908e-02 5.694406852126121521e-02 4.884162545204162598e-02 9.708451107144355774e-03 1.140746474266052246e-02 1.347920857369899750e-02 2.046429365873336792e-02 -1.683624833822250366e-02 7.607237249612808228e-02 8.143457025289535522e-02 -2.061849087476730347e-02 -7.950811088085174561e-02 -5.590935051441192627e-02 -1.883740536868572235e-02 7.988182455301284790e-02 -4.715898633003234863e-02 -1.258176006376743317e-02 -1.435578893870115280e-02 2.659660764038562775e-03 -6.892734020948410034e-02 -1.494261529296636581e-02 -2.033355413004755974e-03 -1.630364544689655304e-02 2.654870972037315369e-02 1.728789694607257843e-02 -1.185266021639108658e-02 -1.108254422433674335e-03 8.516080677509307861e-03 7.300171256065368652e-02 5.159997567534446716e-02 -2.977380342781543732e-02 -7.407115772366523743e-03 2.918326854705810547e-02 6.147247180342674255e-02 3.538097813725471497e-02 6.783787161111831665e-02 6.666748225688934326e-02 9.853342548012733459e-03 4.950629174709320068e-02 -8.044429868459701538e-02 8.117571473121643066e-02 3.558914735913276672e-02 -3.821032121777534485e-02 3.754224255681037903e-02 2.382532507181167603e-02 3.531851992011070251e-02 -6.180033087730407715e-02 4.919054917991161346e-03 -1.130095217376947403e-02 -5.703115090727806091e-02 -5.505679920315742493e-02 -6.605380773544311523e-02 -1.681240159086883068e-03 -3.785939514636993408e-02 -2.101418189704418182e-02 6.334198266267776489e-02 4.878114536404609680e-02 -4.983903840184211731e-02 -5.841835588216781616e-02 7.805380225181579590e-02 -1.090552285313606262e-02 -6.129544973373413086e-02 3.004174306988716125e-02 6.129241362214088440e-02 4.621058329939842224e-02 -4.166091978549957275e-02 4.373751208186149597e-02 -4.292156081646680832e-03 2.571512199938297272e-02 -3.729334101080894470e-02 -2.149955742061138153e-02 -7.464270293712615967e-02 1.976709067821502686e-02 -2.462395839393138885e-02 4.881235957145690918e-02 -7.596259564161300659e-02 -6.661654263734817505e-02 -2.515563555061817169e-02 -6.160365045070648193e-02 -2.199309878051280975e-03 -3.153896331787109375e-02 1.046230271458625793e-02 -5.077527463436126709e-02 -2.299180440604686737e-02 9.208767733070999384e-05 2.562341466546058655e-02 2.460686676204204559e-02 -5.218467861413955688e-02 -3.568203374743461609e-02 7.422767113894224167e-03 4.626381676644086838e-03 -4.068123549222946167e-02 2.949766628444194794e-02 -5.125151947140693665e-02 6.830507516860961914e-02 -4.045198112726211548e-02 -1.244768314063549042e-02 -5.188699346035718918e-03 -2.331676334142684937e-02 -7.314170151948928833e-02 -1.769824698567390442e-02 3.675737977027893066e-02 4.764092341065406799e-02 -5.597084388136863708e-02 6.851252168416976929e-02 4.583584517240524292e-02 7.398198544979095459e-02 -6.912063807249069214e-02 7.078548520803451538e-02 6.405413150787353516e-02 5.367023125290870667e-02 -1.607193239033222198e-02 -7.263544201850891113e-02 -1.328284759074449539e-02 -1.643110439181327820e-02 -2.788770385086536407e-02
3.689701110124588013e-02 -2.552458830177783966e-02 8.529736846685409546e-02 4.511414095759391785e-02 4.284063726663589478e-02 2.683335915207862854e-02 3.259747475385665894e-02 6.012765318155288696e-02 -4.485379159450531006e-02 -1.273825168609619141e-01 -6.212014332413673401e-02 5.650575831532478333e-02 5.277288146317005157e-03 7.156355679035186768e-02 -8.198130875825881958e-02 2.453842759132385254e-02 -4.693288356065750122e-02 8.707510679960250854e-02 -1.204669009894132614e-02 -9.537988901138305664e-02 -2.720930613577365875e-02 3.518635779619216919e-02 -3.288568928837776184e-02 1.784930750727653503e-02 -1.292864512652158737e-02 1.793810050003230572e-03 7.231278717517852783e-02 -7.918960601091384888e-02 3.974748775362968445e-02 -9.560114145278930664e-02 -1.075551882386207581e-01 -1.030743867158889771e-01 9.404535405337810516e-03 9.977874159812927246e-02 6.384813785552978516e-02 -4.065010696649551392e-02 4.163252934813499451e-02 -5.889913812279701233e-02 2.149116806685924530e-02 -5.996827408671379089e-02 -9.036660194396972656e-02 7.850864529609680176e-02 -7.523508369922637939e-02 -7.514841854572296143e-02 -8.261645585298538208e-02 -9.703523479402065277e-03 -1.427890956401824951e-01 1.641266047954559326e-01 2.821066416800022125e-02 1.244027819484472275e-02 7.079378515481948853e-02 -3.458445519208908081e-02 2.220768295228481293e-02 4.925804212689399719e-02 1.528854202479124069e-02 -9.417372196912765503e-02 -1.756339101120829582e-03 1.207979861646890640e-02 -3.694836050271987915e-02 -2.773534320294857025e-02 -8.907940983772277832e-02 -3.637109324336051941e-02 1.621388345956802368e-01 -3.675480186939239502e-02 -1.734570041298866272e-02 5.343526229262351990e-02 7.355266716331243515e-03 -7.095718383789062500e-02 6.756880879402160645e-02 7.276994641870260239e-03 8.840513974428176880e-02 -4.177133378107100725e-04 -6.178762763738632202e-02 -1.516466308385133743e-02 9.876250475645065308e-02 -1.747667090967297554e-03 -1.462191194295883179e-01 3.020238503813743591e-02 -4.932400956749916077e-02 3.226711601018905640e-02 4.384181648492813110e-02 -8.790290355682373047e-02 -3.743886016309261322e-03 -7.728152722120285034e-02 4.691697657108306885e-02 -1.076123118400573730e-02 -6.723304092884063721e-02 5.702430009841918945e-02 -3.702914714813232422e-02 1.645230948925018311e-01 -6.249610334634780884e-02 -1.772798597812652588e-01 3.783849999308586121e-02 -6.557219475507736206e-02 9.478385746479034424e-02 2.221741015091538429e-03 -7.695832103490829468e-02 -8.820509165525436401e-02 4.905187338590621948e-02 1.148800030350685120e-01 1.344639211893081665e-01 -1.686961054801940918e-01 2.159642614424228668e-02 7.594780065119266510e-03 1.040036305785179138e-01 5.855079507455229759e-04 -7.908489555120468140e-02 6.479957699775695801e-02 -9.352435171604156494e-02 -5.724719911813735962e-02 1.594119891524314880e-02 -7.196359336376190186e-02 5.296944081783294678e-02 -3.628931939601898193e-02 1.718579828739166260e-01 1.063229069113731384e-01 -2.406285256147384644e-01 2.880796045064926147e-02 -3.025075048208236694e-02 1.709821671247482300e-01 -7.721116766333580017e-03 -1.392406672239303589e-01 1.596883982419967651e-01 -9.380210191011428833e-02 4.886863380670547485e-02 3.259331732988357544e-02 -6.839919835329055786e-02 3.752584010362625122e-02 -1.858356059528887272e-03 2.291747033596038818e-01 2.229852378368377686e-01 -3.200726807117462158e-01 -1.020321436226367950e-02 -2.886838465929031372e-02 2.307945340871810913e-01 -7.699407637119293213e-02 -2.135214060544967651e-01 1.650707572698593140e-01 -1.265463083982467651e-01 -1.617067120969295502e-02 7.728093862533569336e-02 -2.084326446056365967e-01 -1.124173402786254883e-01 -3.701665904372930527e-03 1.642368137836456299e-01 1.225800514221191406e-01 -3.589141666889190674e-01 3.611423447728157043e-02 -2.618279494345188141e-02 1.741571277379989624e-01
-7.278119772672653198e-02 2.517629601061344147e-02 -3.458743169903755188e-02 -8.350299298763275146e-02 -7.727240025997161865e-02 3.301996365189552307e-02 -4.349807277321815491e-02 2.283469215035438538e-02 2.555004879832267761e-02 8.729644864797592163e-02 -1.226728186011314392e-01 6.048538535833358765e-02 3.741926047950983047e-03 -1.006165370345115662e-01 5.499158427119255066e-02 -6.634494662284851074e-02 -9.757307916879653931e-02 -1.979661732912063599e-02 -7.092610746622085571e-02 9.233570098876953125e-02 4.722094628959894180e-03 4.594617057591676712e-03 4.071158170700073242e-02 -4.013621062040328979e-02 -1.890158280730247498e-02 -5.075892060995101929e-02 2.966400794684886932e-02 4.635515064001083374e-02 -1.296817660331726074e-01 -7.441343273967504501e-03 -3.109561093151569366e-02 -8.874460309743881226e-02 -1.903272047638893127e-02 -7.168257143348455429e-03 7.252072542905807495e-02 2.725360915064811707e-02 -5.592260137200355530e-02 7.817874848842620850e-02 -3.009996563196182251e-02 -1.160850375890731812e-02 -1.070183143019676208e-01 -9.328077547252178192e-03 -3.843130916357040405e-02 -7.447470724582672119e-02 5.131125077605247498e-02 -1.692362315952777863e-02 1.423985417932271957e-02 -8.178666234016418457e-03 5.896617472171783447e-02 5.001239851117134094e-02 1.104898471385240555e-02 -4.222868382930755615e-02 2.504866011440753937e-02 -5.839106440544128418e-02 -3.355031087994575500e-02 -9.524597227573394775e-02 1.358724478632211685e-02 -3.314806893467903137e-02 8.545866236090660095e-03 -1.469111157348379493e-04 -3.578278794884681702e-02 -1.658965647220611572e-02 -2.220175042748451233e-02 6.610772013664245605e-02 1.436161622405052185e-02 -4.478487372398376465e-02 -5.025290325284004211e-02 -4.061216488480567932e-02 1.638016849756240845e-02 7.502457499504089355e-02 1.885255426168441772e-02 1.292817667126655579e-02 9.213116765022277832e-02 2.792424149811267853e-02 -1.080264821648597717e-01 -8.954266458749771118e-02 -2.339738048613071442e-02 3.839236916974186897e-03 1.099203526973724365e-01 1.395621616393327713e-02 7.257164269685745239e-02 -5.238290131092071533e-02 -1.991236768662929535e-02 4.297010600566864014e-02 -5.786113813519477844e-02 -3.310720250010490417e-02 -5.814768373966217041e-02 3.308774158358573914e-02 9.087451547384262085e-02 -1.008502617478370667e-01 -7.823429256677627563e-02 1.261078715324401855e-01 2.914012968540191650e-02 -3.300424292683601379e-02 4.466075822710990906e-02 -2.457398734986782074e-02 5.812318250536918640e-02 -3.786328062415122986e-02 -9.695816040039062500e-02 -9.141054935753345490e-03 8.749831467866897583e-02 -1.278040371835231781e-02 8.341744542121887207e-03 4.507474973797798157e-02 -1.957061141729354858e-01 -5.274008587002754211e-02 4.187325760722160339e-02 2.347958646714687347e-02 1.061465144157409668e-01 1.042022630572319031e-01 8.445699512958526611e-02 7.120326906442642212e-02 -1.541378647089004517e-01 2.343680523335933685e-02 -8.767295628786087036e-02 8.080179244279861450e-02 7.423318177461624146e-02 7.244804501533508301e-02 1.427066326141357422e-01 -1.301686316728591919e-01 -1.059521436691284180e-01 6.524550169706344604e-02 7.575360685586929321e-02 6.687149405479431152e-02 1.085725203156471252e-01 3.937885537743568420e-02 6.293657422065734863e-02 -2.304383218288421631e-01 -5.006962642073631287e-02 -2.160590142011642456e-02 2.726293802261352539e-01 1.726711983792483807e-03 -2.755902893841266632e-02 1.866109222173690796e-01 -1.121189743280410767e-01 -1.129237636923789978e-01 5.299486219882965088e-02 -5.478191003203392029e-02 1.076683327555656433e-01 3.605265170335769653e-02 1.276743859052658081e-01 -7.680011540651321411e-02 -2.734910249710083008e-01 2.167636528611183167e-02 -2.148618176579475403e-02 2.631315290927886963e-01 7.669003307819366455e-02 6.563778221607208252e-02 2.152808010578155518e-01 -9.107177704572677612e-02
8.587175607681274414e-02 -5.217561963945627213e-03 2.150842919945716858e-02 -3.153314441442489624e-02 -1.958223246037960052e-02 -2.516179978847503662e-01 -2.272421494126319885e-02 1.132846102118492126e-01 2.206138968467712402e-01 -4.905765131115913391e-02 -1.026778072118759155e-01 -2.958088926970958710e-02 2.388456650078296661e-02 -7.629533857107162476e-02 -1.908700019121170044e-01 1.478081103414297104e-02 -4.061052948236465454e-02 -9.439986199140548706e-02 3.481801599264144897e-02 8.699321746826171875e-02 -1.696896404027938843e-01 7.226803898811340332e-02 6.185685470700263977e-02 1.632277518510818481e-01 1.114050275646150112e-03 -9.563087671995162964e-02 1.034012585878372192e-01 8.257935941219329834e-02 -8.099892735481262207e-02 -4.447763413190841675e-02 8.393941447138786316e-03 6.820014119148254395e-02 -9.265385568141937256e-02 -3.962558507919311523e-02 5.287392996251583099e-03 -5.257069319486618042e-02 6.110736355185508728e-02 6.758142262697219849e-02 9.638562798500061035e-02 -5.695938318967819214e-02 3.752439469099044800e-02 2.058107033371925354e-02 6.862855702638626099e-02 4.002983495593070984e-02 -1.267415564507246017e-02 1.051422432065010071e-01 9.408305585384368896e-02 -7.161674648523330688e-02 -6.230124086141586304e-02 -1.292205881327390671e-03 -5.952989682555198669e-02 5.947814788669347763e-03 7.341922074556350708e-02 1.308396309614181519e-01 5.673492327332496643e-02 -6.536752730607986450e-02 -3.431719494983553886e-03 -2.960988134145736694e-02 -4.194697737693786621e-02 -1.120753213763237000e-01 1.503504626452922821e-02 -3.327056998386979103e-03 -9.388080239295959473e-02 -1.017561778426170349e-01 8.711285144090652466e-02 2.603186480700969696e-02 8.179383724927902222e-02 7.913592853583395481e-04 -3.933299705386161804e-02 3.383102593943476677e-03 -6.070633977651596069e-02 7.557595521211624146e-02 -6.147297844290733337e-02 -2.862969599664211273e-02 -5.821546539664268494e-02 9.456989914178848267e-02 1.194952055811882019e-01 -1.239027641713619232e-02 -6.711900979280471802e-02 -6.250744313001632690e-02 1.610938012599945068e-01 -6.203572824597358704e-02 -6.017456576228141785e-02 -1.956281252205371857e-02 8.412553369998931885e-02 9.483396261930465698e-02 -1.457323506474494934e-02 -3.749928623437881470e-02 1.007369458675384521e-01 2.835496142506599426e-02 5.053408443927764893e-02 3.086003847420215607e-02 -1.468413472175598145e-01 -8.505501598119735718e-02 -5.575330927968025208e-02 1.509805768728256226e-01 -7.544758915901184082e-02 2.752522379159927368e-02 -9.388975054025650024e-02 3.516229987144470215e-02 8.200258761644363403e-02 2.527617476880550385e-02 -1.007093191146850586e-01 1.123817414045333862e-01 5.084631592035293579e-02 7.337875664234161377e-02 1.220457926392555237e-01 -8.014346659183502197e-02 -8.112587034702301025e-03 -3.085619769990444183e-02 2.146005332469940186e-01 -1.175781618803739548e-02 -6.505757570266723633e-02 -1.080530956387519836e-01 -2.997520938515663147e-02 4.975793510675430298e-02 -7.906583696603775024e-02 -1.364497095346450806e-01 1.116838864982128143e-02 1.000131517648696899e-01 2.746825804933905602e-03 1.845976412296295166e-01 -6.830921024084091187e-02 -1.034763157367706299e-01 -6.444758176803588867e-02 2.227077484130859375e-01 -2.658972330391407013e-02 -2.238859236240386963e-01 -1.896324008703231812e-01 7.768512703478336334e-03 4.276982322335243225e-02 2.074382267892360687e-03 -5.113305151462554932e-02 3.318398818373680115e-02 1.576237566769123077e-02 9.287363290786743164e-02 2.231157422065734863e-01 -6.186711788177490234e-02 -2.730731293559074402e-02 -1.233943030238151550e-01 4.391468763351440430e-01 9.276377968490123749e-03 -2.838352620601654053e-01 -3.436851799488067627e-01 2.461513690650463104e-02 2.377860695123672485e-01 -1.034491434693336487e-01 -1.374695301055908203e-01 4.143594577908515930e-02 1.018890291452407837e-01
-1.762348785996437073e-02 8.112035691738128662e-02 1.641718856990337372e-02 4.405407980084419250e-02 -4.952137824147939682e-03 -2.724704891443252563e-02 -3.084466420114040375e-02 -4.238266497850418091e-02 2.548867091536521912e-02 -6.302504986524581909e-02 -1.573433913290500641e-02 -1.478346996009349823e-02 4.118341021239757538e-03 3.285988699644804001e-03 -7.781714200973510742e-03 6.947468221187591553e-02 -6.732472032308578491e-02 5.746351554989814758e-03 2.712275460362434387e-02 5.478433519601821899e-02 -1.893999800086021423e-02 7.228609919548034668e-02 7.138852775096893311e-02 6.881988793611526489e-02 4.839722439646720886e-02 -8.511070907115936279e-02 5.969547480344772339e-02 7.055715471506118774e-02 -6.912865489721298218e-02 2.529747784137725830e-03 8.772712945938110352e-02 7.793426513671875000e-02 -5.256710946559906006e-02 -5.711826682090759277e-02 -6.640978902578353882e-02 3.504890576004981995e-02 8.302453160285949707e-02 -6.444215029478073120e-02 -8.084018528461456299e-02 4.874781519174575806e-02 5.007599294185638428e-02 6.748636066913604736e-02 -6.497268378734588623e-02 -4.218763113021850586e-02 4.420265182852745056e-02 -4.562354832887649536e-02 -7.163514941930770874e-02 -1.118751987814903259e-02 2.792735211551189423e-02 -2.040208131074905396e-02 -1.713712513446807861e-02 -1.961387693881988525e-03 7.208804786205291748e-02 -7.765479385852813721e-02 3.381294757127761841e-02 -6.913949549198150635e-02 -1.464272662997245789e-02 6.393365561962127686e-02 2.024436928331851959e-02 -2.197538502514362335e-02 -5.674389004707336426e-02 -2.037161961197853088e-02 4.580889642238616943e-02 -7.026229053735733032e-02 -6.605931371450424194e-02 -7.267931848764419556e-02 -4.880024865269660950e-02 -7.063783705234527588e-02 8.513177745044231415e-03 1.619000919163227081e-02 -4.454561322927474976e-02 3.228159912396222353e-04 2.711483649909496307e-02 1.551937591284513474e-02 -3.742574155330657959e-02 4.056099057197570801e-02 -5.801447853446006775e-02 6.478140503168106079e-02 4.572807345539331436e-03 2.849195897579193115e-02 6.424578279256820679e-02 6.070662662386894226e-02 6.511541083455085754e-03 -3.409380093216896057e-02 -2.274501137435436249e-02 -3.528208658099174500e-02 7.074506580829620361e-02 -7.053139060735702515e-02 -8.381141722202301025e-02 3.650730103254318237e-02 -3.099831752479076385e-02 7.626470178365707397e-02 3.053445136174559593e-03 -4.340407624840736389e-02 -1.410858146846294403e-02 -5.339074414223432541e-03 3.387762978672981262e-02 1.161550264805555344e-02 7.213620096445083618e-02 2.101421542465686798e-02 6.952927261590957642e-02 2.886809408664703369e-02 3.028158284723758698e-02 -8.879735320806503296e-02 3.709775954484939575e-02 -5.137092992663383484e-02 2.649946697056293488e-02 -5.107309296727180481e-02 2.039235085248947144e-02 2.524796687066555023e-02 3.006619028747081757e-02 8.529806137084960938e-02 7.300903648138046265e-02 5.377389490604400635e-02 -2.512427978217601776e-02 -5.959598720073699951e-02 -5.113252997398376465e-02 1.868695020675659180e-02 3.115866519510746002e-02 -4.461178928613662720e-02 -5.220679938793182373e-02 3.542283922433853149e-02 -7.439814507961273193e-02 -1.570111513137817383e-02 2.874334715306758881e-02 -6.486374884843826294e-02 -4.564656317234039307e-02 3.536929935216903687e-02 5.150124803185462952e-02 -3.660253062844276428e-02 5.370675027370452881e-02 -5.229501798748970032e-02 1.994911115616559982e-03 5.717531219124794006e-02 -6.281843036413192749e-02 8.860098570585250854e-02 -1.801858469843864441e-02 2.623077109456062317e-02 2.008677646517753601e-02 -2.439262345433235168e-02 6.942572444677352905e-02 4.331728816032409668e-02 -6.362199783325195312e-02 5.664024502038955688e-02 -6.415949016809463501e-02 -8.481566607952117920e-02 7.242238521575927734e-02 -5.644579976797103882e-02 6.088579073548316956e-02 5.224926397204399109e-02
4.347436130046844482e-02 1.409942843019962311e-02 -5.954233556985855103e-02 -7.811814546585083008e-03 -9.836740046739578247e-02 -5.294485017657279968e-02 5.996653810143470764e-03 -8.997222036123275757e-02 6.651449948549270630e-02 6.860172003507614136e-02 3.045037016272544861e-02 -1.113247349858283997e-01 2.186888307332992554e-01 6.059160828590393066e-01 -4.782426953315734863e-01 -8.873980841599404812e-04 -4.914304241538047791e-02 -3.234538063406944275e-02 -1.276645809412002563e-02 -3.199937520548701286e-03 -1.407089233398437500e-01 -1.983786374330520630e-02 1.632652245461940765e-02 -3.228621929883956909e-02 1.189912334084510803e-01 -2.192043885588645935e-02 2.064781449735164642e-02 5.247825011610984802e-02 4.076439440250396729e-01 -4.059308469295501709e-01 1.343222148716449738e-02 -4.904024675488471985e-02 1.671745994826778769e-04 4.702237620949745178e-02 1.822984032332897186e-02 -2.334064617753028870e-02 1.059912070631980896e-01 5.512173473834991455e-02 6.709943711757659912e-02 9.869720041751861572e-02 7.068858295679092407e-02 1.273291651159524918e-02 4.665219783782958984e-02 3.008968234062194824e-01 -2.451173365116119385e-01 -2.923970855772495270e-02 6.628975272178649902e-02 -8.302988857030868530e-02 -1.288547646254301071e-02 -1.173736751079559326e-01 4.253708198666572571e-02 -1.000031922012567520e-02 -4.896262660622596741e-02 4.443142190575599670e-02 -5.395309627056121826e-02 -1.074786391109228134e-02 -3.696388378739356995e-02 1.096710413694381714e-01 1.941811591386795044e-01 -1.069067418575286865e-01 -1.164290960878133774e-02 4.396007210016250610e-02 -1.144476886838674545e-02 1.427633501589298248e-02 -2.413674443960189819e-02 -3.308618813753128052e-02 -2.503347583115100861e-02 -6.207646429538726807e-02 -5.417179688811302185e-02 -2.237626351416110992e-02 2.287439629435539246e-02 -2.381504699587821960e-02 -5.354850366711616516e-02 -4.405580088496208191e-02 -1.179752033203840256e-02 3.411302715539932251e-02 6.431846320629119873e-02 -7.964261621236801147e-02 -1.701239310204982758e-02 1.637555286288261414e-02 7.349471747875213623e-02 -2.539956942200660706e-02 3.612544387578964233e-03 -6.507897377014160156e-02 -3.844168037176132202e-02 2.705070655792951584e-04 6.146072596311569214e-02 -5.775100365281105042e-02 -3.873562067747116089e-02 1.257909983396530151e-01 2.454047463834285736e-02 -9.955884888768196106e-03 -8.342605829238891602e-02 1.480412948876619339e-02 3.068290092051029205e-02 -1.773162931203842163e-02 1.849582046270370483e-02 2.935780957341194153e-02 9.774508886039257050e-03 -4.773018509149551392e-02 -4.688884690403938293e-02 7.834953069686889648e-02 -3.283258154988288879e-02 -2.211713194847106934e-01 1.766038835048675537e-01 -4.608286544680595398e-02 6.945064663887023926e-02 4.119249060750007629e-02 1.132606994360685349e-02 1.279441714286804199e-01 8.277566730976104736e-02 1.267297845333814621e-02 2.755410224199295044e-02 -2.467928454279899597e-02 -7.454402744770050049e-02 -2.928048931062221527e-02 1.784236356616020203e-02 -9.919745475053787231e-02 -3.644591271877288818e-01 2.934001088142395020e-01 2.156338468194007874e-02 7.331873476505279541e-02 4.743464291095733643e-02 -4.086761176586151123e-02 6.890527904033660889e-02 1.212937204400077462e-04 -4.942910745739936829e-02 5.303804948925971985e-02 -5.230742692947387695e-02 -6.676169484853744507e-02 -4.603506624698638916e-02 9.143388830125331879e-03 -1.642809510231018066e-01 -4.803382158279418945e-01 4.416514039039611816e-01 -1.562739722430706024e-02 4.991570487618446350e-02 -1.075735781341791153e-02 1.872979849576950073e-02 1.492617577314376831e-01 4.452122747898101807e-02 -9.840495884418487549e-03 -2.057804353535175323e-02 6.673583388328552246e-02 -1.751344650983810425e-02 2.082289755344390869e-02 -7.488907128572463989e-02 -2.054276168346405029e-01 -7.771162986755371094e-01 5.548065304756164551e-01
1.662744767963886261e-02 -9.348221868276596069e-02 5.335276573896408081e-02 -1.865884810686111450e-01 1.636013574898242950e-02 5.224708095192909241e-02 -1.367375720292329788e-02 1.575147360563278198e-01 -1.801643222570419312e-01 3.034132765606045723e-03 -1.065364181995391846e-01 9.049836546182632446e-02 6.099240481853485107e-02 1.122024506330490112e-01 3.834829628467559814e-01 -4.626951366662979126e-02 4.636605083942413330e-02 -4.529534839093685150e-03 -5.465756356716156006e-02 7.296891510486602783e-02 1.275258511304855347e-01 2.036876417696475983e-02 1.885618418455123901e-01 -5.207065120339393616e-02 5.377033352851867676e-02 -6.866423040628433228e-02 8.084265887737274170e-02 1.293077766895294189e-01 6.202613934874534607e-03 3.430821597576141357e-01 -4.001988470554351807e-02 -5.540108680725097656e-02 5.538851767778396606e-02 -4.244942218065261841e-02 4.616124089807271957e-03 5.520051345229148865e-02 -5.002357810735702515e-02 6.743990629911422729e-02 -4.525583644863218069e-04 1.087068319320678711e-01 -1.265728026628494263e-01 1.037640944123268127e-01 1.010282188653945923e-01 5.984287708997726440e-02 2.721950113773345947e-01 -7.081945985555648804e-02 -9.673663973808288574e-02 -1.792691461741924286e-02 3.174778539687395096e-03 -2.756848465651273727e-03 -1.016347785480320454e-03 -1.001368649303913116e-02 4.418662935495376587e-02 -5.965946614742279053e-02 7.250394672155380249e-02 -7.172888517379760742e-02 2.456687763333320618e-02 -8.041527122259140015e-03 4.237273335456848145e-02 9.474799036979675293e-02 -6.926164776086807251e-02 -7.201673835515975952e-02 -1.610322482883930206e-02 8.947932720184326172e-02 1.050162985920906067e-01 -3.559806570410728455e-02 3.354941308498382568e-02 1.143376529216766357e-01 -5.792456679046154022e-03 3.461240977048873901e-02 7.556693628430366516e-03 -1.059680618345737457e-02 6.135205551981925964e-02 -4.685587808489799500e-02 1.555776223540306091e-02 -3.830712288618087769e-02 7.451426237821578979e-02 7.394824922084808350e-02 -1.282894331961870193e-02 9.239481389522552490e-02 4.753500595688819885e-02 2.886250615119934082e-03 -6.957679986953735352e-02 2.067356370389461517e-02 4.567130655050277710e-02 5.039312317967414856e-02 4.092291742563247681e-02 -5.380717292428016663e-02 -5.097113922238349915e-02 -4.581632465124130249e-02 -2.391306450590491295e-03 8.275960385799407959e-02 7.859674841165542603e-02 1.281952112913131714e-01 -5.502517521381378174e-02 -2.248989976942539215e-02 2.518559433519840240e-02 -3.950683400034904480e-02 3.581362590193748474e-02 -1.032220758497714996e-02 -5.690773949027061462e-03 -6.937198340892791748e-02 -2.640194632112979889e-02 2.872617729008197784e-02 -3.555360063910484314e-02 -4.757525026798248291e-02 -9.837238118052482605e-03 5.198746453970670700e-03 1.673833131790161133e-01 2.722403965890407562e-02 -8.149372041225433350e-02 3.821877390146255493e-02 -1.628810912370681763e-01 9.154267609119415283e-02 -7.875517755746841431e-02 6.112121790647506714e-02 -1.226626858115196228e-01 -2.919594384729862213e-02 -7.647360861301422119e-02 -1.241717040538787842e-01 -5.606850981712341309e-02 -4.522521048784255981e-02 -3.046093508601188660e-02 1.640885323286056519e-01 -8.487264811992645264e-02 -1.765548437833786011e-01 -1.189732030034065247e-01 -1.932110935449600220e-01 8.158753812313079834e-02 -1.131792664527893066e-01 2.508837543427944183e-02 -7.334931939840316772e-02 -1.336018741130828857e-01 -1.196373403072357178e-01 -3.073227405548095703e-01 2.774864062666893005e-02 -2.970232814550399780e-02 9.282846003770828247e-02 2.151251137256622314e-01 -3.517800569534301758e-02 -2.308314740657806396e-01 -1.001543030142784119e-01 -1.714451760053634644e-01 1.503942161798477173e-01 -1.166947633028030396e-01 2.017750442028045654e-01 -1.367266029119491577e-01 -1.795906573534011841e-01 -3.348304703831672668e-02 -3.870230019092559814e-01
1.040141098201274872e-02 3.785369172692298889e-02 3.120292909443378448e-02 3.687580674886703491e-02 -5.092655122280120850e-02 6.006416678428649902e-02 8.743502199649810791e-03 5.032500624656677246e-02 4.659278318285942078e-02 -4.805133491754531860e-02 -4.530399292707443237e-02 1.309611182659864426e-02 -6.415648758411407471e-02 2.318351343274116516e-02 -3.817015141248703003e-02 -1.507317926734685898e-02 2.344280108809471130e-02 -5.619892850518226624e-02 5.171873047947883606e-02 -2.235793694853782654e-02 7.612002640962600708e-02 3.894925490021705627e-02 2.440760470926761627e-02 3.457064554095268250e-02 -7.774224877357482910e-02 -8.975341916084289551e-03 5.900209769606590271e-02 -6.008403375744819641e-02 -8.033600449562072754e-02 -3.042925894260406494e-02 -1.687823794782161713e-02 4.138018004596233368e-03 -6.803925335407257080e-02 2.697124728001654148e-04 -7.798367738723754883e-02 4.880295693874359131e-02 1.121333241462707520e-02 8.837156929075717926e-03 -7.961694896221160889e-02 1.917814277112483978e-02 -8.011344075202941895e-02 -6.686519086360931396e-02 -4.943085834383964539e-02 -7.967472821474075317e-02 5.452946573495864868e-02 3.942032158374786377e-02 2.404628135263919830e-02 2.666567638516426086e-02 1.382807362824678421e-02 6.139919161796569824e-02 -4.436255246400833130e-02 1.383502315729856491e-02 -2.931520342826843262e-02 -2.922801300883293152e-02 -4.889087751507759094e-02 -6.476020812988281250e-02 5.680500715970993042e-02 4.643203690648078918e-02 -1.602170802652835846e-02 -2.578352764248847961e-02 -3.620293736457824707e-02 -3.086793422698974609e-02 -3.953064978122711182e-02 -1.443372387439012527e-02 2.626462094485759735e-02 1.034191064536571503e-02 -1.038763858377933502e-02 7.151763886213302612e-02 -2.973693236708641052e-02 3.178334981203079224e-02 7.969579845666885376e-02 -5.974495783448219299e-03 -2.438467368483543396e-02 1.846886985003948212e-02 -3.963615745306015015e-02 2.391669154167175293e-02 -4.269639775156974792e-02 9.498336352407932281e-03 -1.509565394371747971e-02 4.387285560369491577e-02 5.541161075234413147e-02 -5.919394269585609436e-02 4.709237813949584961e-02 3.515364602208137512e-02 -2.742664329707622528e-02 5.997710395604372025e-03 -7.641788106411695480e-03 1.093605719506740570e-02 -3.766672313213348389e-02 6.825298070907592773e-02 -5.183511599898338318e-02 2.503266558051109314e-02 -6.445670127868652344e-02 6.645409762859344482e-02 -1.789593324065208435e-02 7.024335116147994995e-02 1.841833442449569702e-02 -4.432709142565727234e-02 6.905838102102279663e-02 6.876648962497711182e-02 -5.191245675086975098e-02 -4.011164605617523193e-02 7.690273225307464600e-02 1.627112738788127899e-02 -5.846691504120826721e-02 2.168983593583106995e-02 -6.463582813739776611e-02 -5.044619739055633545e-02 7.997477799654006958e-02 1.590680517256259918e-02 7.112778257578611374e-04 4.667975008487701416e-02 3.424915298819541931e-02 2.956552803516387939e-02 4.440610855817794800e-02 7.265323400497436523e-02 -7.119324803352355957e-02 3.592069819569587708e-02 -8.268238976597785950e-03 8.808511309325695038e-03 8.239117451012134552e-03 -5.773856490850448608e-02 -6.162960082292556763e-02 4.667691886425018311e-02 -4.983081482350826263e-03 -7.283908873796463013e-02 -3.505212813615798950e-02 4.663105681538581848e-02 1.557210367172956467e-02 3.644952178001403809e-02 9.247380308806896210e-03 5.835843738168478012e-03 7.992414757609367371e-03 7.665310055017471313e-02 1.244126819074153900e-02 -2.801370248198509216e-02 -2.331914938986301422e-02 -5.421218648552894592e-02 4.855978861451148987e-02 3.983515873551368713e-02 -4.336933419108390808e-02 1.231981534510850906e-02 -1.012664660811424255e-02 -7.796093821525573730e-02 1.775585860013961792e-02 5.669324845075607300e-02 -7.503934204578399658e-03 -2.386577613651752472e-02 -5.234691500663757324e-02 4.906004294753074646e-02
-2.554284036159515381e-02 5.014659091830253601e-02 -6.736148893833160400e-02 1.768795102834701538e-01 -2.197497785091400146e-01 -2.854707837104797363e-01 5.445866659283638000e-02 -5.993775557726621628e-03 2.004927769303321838e-02 -1.048843041062355042e-01 -8.337805420160293579e-02 1.300186514854431152e-01 1.981110870838165283e-01 5.528154782950878143e-03 -2.177330255508422852e-01 -6.335645914077758789e-02 4.971755668520927429e-02 1.140214130282402039e-02 1.090622991323471069e-01 -1.622577607631683350e-01 -1.163950785994529724e-01 9.514425694942474365e-02 -5.273341387510299683e-02 1.202716901898384094e-01 -1.608691513538360596e-01 -1.796363145112991333e-01 -2.693966962397098541e-02 1.180052608251571655e-01 -2.379008568823337555e-02 -2.344901859760284424e-01 -1.704217679798603058e-02 -1.045603156089782715e-01 -4.156414791941642761e-02 1.155625358223915100e-01 -1.625073850154876709e-01 -1.120652556419372559e-01 -2.806578949093818665e-02 -5.674356594681739807e-02 2.947007492184638977e-02 -1.165376324206590652e-02 -5.522786825895309448e-02 3.990150243043899536e-02 -3.859089221805334091e-03 -1.074616890400648117e-02 -1.935815513134002686e-01 -7.822536677122116089e-02 2.168228849768638611e-02 2.769077010452747345e-02 2.324185147881507874e-02 -7.126614451408386230e-02 -1.888427883386611938e-03 -1.886858977377414703e-02 -4.748311638832092285e-02 5.490611121058464050e-02 -4.462644457817077637e-02 1.818328909575939178e-02 4.523937404155731201e-02 -1.684975437819957733e-02 3.497360274195671082e-02 -1.115438491106033325e-01 5.123915150761604309e-02 -2.639642544090747833e-02 -5.709300190210342407e-02 -6.807326525449752808e-02 -2.922509983181953430e-02 -5.248337611556053162e-02 -7.811534218490123749e-03 5.774600431323051453e-02 -4.024607315659523010e-02 3.319430723786354065e-02 -1.740711391903460026e-03 -3.982516005635261536e-02 -8.660873025655746460e-02 4.556664451956748962e-02 4.922983050346374512e-02 2.685799449682235718e-02 -1.210800334811210632e-01 -1.143960431218147278e-01 4.423360154032707214e-02 3.594997897744178772e-02 -2.433193847537040710e-02 3.316757082939147949e-02 -3.942883014678955078e-02 3.406479954719543457e-02 5.551681667566299438e-02 1.117177214473485947e-02 1.143877115100622177e-02 -5.402129516005516052e-02 6.869891285896301270e-02 1.256200019270181656e-02 -7.138437777757644653e-02 -9.037170559167861938e-03 -7.417628169059753418e-02 -7.750593870878219604e-02 1.371222436428070068e-01 1.477704346179962158e-01 2.502718381583690643e-02 -1.770514063537120819e-02 -2.852183021605014801e-02 1.087103113532066345e-01 5.652363225817680359e-02 -1.429735403507947922e-02 -7.395362854003906250e-02 5.217059329152107239e-02 1.834641396999359131e-01 2.743390761315822601e-02 -8.311816304922103882e-02 -9.519764035940170288e-02 -1.753805577754974365e-01 1.020145341753959656e-01 1.309426873922348022e-01 -6.852234154939651489e-02 1.150010377168655396e-01 2.909176284447312355e-03 9.428412467241287231e-02 -7.904641330242156982e-03 -3.078376688063144684e-02 -1.287401616573333740e-01 9.092237800359725952e-02 2.290142774581909180e-01 2.528018783777952194e-03 -6.006288528442382812e-02 -6.962425261735916138e-02 -8.058176189661026001e-02 2.167889475822448730e-01 2.227650582790374756e-01 3.388168290257453918e-02 8.164183050394058228e-02 -3.822432458400726318e-02 1.383437216281890869e-01 1.302544623613357544e-01 -1.052501350641250610e-01 -1.871013045310974121e-01 -2.885268302634358406e-03 2.833902537822723389e-01 -5.016954615712165833e-02 -1.229904368519783020e-01 -1.569045186042785645e-01 -1.579839885234832764e-01 1.849315464496612549e-01 3.236785531044006348e-01 -3.246806189417839050e-02 9.300269931554794312e-02 -1.348068565130233765e-01 8.467309921979904175e-02 1.164679229259490967e-01 -9.036615490913391113e-02 -1.828508377075195312e-01 -3.003539051860570908e-03 3.146631121635437012e-01
-3.330739215016365051e-02 -4.061289131641387939e-02 -1.778944134712219238e-01 5.168994516134262085e-02 4.846511781215667725e-02 2.516078017652034760e-02 1.042069718241691589e-01 -9.430605173110961914e-02 -8.025141805410385132e-02 -6.733133923262357712e-03 -1.512380242347717285e-01 1.024022921919822693e-01 -8.476798236370086670e-02 -3.609722480177879333e-02 -4.191915690898895264e-02 4.348378255963325500e-02 -4.911236837506294250e-02 -2.361575514078140259e-01 -6.709603965282440186e-02 7.126412540674209595e-02 -5.331760738044977188e-03 1.000636816024780273e-01 -4.953153058886528015e-02 -1.201945394277572632e-01 -8.671192079782485962e-02 -1.487270835787057877e-02 1.369438171386718750e-01 -3.486493974924087524e-02 -5.719682574272155762e-02 6.802397966384887695e-02 -3.512551775202155113e-03 -4.077342897653579712e-02 -1.225360408425331116e-01 8.432297036051750183e-03 -4.772880114614963531e-03 1.919289305806159973e-02 8.613470196723937988e-02 -1.656532846391201019e-02 1.092918124049901962e-02 5.264477804303169250e-02 -1.285664737224578857e-03 -4.949159920215606689e-03 -9.261274337768554688e-02 4.871958226431161165e-04 -6.226218771189451218e-03 1.098738145083189011e-02 1.647618599236011505e-02 -1.598699688911437988e-01 -2.963178418576717377e-02 -6.702692061662673950e-02 -6.687890738248825073e-02 -6.964124273508787155e-03 8.288519084453582764e-02 -2.359859645366668701e-02 -7.290691882371902466e-02 -8.014822006225585938e-02 -3.021776676177978516e-02 -3.011883422732353210e-02 9.109267964959144592e-03 2.417662926018238068e-02 -5.026007071137428284e-02 -1.401092559099197388e-01 -1.110325455665588379e-01 4.180484637618064880e-02 -1.474726349115371704e-01 -8.715212345123291016e-02 7.049500476568937302e-03 1.076534539461135864e-01 -1.776446402072906494e-02 1.279267109930515289e-02 -2.653796784579753876e-02 -4.342626780271530151e-02 4.446352273225784302e-02 9.407466277480125427e-03 6.093062832951545715e-02 -4.030036181211471558e-02 -1.379776298999786377e-01 -2.241885662078857422e-01 4.170625284314155579e-02 -1.608886122703552246e-01 -2.890907600522041321e-02 -1.588695682585239410e-02 1.025162637233734131e-02 5.179703980684280396e-02 6.815936416387557983e-02 7.032144069671630859e-02 -7.689488679170608521e-02 -7.057778537273406982e-02 -1.158231645822525024e-01 -2.036764752119779587e-03 -2.059441991150379181e-02 -1.888674199581146240e-01 -1.241517886519432068e-01 -3.321104869246482849e-02 -2.522262036800384521e-01 -8.510752767324447632e-02 -1.980607584118843079e-02 1.193870380520820618e-01 -2.589000388979911804e-02 3.305553272366523743e-02 9.246774762868881226e-02 3.337931260466575623e-02 8.424676954746246338e-02 -1.177738234400749207e-01 4.707771539688110352e-02 -1.908919401466846466e-02 -8.078411221504211426e-02 -1.544101536273956299e-01 -1.459453534334897995e-02 -2.954454720020294189e-01 -4.082000628113746643e-02 -1.377450227737426758e-01 3.411139175295829773e-02 1.227623447775840759e-01 7.992987334728240967e-02 1.702599078416824341e-01 -1.747300475835800171e-02 8.111728727817535400e-02 -5.677994713187217712e-02 1.049034390598535538e-02 -3.456413000822067261e-02 -2.181254476308822632e-01 -1.682902425527572632e-01 -4.397609271109104156e-03 -2.051362097263336182e-01 -6.724522262811660767e-02 -5.804948136210441589e-02 2.012789994478225708e-02 7.555241137742996216e-02 -5.539683997631072998e-02 1.573234647512435913e-01 -8.587466925382614136e-02 1.045256406068801880e-01 -1.034105643630027771e-01 1.119972169399261475e-01 3.383375704288482666e-02 -2.336617857217788696e-01 -2.567749023437500000e-01 -1.698443293571472168e-02 -3.906195461750030518e-01 -5.424354597926139832e-02 -2.085947394371032715e-01 1.185617372393608093e-01 6.298608332872390747e-02 5.687266960740089417e-02 2.272980660200119019e-01 -2.148211002349853516e-01 1.045354604721069336e-01 -1.748141832649707794e-02 3.806591033935546875e-02
4.736154526472091675e-02 1.557971537113189697e-02 -3.700019046664237976e-02 6.916210055351257324e-02 7.347562909126281738e-02 1.743672043085098267e-02 4.106520675122737885e-03 -3.892703354358673096e-02 2.119681052863597870e-02 -1.214895490556955338e-02 3.684645891189575195e-02 -4.073820263147354126e-02 8.079571276903152466e-02 1.887731254100799561e-02 -5.187858268618583679e-02 -7.620935142040252686e-02 6.372678279876708984e-02 -1.033393945544958115e-02 5.979532003402709961e-02 7.687124609947204590e-02 -1.602491177618503571e-02 7.510109990835189819e-02 -6.214521452784538269e-02 3.216161951422691345e-02 -2.554265595972537994e-02 -4.199546575546264648e-02 3.337159752845764160e-02 5.651477724313735962e-02 -5.540774762630462646e-02 6.112526357173919678e-02 -5.875499546527862549e-02 4.454490542411804199e-02 -4.675057157874107361e-02 -6.952361762523651123e-02 5.257222335785627365e-03 6.824658066034317017e-02 1.742706517688930035e-03 -2.347145602107048035e-02 -8.075034618377685547e-02 -5.120691843330860138e-03 -2.080317214131355286e-02 6.843893229961395264e-02 5.439842492341995239e-02 2.506924327462911606e-03 3.057950362563133240e-02 1.583729870617389679e-02 7.256180793046951294e-02 -1.757320202887058258e-02 1.358623709529638290e-02 3.199580311775207520e-02 8.065261691808700562e-02 -4.879353567957878113e-02 -5.025184899568557739e-02 -2.871086634695529938e-02 5.540690943598747253e-02 -4.737316071987152100e-02 2.854805672541260719e-03 6.886731833219528198e-02 3.259919350966811180e-03 -7.114845514297485352e-02 8.344519883394241333e-03 -1.552027277648448944e-02 2.248736098408699036e-03 6.655740737915039062e-02 3.311086818575859070e-02 3.825118392705917358e-02 -2.543622069060802460e-02 -3.005613945424556732e-02 -6.287987530231475830e-02 3.366275131702423096e-02 3.391947969794273376e-02 -4.849045723676681519e-02 3.822044655680656433e-02 -1.097336504608392715e-02 -5.725099146366119385e-02 4.216971248388290405e-02 3.759427694603800774e-03 1.393892709165811539e-02 -4.291757009923458099e-03 -2.860158914700150490e-03 -4.885882511734962463e-02 2.165525406599044800e-02 3.291015699505805969e-02 1.808174327015876770e-02 3.019627183675765991e-02 -7.105121761560440063e-02 -1.200950425118207932e-02 4.587341845035552979e-02 3.891880810260772705e-02 -4.982165247201919556e-02 4.691971093416213989e-02 3.943689540028572083e-02 -2.004685811698436737e-02 2.521681971848011017e-02 -5.544386059045791626e-02 5.082535371184349060e-02 -2.787038870155811310e-02 4.821716994047164917e-02 6.766620278358459473e-02 6.895427405834197998e-02 -7.524050027132034302e-02 -7.230269163846969604e-02 -1.376357953995466232e-02 7.778605073690414429e-02 -3.020195523276925087e-03 -6.507305800914764404e-02 4.156390577554702759e-02 6.411302834749221802e-02 3.445714339613914490e-02 4.182853922247886658e-02 1.005385071039199829e-02 -1.251208875328302383e-02 -3.161341696977615356e-02 -3.916934505105018616e-02 3.294268681202083826e-04 7.241496443748474121e-02 3.226628154516220093e-02 2.353384718298912048e-02 -3.279153630137443542e-02 -7.368472218513488770e-02 4.778944700956344604e-02 -7.960516959428787231e-02 -4.332529008388519287e-02 4.307903721928596497e-02 -7.272782176733016968e-02 7.332002371549606323e-02 7.946643233299255371e-02 7.084413617849349976e-02 -7.218781858682632446e-02 2.372820489108562469e-02 -1.346445269882678986e-02 5.763737857341766357e-02 -3.396018594503402710e-02 -2.928935177624225616e-02 6.361813843250274658e-02 -7.814694195985794067e-02 -5.535509902983903885e-03 -4.472943022847175598e-02 -1.580092683434486389e-02 -5.798671860247850418e-03 5.100242327898740768e-03 -6.873593479394912720e-02 -7.242752611637115479e-02 1.908752508461475372e-02 4.843307659029960632e-02 5.900752916932106018e-02 4.630586132407188416e-02 -6.073127314448356628e-02 -5.962920188903808594e-02 -3.985832259058952332e-02
1.416175859048962593e-03 1.617391109466552734e-01 5.059256777167320251e-02 -7.740119099617004395e-02 -6.833820790052413940e-02 -2.759627811610698700e-02 1.298323273658752441e-01 -1.225489899516105652e-01 -7.881836593151092529e-02 5.677790194749832153e-02 9.358709305524826050e-02 8.101049810647964478e-02 -5.075762420892715454e-02 -5.373980104923248291e-02 9.647966921329498291e-02 5.233917012810707092e-02 9.479476511478424072e-02 8.186998963356018066e-02 5.334143340587615967e-02 -8.152936398983001709e-02 -6.678369641304016113e-02 -3.283506631851196289e-02 -3.361327946186065674e-02 -1.584665924310684204e-01 -9.805951267480850220e-03 -1.846073567867279053e-02 1.378667205572128296e-01 6.025873124599456787e-02 1.985629275441169739e-02 1.548415720462799072e-01 4.919081181287765503e-02 6.516288220882415771e-02 2.841702103614807129e-02 -1.192022673785686493e-02 -6.530504673719406128e-02 8.232663571834564209e-02 -5.169463693164288998e-04 -7.829184830188751221e-02 -7.143727689981460571e-02 -2.796830050647258759e-02 9.146653115749359131e-02 1.206949055194854736e-01 3.769985586404800415e-02 -1.884855516254901886e-02 1.797453910112380981e-01 -1.749088987708091736e-02 7.317022979259490967e-02 4.791939258575439453e-02 6.880528479814529419e-02 -2.012858726084232330e-02 -6.614912301301956177e-02 1.125583797693252563e-02 -2.389255724847316742e-02 -2.636382728815078735e-02 -1.917707175016403198e-02 3.897187113761901855e-02 9.519745409488677979e-02 -1.067752689123153687e-01 -5.362663790583610535e-02 4.737506061792373657e-02 6.018953863531351089e-03 1.746360510587692261e-01 5.628059059381484985e-02 7.286276668310165405e-02 -3.396641090512275696e-02 9.490560623817145824e-04 -2.371748350560665131e-02 7.499369978904724121e-02 -1.420711353421211243e-02 -3.600984439253807068e-02 -6.632590293884277344e-02 4.416082799434661865e-02 1.148454938083887100e-02 -5.105935782194137573e-02 5.567229539155960083e-02 -1.419569714926183224e-03 1.080337613821029663e-01 5.533841624855995178e-02 -5.397065728902816772e-02 -5.212724953889846802e-02 1.064167264848947525e-02 6.838370114564895630e-02 -2.018158510327339172e-02 -2.588283456861972809e-02 5.407483130693435669e-02 4.122807458043098450e-02 -8.153019100427627563e-02 -6.652002781629562378e-02 8.705814182758331299e-02 -8.444538712501525879e-02 -6.457946449518203735e-02 9.368190914392471313e-02 -9.157703025266528130e-04 4.939727950841188431e-03 -1.007576957345008850e-01 -1.428368687629699707e-02 -7.178511470556259155e-02 6.966376304626464844e-02 7.201533019542694092e-02 -5.672119185328483582e-02 -4.978676885366439819e-02 -6.358054000884294510e-03 -1.361459791660308838e-01 9.941510856151580811e-02 -1.609071195125579834e-01 5.783926323056221008e-02 9.715953469276428223e-02 -2.014118991792201996e-02 2.295691892504692078e-02 1.653147675096988678e-02 6.219958513975143433e-02 -1.099349260330200195e-01 1.484333071857690811e-02 1.507364362478256226e-01 -1.235613692551851273e-02 -6.228267028927803040e-02 -2.127642333507537842e-01 -1.266556046903133392e-02 4.331560805439949036e-02 -1.486010700464248657e-01 -3.999806940555572510e-02 1.823727935552597046e-01 1.155929714441299438e-01 2.283149585127830505e-02 -8.959075808525085449e-02 3.107371367514133453e-02 -1.200129687786102295e-01 1.254922449588775635e-01 2.531873583793640137e-01 -7.095894217491149902e-02 -1.405878216028213501e-01 -2.220483273267745972e-01 -1.480382829904556274e-01 8.064015209674835205e-02 -2.311294078826904297e-01 6.011574342846870422e-02 2.229227274656295776e-01 9.696629643440246582e-02 -6.504090130329132080e-02 -5.843088496476411819e-03 3.793358430266380310e-02 -1.425723284482955933e-01 2.370804697275161743e-01 2.474666386842727661e-01 -3.581671416759490967e-02 -1.744372993707656860e-01 -2.040043175220489502e-01 -8.771210908889770508e-02 6.338220089673995972e-02 -3.365802168846130371e-01
1.636109687387943268e-02 1.277706176042556763e-01 4.403064376674592495e-04 7.038929313421249390e-02 4.499524831771850586e-02 -7.611478120088577271e-02 4.228550009429454803e-03 6.208096817135810852e-02 -6.330604199320077896e-03 2.075660973787307739e-02 -6.462984532117843628e-02 2.843045070767402649e-02 1.966788247227668762e-02 1.304520368576049805e-01 1.245293393731117249e-01 5.810900405049324036e-02 6.393955647945404053e-02 -6.444573402404785156e-03 -3.684286959469318390e-03 -1.561740692704916000e-02 -5.028243362903594971e-02 1.106021180748939514e-01 6.437406688928604126e-02 -1.201565414667129517e-01 9.120736271142959595e-02 -8.769144117832183838e-02 -3.856935724616050720e-02 -3.780995262786746025e-03 7.517692632973194122e-03 8.041062951087951660e-02 1.530101597309112549e-01 -1.563854049891233444e-03 1.269280444830656052e-02 -3.878647834062576294e-02 3.877434879541397095e-02 -1.009825393557548523e-01 -1.326152402907609940e-02 7.901061326265335083e-02 -5.239496007561683655e-02 2.616660110652446747e-02 -1.139349788427352905e-01 -1.033718734979629517e-01 3.562949970364570618e-02 4.059928655624389648e-02 9.858952835202217102e-03 6.044005602598190308e-02 6.512808799743652344e-02 -1.043712422251701355e-01 -8.155550062656402588e-02 2.677343599498271942e-02 2.744958177208900452e-02 -9.712627157568931580e-03 4.098764061927795410e-02 -3.634816408157348633e-02 5.422289296984672546e-02 1.044495590031147003e-02 -3.495020791888237000e-03 1.260322332382202148e-02 -6.671009212732315063e-02 -1.093869935721158981e-02 1.116947531700134277e-01 -4.189986363053321838e-02 -7.897279225289821625e-03 -3.500811755657196045e-02 6.996866315603256226e-02 3.673745319247245789e-02 -6.454289704561233521e-02 3.914025798439979553e-02 -4.814165830612182617e-02 4.371461272239685059e-02 4.058097302913665771e-02 -2.474634721875190735e-02 -7.229564338922500610e-02 -3.834421187639236450e-02 -7.983712852001190186e-02 1.249848157167434692e-01 8.800246752798557281e-03 -3.437247872352600098e-02 2.731652185320854187e-02 6.177979707717895508e-02 5.606308206915855408e-02 -2.681905589997768402e-02 -1.220974698662757874e-02 3.203151002526283264e-02 4.528984427452087402e-02 2.579027041792869568e-02 -7.172539085149765015e-02 -9.318903833627700806e-02 -1.077900603413581848e-01 -4.444050416350364685e-02 1.402456462383270264e-01 -1.105963997542858124e-02 -8.269535005092620850e-02 -3.266377747058868408e-02 -3.958570584654808044e-02 1.446709930896759033e-01 9.127176366746425629e-03 -3.153247013688087463e-02 1.600104011595249176e-02 -7.041238993406295776e-02 2.132416516542434692e-02 3.739846125245094299e-02 2.671274915337562561e-02 -6.522176414728164673e-02 -8.475210517644882202e-03 9.470637887716293335e-02 -7.155456393957138062e-02 -1.531475633382797241e-01 2.942745760083198547e-02 7.786124944686889648e-03 3.549439460039138794e-02 -2.776922192424535751e-03 -1.351270675659179688e-01 8.989163674414157867e-03 -1.390418112277984619e-01 1.906908750534057617e-01 1.437830366194248199e-02 -2.382412739098072052e-02 -2.224218100309371948e-01 1.650158502161502838e-02 1.513068825006484985e-01 -6.447088718414306641e-02 -8.323132246732711792e-02 -9.330523014068603516e-02 -2.476415038108825684e-02 1.955578029155731201e-01 -1.251947879791259766e-01 -1.812987774610519409e-01 6.440987437963485718e-02 -4.152379930019378662e-02 1.702688485383987427e-01 -7.197520881891250610e-02 -1.274258494377136230e-01 -1.216618567705154419e-01 -1.732769049704074860e-02 7.668870687484741211e-02 -8.303138613700866699e-02 -1.428811401128768921e-01 1.256639137864112854e-02 -5.531166493892669678e-02 1.688598841428756714e-01 -7.102796435356140137e-02 -2.576973438262939453e-01 5.157231539487838745e-02 -1.260234862565994263e-01 2.787643373012542725e-01 3.708302974700927734e-02 -1.709609478712081909e-01 -1.455082297325134277e-01 -5.848326534032821655e-02
1.395300496369600296e-02 4.956638440489768982e-03 2.573700621724128723e-02 3.954230621457099915e-02 4.330722615122795105e-02 -6.275599449872970581e-02 -6.049526110291481018e-02 -2.237389236688613892e-02 5.028357356786727905e-02 -5.431212019175291061e-03 -6.868671625852584839e-02 1.052883174270391464e-02 -5.860277265310287476e-02 -4.347671568393707275e-02 -6.354827433824539185e-02 -1.856265775859355927e-02 5.480312556028366089e-02 3.577493131160736084e-02 5.849435552954673767e-02 1.756910979747772217e-02 -3.016152791678905487e-02 -5.324114114046096802e-02 1.271555759012699127e-02 -6.405252963304519653e-02 2.127281390130519867e-02 -4.527545720338821411e-02 -2.179533615708351135e-02 3.424806520342826843e-02 9.121576324105262756e-03 -6.585866957902908325e-02 -1.710532419383525848e-02 -6.993992626667022705e-02 -7.103401422500610352e-02 8.036327362060546875e-02 -6.923884898424148560e-02 6.779064983129501343e-02 5.903184413909912109e-02 -5.570147652179002762e-03 -6.972569227218627930e-02 1.079230289906263351e-02 6.902697682380676270e-02 -6.193695217370986938e-02 -1.379616837948560715e-02 -1.729530282318592072e-02 -1.739146746695041656e-02 -1.629389449954032898e-02 2.782543562352657318e-02 -6.717278808355331421e-02 -2.808019146323204041e-02 -2.626526355743408203e-02 -1.403173618018627167e-02 -1.474417559802532196e-02 -4.941160231828689575e-02 3.615109622478485107e-02 8.962575346231460571e-02 7.179966568946838379e-02 6.189424917101860046e-02 7.786539942026138306e-02 -5.079292133450508118e-02 2.733547799289226532e-02 -7.293595373630523682e-02 6.502938270568847656e-02 4.011338949203491211e-02 -6.020370870828628540e-02 7.038690894842147827e-02 1.891667954623699188e-02 1.356457243673503399e-03 7.256190478801727295e-02 5.070825293660163879e-02 -1.848940155468881130e-03 -2.439800649881362915e-02 7.230506837368011475e-02 -2.023211121559143066e-02 4.749036452267318964e-04 2.551584690809249878e-02 5.919171869754791260e-02 2.950559929013252258e-02 -5.402394011616706848e-02 6.861919909715652466e-02 8.530015498399734497e-02 4.877160117030143738e-02 -1.204871945083141327e-02 7.101442664861679077e-02 8.491569012403488159e-02 2.759669348597526550e-02 -3.839772194623947144e-02 -7.213582843542098999e-02 -3.950444608926773071e-02 -8.342049084603786469e-03 -6.442035734653472900e-02 2.641692385077476501e-02 7.135046273469924927e-02 -7.738140225410461426e-02 1.122201606631278992e-02 -3.711951151490211487e-02 5.603391677141189575e-02 6.139130890369415283e-02 4.068984463810920715e-02 4.928321577608585358e-03 6.319098174571990967e-02 -4.639778658747673035e-02 -7.059625536203384399e-02 1.085290405899286270e-02 4.958334937691688538e-02 -3.959168493747711182e-02 -4.897253960371017456e-02 5.670987442135810852e-02 3.495355695486068726e-02 4.324230179190635681e-02 4.741775989532470703e-02 -3.541310876607894897e-02 4.485079646110534668e-02 6.273259222507476807e-02 5.980019341222941875e-04 -1.330701820552349091e-02 6.676916033029556274e-02 -1.588736660778522491e-02 4.169616103172302246e-02 -1.102526206523180008e-02 7.121600955724716187e-02 8.761339634656906128e-02 2.086780592799186707e-02 2.777830511331558228e-02 -2.092676609754562378e-02 -3.283848613500595093e-02 -5.242090672254562378e-02 2.239333465695381165e-02 -6.521659344434738159e-02 -2.198817022144794464e-02 3.763820603489875793e-02 5.235065519809722900e-02 -1.223696745000779629e-03 -1.539730746299028397e-02 3.883505612611770630e-02 -5.566117167472839355e-02 1.055866014212369919e-02 6.499347090721130371e-02 1.454672683030366898e-02 7.534396369010210037e-03 5.316306650638580322e-02 6.285025179386138916e-02 -7.120987772941589355e-02 -6.214199960231781006e-02 6.308003515005111694e-02 -5.907740071415901184e-02 -2.915107645094394684e-03 4.707527533173561096e-02 5.493118613958358765e-02 5.827762931585311890e-02 -1.930797286331653595e-02
-9.218656271696090698e-02 -4.706011340022087097e-02 -6.565495580434799194e-02 -2.246703580021858215e-02 -6.764262169599533081e-02 -4.803846590220928192e-03 6.678091734647750854e-02 -1.535619795322418213e-01 -3.061956726014614105e-02 -5.326289217919111252e-03 -9.567459672689437866e-02 -7.752553373575210571e-02 -2.417168952524662018e-02 4.138427972793579102e-02 5.096734166145324707e-01 -4.887336492538452148e-02 3.764395788311958313e-02 -1.166811659932136536e-01 2.244964241981506348e-02 7.529342919588088989e-02 -2.405048348009586334e-02 -7.174341939389705658e-03 -1.310569886118173599e-02 -1.133351027965545654e-01 -1.481661852449178696e-02 -5.961051210761070251e-02 4.305696859955787659e-02 2.149083651602268219e-02 2.957485243678092957e-02 3.478519320487976074e-01 -1.119247525930404663e-01 -3.212093189358711243e-02 -9.680566936731338501e-02 6.696209311485290527e-02 -4.127728193998336792e-02 6.846649199724197388e-02 -1.223144680261611938e-02 -9.502113610506057739e-02 -1.338979154825210571e-01 -3.368191793560981750e-02 3.910187631845474243e-02 -3.079406172037124634e-02 -4.414445534348487854e-02 6.088008359074592590e-02 2.624637484550476074e-01 1.958511956036090851e-02 -2.441648207604885101e-02 -2.265715040266513824e-02 1.904070749878883362e-02 -7.090566307306289673e-02 7.105284929275512695e-02 5.087110772728919983e-02 -6.604706496000289917e-02 -7.746549672447144985e-04 -5.325166136026382446e-02 -8.825073949992656708e-03 -1.314285397529602051e-02 -2.475513517856597900e-02 3.686195611953735352e-02 2.017768099904060364e-02 -4.199581965804100037e-02 -6.933365017175674438e-02 -1.186834201216697693e-01 -7.183251529932022095e-02 4.468904808163642883e-02 8.096607774496078491e-02 -4.085755441337823868e-03 5.812894552946090698e-03 1.868436485528945923e-02 2.943685278296470642e-02 -2.230940014123916626e-02 -7.556819356977939606e-03 -3.352060168981552124e-02 8.434300869703292847e-02 -1.068428456783294678e-01 -8.609385043382644653e-02 -1.862520352005958557e-02 1.225269213318824768e-02 1.613685302436351776e-02 -7.320319768041372299e-03 1.152752786874771118e-01 -3.643806651234626770e-02 -4.326901584863662720e-02 -9.659354388713836670e-02 4.908584803342819214e-02 4.548594728112220764e-02 8.696338534355163574e-02 3.218306228518486023e-02 -3.495604172348976135e-02 -1.925214082002639771e-01 -5.153147131204605103e-02 -1.175234839320182800e-01 -8.692525327205657959e-02 6.232824176549911499e-02 -3.106097131967544556e-02 9.279251843690872192e-02 -2.271537110209465027e-02 1.115381643176078796e-01 6.142470240592956543e-02 -2.350947819650173187e-03 -2.005748264491558075e-02 7.803870737552642822e-02 1.144091710448265076e-01 2.955396100878715515e-02 -3.176327943801879883e-01 -1.152587458491325378e-01 -4.872319102287292480e-02 -3.150698263198137283e-03 5.068005248904228210e-02 -5.878710374236106873e-02 8.873689174652099609e-02 -1.393143385648727417e-01 9.490989148616790771e-02 -3.083122149109840393e-02 5.119780451059341431e-02 -1.653928309679031372e-02 1.015089675784111023e-01 3.623198717832565308e-02 -2.260443521663546562e-03 -6.292412281036376953e-01 -1.294194608926773071e-01 -7.806587964296340942e-02 -9.017471969127655029e-02 -8.824671804904937744e-02 -4.461102932691574097e-02 9.656229615211486816e-02 -1.524686962366104126e-01 7.221145927906036377e-02 8.772084861993789673e-02 3.122318722307682037e-02 5.458737909793853760e-02 1.442927718162536621e-01 5.117201805114746094e-02 -8.245407044887542725e-02 -6.970551609992980957e-01 -5.654976889491081238e-02 -9.817745536565780640e-02 -1.522855926305055618e-02 -1.080362126231193542e-02 6.238047033548355103e-02 1.673346757888793945e-02 -1.954284012317657471e-01 1.926056146621704102e-01 1.121195405721664429e-01 -5.072032287716865540e-02 7.323110103607177734e-02 1.818669438362121582e-01 5.641681700944900513e-02 -1.761330850422382355e-02 -9.321649670600891113e-01
7.660689204931259155e-02 -7.677770685404539108e-03 -7.871605455875396729e-02 6.661918014287948608e-03 1.531477645039558411e-02 -3.094922052696347237e-03 -2.508909627795219421e-02 -7.615912705659866333e-02 2.412162721157073975e-02 8.411224931478500366e-03 -7.608731091022491455e-02 -4.606721550226211548e-02 2.882997691631317139e-02 2.357538044452667236e-02 -7.689289748668670654e-02 4.153640195727348328e-02 -9.836202487349510193e-03 3.373062983155250549e-02 8.585381507873535156e-02 -4.163464531302452087e-02 -9.491928853094577789e-03 -6.929673254489898682e-02 2.118004113435745239e-02 2.209605183452367783e-03 -5.116659402847290039e-02 3.852929174900054932e-02 4.282996058464050293e-02 7.698535919189453125e-02 6.797185540199279785e-02 -8.049803972244262695e-02 -4.591740667819976807e-02 3.030087426304817200e-02 -3.356969729065895081e-02 5.433229357004165649e-02 8.589813113212585449e-02 -7.454413920640945435e-02 -1.620326936244964600e-02 -5.240190774202346802e-02 -7.585445046424865723e-02 8.162721246480941772e-02 1.947372406721115112e-02 4.011902958154678345e-02 -1.693648844957351685e-02 6.216463446617126465e-02 4.462555423378944397e-02 1.817412115633487701e-02 5.281276628375053406e-02 3.076019138097763062e-02 7.518131285905838013e-02 2.627986483275890350e-02 -5.159121379256248474e-02 -4.464612528681755066e-02 2.135251648724079132e-02 -7.641140371561050415e-02 6.372264772653579712e-02 1.280864793807268143e-02 6.559087336063385010e-02 -1.631407812237739563e-02 1.463687792420387268e-02 -4.330286011099815369e-02 -7.276646327227354050e-03 -2.251127734780311584e-03 -6.846927106380462646e-02 5.786024406552314758e-02 -5.441429466009140015e-02 -4.323890060186386108e-02 2.964478358626365662e-02 -4.833598807454109192e-02 2.700188755989074707e-02 2.210235036909580231e-02 -5.276156589388847351e-02 4.265785962343215942e-02 -4.636887088418006897e-02 2.193753048777580261e-02 6.176866218447685242e-02 2.518027462065219879e-02 1.891746558248996735e-02 -4.178141802549362183e-02 4.735412076115608215e-02 -5.646270513534545898e-02 2.370156720280647278e-02 5.125963594764471054e-03 1.531979534775018692e-02 2.219769358634948730e-02 -9.396775625646114349e-03 -7.773082703351974487e-02 -8.215235173702239990e-02 4.409209638833999634e-02 7.540889550000429153e-03 5.628064274787902832e-02 -9.064700454473495483e-03 8.774491026997566223e-03 5.025618150830268860e-02 8.242692798376083374e-03 -2.332843467593193054e-02 -6.265505403280258179e-02 -3.800691664218902588e-02 -5.751101672649383545e-02 -6.774347741156816483e-03 4.707853123545646667e-02 5.461212992668151855e-02 3.872795403003692627e-02 8.645255863666534424e-02 1.644978113472461700e-02 -7.287957239896059036e-03 6.495187431573867798e-02 -7.132992148399353027e-02 -1.733108190819621086e-03 -6.079816445708274841e-02 3.199835494160652161e-02 -1.424663979560136795e-02 6.433700025081634521e-02 3.913832828402519226e-02 4.508051089942455292e-03 7.346709072589874268e-02 -3.525543585419654846e-02 5.166999995708465576e-02 6.475319713354110718e-02 5.594371631741523743e-02 4.798424988985061646e-02 -6.524598225951194763e-03 -3.747973963618278503e-02 2.506560832262039185e-02 3.822936490178108215e-02 -4.569587111473083496e-02 5.188915133476257324e-02 7.556146383285522461e-02 4.981850460171699524e-02 1.957700029015541077e-02 7.489341497421264648e-02 4.285902529954910278e-02 2.566812559962272644e-02 4.683905839920043945e-02 -2.572394721210002899e-02 -2.351048588752746582e-02 -5.622748658061027527e-02 4.321345593780279160e-03 2.487189834937453270e-03 -5.882991477847099304e-03 -9.557817131280899048e-03 -7.495429366827011108e-02 -5.856333673000335693e-02 3.926582261919975281e-02 -7.097075879573822021e-02 4.688020423054695129e-02 5.297565460205078125e-02 5.289513990283012390e-02 2.318748831748962402e-02 6.379570066928863525e-02 -5.432830005884170532e-02
1.201474815607070923e-01 9.768674522638320923e-02 -1.754388660192489624e-01 -1.374713890254497528e-02 -7.950792461633682251e-02 -9.455719590187072754e-02 3.878764808177947998e-02 -5.818969011306762695e-02 1.336615681648254395e-01 5.515631660819053650e-02 -9.248361922800540924e-03 -1.181028410792350769e-02 3.746121004223823547e-02 -2.255144529044628143e-02 -9.744798392057418823e-02 5.653124302625656128e-02 -1.518790051341056824e-02 -1.114466190338134766e-01 9.277772158384323120e-02 -9.805452078580856323e-02 -6.249563023447990417e-02 1.125464141368865967e-01 -1.068836729973554611e-02 1.086596176028251648e-01 4.691022261977195740e-02 -3.781860694289207458e-02 2.123957127332687378e-02 1.789786107838153839e-02 -2.125904895365238190e-02 -1.564496159553527832e-01 1.015895009040832520e-01 -2.614162396639585495e-03 -1.519657969474792480e-01 -2.551082894206047058e-02 3.130432963371276855e-02 5.648230016231536865e-02 1.037430316209793091e-01 -2.952591143548488617e-02 1.363415177911520004e-02 5.081523954868316650e-02 -6.663604080677032471e-02 -2.134948223829269409e-02 -6.494980305433273315e-02 1.891366089694201946e-03 -3.826211392879486084e-02 1.220459043979644775e-01 -3.062259405851364136e-02 -2.223378568887710571e-01 2.599819330498576164e-03 4.640955850481987000e-02 -3.920141607522964478e-03 -1.252109184861183167e-02 -6.568043678998947144e-02 -2.391857281327247620e-02 1.943901181221008301e-02 4.548805952072143555e-02 1.532547362148761749e-02 5.092512071132659912e-02 1.755506545305252075e-02 7.232157047837972641e-03 1.417091023176908493e-02 7.856234163045883179e-02 -2.269600331783294678e-01 -1.112620234489440918e-01 4.673552513122558594e-02 1.173440590500831604e-01 -8.937656134366989136e-02 -4.915364459156990051e-02 -1.811735704541206360e-02 -7.939215749502182007e-02 -7.686013728380203247e-02 -2.187963761389255524e-02 7.218830287456512451e-02 5.136254429817199707e-02 3.888935968279838562e-02 6.860118359327316284e-02 -2.145028114318847656e-02 -1.628706455230712891e-01 -1.313322335481643677e-01 7.763211615383625031e-03 1.706879734992980957e-01 -1.296431720256805420e-01 -1.983979530632495880e-02 -9.129116684198379517e-02 -6.338057573884725571e-03 -2.606463246047496796e-02 5.488487426191568375e-03 -3.548973053693771362e-02 4.745870362967252731e-03 8.969479054212570190e-02 8.939059078693389893e-02 -3.928368911147117615e-02 -2.244563251733779907e-01 -1.732458919286727905e-02 1.219817548990249634e-01 2.160517126321792603e-01 -1.439261287450790405e-01 5.581559240818023682e-02 -8.716649562120437622e-02 -8.101741224527359009e-02 7.825309783220291138e-02 2.388567477464675903e-02 -5.839760601520538330e-02 -5.067013204097747803e-02 1.558998674154281616e-01 1.060179714113473892e-02 -2.112340182065963745e-02 -2.281144112348556519e-01 -7.786667346954345703e-02 2.524075657129287720e-02 2.153693288564682007e-01 -2.077547311782836914e-01 1.043087318539619446e-01 -1.729639619588851929e-01 -6.819075345993041992e-02 2.118638902902603149e-02 -5.476067215204238892e-02 7.602631300687789917e-02 2.219585329294204712e-02 9.808208048343658447e-02 5.893180891871452332e-02 1.973854750394821167e-02 -2.827294468879699707e-01 -2.142361998558044434e-01 1.624816656112670898e-01 3.724107742309570312e-01 -1.076328381896018982e-01 1.536572701297700405e-03 -2.184004038572311401e-01 -1.400404125452041626e-01 1.344966441392898560e-01 1.007206588983535767e-01 3.659426793456077576e-02 9.992229938507080078e-02 1.947737485170364380e-01 1.630300879478454590e-01 -1.172717567533254623e-02 -2.619044184684753418e-01 -1.986954063177108765e-01 1.256299614906311035e-01 3.164476156234741211e-01 -2.408862560987472534e-01 8.572372794151306152e-02 -2.776314020156860352e-01 -4.471379518508911133e-02 1.390343457460403442e-01 8.682094514369964600e-02 7.508552074432373047e-02 4.321523755788803101e-02 2.762021422386169434e-01
-1.997263607336208224e-04 3.403527662158012390e-03 -2.844579890370368958e-02 -1.067341566085815430e-01 1.329664736986160278e-01 1.057343780994415283e-01 -4.215109348297119141e-02 1.457016617059707642e-01 -8.820614777505397797e-03 8.947040885686874390e-03 -6.811093538999557495e-02 4.442784562706947327e-02 1.052700635045766830e-02 5.478616058826446533e-02 -6.504102796316146851e-02 -1.894947886466979980e-02 -1.214838251471519470e-01 -4.011833667755126953e-02 -1.098220869898796082e-01 8.652055263519287109e-02 1.055176407098770142e-01 -2.498623169958591461e-02 2.137108147144317627e-02 4.816171422135084867e-04 1.033701002597808838e-01 -1.443284600973129272e-01 7.210436463356018066e-02 -6.410825997591018677e-02 7.240864634513854980e-02 7.645224034786224365e-02 6.388105102814733982e-04 -1.176176965236663818e-01 1.441662013530731201e-02 -2.597204037010669708e-02 -3.797509521245956421e-02 5.035640299320220947e-02 -5.418122932314872742e-02 7.982383668422698975e-02 8.833814412355422974e-02 -3.742527216672897339e-02 -2.557373791933059692e-02 -7.235153764486312866e-02 9.327241033315658569e-02 2.719491161406040192e-02 -3.659014031291007996e-02 -7.325366139411926270e-02 -4.072520136833190918e-02 -1.703870110213756561e-02 -9.056845307350158691e-02 -5.715142562985420227e-02 -9.840122424066066742e-03 4.434329643845558167e-02 1.193275442346930504e-03 -1.104093808680772781e-02 -3.082553297281265259e-02 -8.156762272119522095e-02 4.415081441402435303e-02 6.958672404289245605e-02 -4.739725217223167419e-02 5.171844735741615295e-02 -3.447660058736801147e-02 -1.666265875101089478e-01 1.136539038270711899e-02 4.941704869270324707e-02 -9.096264094114303589e-02 -9.541204199194908142e-03 -3.349023312330245972e-02 4.391098394989967346e-02 1.012361571192741394e-01 -4.730579629540443420e-02 4.315878450870513916e-02 4.773854836821556091e-02 6.675007194280624390e-02 6.396548449993133545e-02 -8.411047980189323425e-03 1.411825232207775116e-02 -1.702121347188949585e-01 -9.862332604825496674e-03 4.756553843617439270e-02 -5.413731560111045837e-02 -5.586089193820953369e-02 6.216975301504135132e-02 -6.106958910822868347e-02 -9.490330703556537628e-03 -5.196426063776016235e-02 -2.638681232929229736e-02 4.798089340329170227e-02 1.216580253094434738e-02 4.046545177698135376e-02 -1.339039504528045654e-01 -7.362335175275802612e-02 -1.553440839052200317e-01 5.389246717095375061e-02 1.902974396944046021e-02 -6.587713956832885742e-02 -1.692070662975311279e-01 8.087702095508575439e-02 -9.865911304950714111e-02 7.403227500617504120e-03 5.673283245414495468e-03 5.764975398778915405e-02 4.417109303176403046e-03 7.208398729562759399e-02 -6.123108323663473129e-03 1.862589386291801929e-03 -6.047916039824485779e-02 -2.483953833580017090e-01 5.718143284320831299e-02 -8.011246472597122192e-02 -4.877099022269248962e-02 -2.530959248542785645e-01 9.339245408773422241e-02 -1.154541671276092529e-01 4.529911652207374573e-02 -3.140255063772201538e-02 1.028117835521697998e-01 -1.035478804260492325e-02 1.966486126184463501e-02 -5.858980119228363037e-02 -1.162439957261085510e-01 -1.035133525729179382e-01 -1.876983493566513062e-01 7.447413355112075806e-02 7.093939185142517090e-02 -3.079608082771301270e-02 -2.143740057945251465e-01 1.905968226492404938e-02 -1.534994244575500488e-01 -4.822334647178649902e-02 -1.308872103691101074e-01 1.323786973953247070e-01 8.675360679626464844e-02 1.187316626310348511e-01 -7.667347788810729980e-02 -1.491404622793197632e-01 -2.790557406842708588e-02 -2.716435492038726807e-01 -2.379447780549526215e-02 8.946678042411804199e-02 -8.258193731307983398e-02 -2.458207905292510986e-01 1.296282708644866943e-01 -2.050980925559997559e-01 -4.243686329573392868e-03 -1.380030959844589233e-01 1.811069101095199585e-01 -5.679901316761970520e-02 1.703408658504486084e-01 5.574497580528259277e-02 -7.931372523307800293e-02
-1.624064147472381592e-01 1.741791367530822754e-01 -1.146307438611984253e-01 -1.536289751529693604e-01 9.883846342563629150e-02 -3.023033738136291504e-01 5.541831627488136292e-02 1.979116946458816528e-01 -5.952458083629608154e-02 1.080705150961875916e-01 -1.126686409115791321e-01 1.077809333801269531e-01 1.782853528857231140e-02 4.861049726605415344e-02 1.513840258121490479e-01 -6.196025013923645020e-02 1.210763081908226013e-01 -1.428130865097045898e-01 -7.184597104787826538e-02 6.965110450983047485e-02 -2.351492941379547119e-01 1.341993063688278198e-01 1.019849032163619995e-01 -3.010186739265918732e-02 3.254973143339157104e-02 -1.405799537897109985e-01 1.276277154684066772e-01 9.975548833608627319e-02 2.557765692472457886e-02 1.932756900787353516e-01 -1.203859820961952209e-01 5.518177524209022522e-02 -2.561953850090503693e-02 -9.465963393449783325e-02 1.264592707157135010e-01 -4.013112559914588928e-02 1.472207605838775635e-01 1.339968442916870117e-01 -4.119036346673965454e-02 3.154815733432769775e-02 -1.869982690550386906e-03 7.506869733333587646e-02 2.802434563636779785e-02 -1.937751471996307373e-02 1.734853237867355347e-01 -1.266185045242309570e-01 4.507546499371528625e-02 -5.330026522278785706e-02 -2.541711553931236267e-02 1.152445469051599503e-02 -6.200207024812698364e-02 7.901334017515182495e-02 -2.117376029491424561e-02 2.766376361250877380e-02 -7.893703132867813110e-02 3.259311616420745850e-02 1.021935120224952698e-01 1.163492798805236816e-01 6.160414777696132660e-03 1.050871759653091431e-01 -1.338849216699600220e-01 9.027183055877685547e-02 -7.373211532831192017e-02 8.199657313525676727e-03 -7.955407351255416870e-02 -3.182436153292655945e-02 5.492085590958595276e-02 6.946968287229537964e-02 3.309177607297897339e-02 4.054134339094161987e-02 -5.810981243848800659e-02 3.927524015307426453e-02 1.199099794030189514e-01 -2.024917164817452431e-03 -1.755109801888465881e-02 -8.426591753959655762e-02 1.149034127593040466e-01 2.864347212016582489e-02 -4.267416149377822876e-02 -1.117734387516975403e-01 1.636827886104583740e-01 2.255537547171115875e-02 4.825925454497337341e-03 -6.090606749057769775e-02 -5.483354255557060242e-02 -4.514156281948089600e-02 1.663459092378616333e-02 -2.995342016220092773e-02 -1.067969873547554016e-01 3.336787596344947815e-02 -7.165332138538360596e-02 8.699542284011840820e-02 -3.787143900990486145e-02 7.312937825918197632e-02 -2.016355544328689575e-01 2.089438736438751221e-01 -1.366307586431503296e-02 -1.531769149005413055e-02 -5.209274217486381531e-02 -5.402847006916999817e-02 -3.967739641666412354e-02 -6.387341767549514771e-02 1.180115565657615662e-01 -5.031026527285575867e-02 -1.295190677046775818e-02 -4.998591728508472443e-03 1.754993200302124023e-01 -1.505837868899106979e-02 7.811633404344320297e-03 -1.819621175527572632e-01 2.292900532484054565e-01 -6.488455832004547119e-02 -1.373158991336822510e-01 -7.683745771646499634e-02 -6.167348474264144897e-02 1.192627567797899246e-02 -1.526813954114913940e-01 9.064735472202301025e-02 2.566462755203247070e-02 -6.996442377567291260e-02 -7.017578184604644775e-02 2.011405974626541138e-01 2.964885206893086433e-03 6.414169818162918091e-02 -1.545652449131011963e-01 4.515508413314819336e-01 -9.250129759311676025e-02 -1.349401772022247314e-01 6.978135555982589722e-02 -1.313522011041641235e-01 6.921373307704925537e-03 -1.476844400167465210e-01 -3.099762462079524994e-02 -4.862229526042938232e-02 -2.090038210153579712e-01 -3.747711330652236938e-02 1.971760094165802002e-01 -6.710182875394821167e-02 1.119330525398254395e-01 -3.308286368846893311e-01 4.451584815979003906e-01 1.022459287196397781e-02 -4.753033816814422607e-02 -9.789734147489070892e-03 -1.287663280963897705e-01 9.722729027271270752e-02 -1.272214502096176147e-01 -1.957334391772747040e-02 -6.225185096263885498e-02 -2.523797452449798584e-01
-8.372990787029266357e-02 -1.285490393638610840e-01 -1.395798474550247192e-01 1.414066106081008911e-01 -4.216972738504409790e-03 -2.582417726516723633e-01 -1.540819648653268814e-04 1.564519256353378296e-01 -2.574067749083042145e-02 1.127031221985816956e-01 -1.040039816871285439e-03 4.982795566320419312e-03 -8.643039315938949585e-02 -6.421761214733123779e-02 1.775146126747131348e-01 -4.070740565657615662e-02 -1.059969142079353333e-01 -1.270499676465988159e-01 9.789294749498367310e-02 -6.859279423952102661e-02 -1.509683579206466675e-01 -5.908519774675369263e-02 1.117647439241409302e-01 -6.344058364629745483e-02 5.227849259972572327e-02 -5.253249779343605042e-02 -6.399697810411453247e-02 4.044825956225395203e-02 5.183685198426246643e-02 1.594624221324920654e-01 -1.111366972327232361e-01 -1.007371097803115845e-01 -9.800010919570922852e-02 7.761523127555847168e-02 -6.653694063425064087e-02 -1.726029627025127411e-02 3.079297952353954315e-02 1.496190130710601807e-01 2.400173433125019073e-02 -7.705878000706434250e-03 8.292535319924354553e-03 -5.681782960891723633e-02 -8.553353697061538696e-02 -6.617166101932525635e-02 5.620433762669563293e-02 -8.480202406644821167e-02 -8.878660947084426880e-02 -8.188907057046890259e-02 3.732273727655410767e-02 -3.587363660335540771e-02 3.023089095950126648e-02 -4.286964982748031616e-02 3.872119262814521790e-02 6.211434677243232727e-02 6.492360681295394897e-02 4.368850588798522949e-02 -5.107730999588966370e-02 -6.349100917577743530e-02 5.410535633563995361e-02 -3.392045386135578156e-03 -1.551465541124343872e-01 -1.161090359091758728e-01 -1.856398433446884155e-01 3.833850845694541931e-02 -4.071802645921707153e-02 1.113068163394927979e-01 -4.801319167017936707e-02 3.170432522892951965e-02 -6.569817662239074707e-02 -5.031882785260677338e-03 5.473345890641212463e-02 -2.050832100212574005e-02 6.050585582852363586e-02 -1.387175451964139938e-02 3.454165533185005188e-02 -1.071734800934791565e-01 -1.200941428542137146e-01 -2.168570905923843384e-01 -5.788869410753250122e-02 7.385957241058349609e-02 1.077707484364509583e-01 1.938203349709510803e-02 6.664749979972839355e-02 -5.010477825999259949e-02 -3.606824204325675964e-02 -1.421096734702587128e-02 2.681381069123744965e-02 3.047046810388565063e-02 -4.282170534133911133e-02 -2.342014107853174210e-03 -1.111330017447471619e-01 -1.570591628551483154e-01 -1.130632907152175903e-01 3.967640176415443420e-02 2.222020551562309265e-02 3.319628834724426270e-01 1.091479789465665817e-02 -4.794323071837425232e-02 6.620664149522781372e-02 -1.409839559346437454e-02 -3.364415094256401062e-02 2.674053609371185303e-02 -1.388110686093568802e-02 9.309775382280349731e-02 -6.499946862459182739e-02 -1.617602109909057617e-01 -1.276459842920303345e-01 -1.733852773904800415e-01 2.516084059607237577e-04 1.225686967372894287e-01 3.502410352230072021e-01 1.095753908157348633e-01 -5.834493413567543030e-02 -6.097738072276115417e-02 -4.491950944066047668e-02 6.902312859892845154e-03 4.784057661890983582e-02 1.418675016611814499e-02 -2.405072003602981567e-02 -1.598628312349319458e-01 -1.559331119060516357e-01 -9.080034494400024414e-02 -2.140697240829467773e-01 -1.875924617052078247e-01 1.577410697937011719e-01 5.311243534088134766e-01 4.286757484078407288e-02 -2.006424814462661743e-01 4.509858787059783936e-02 -6.401434540748596191e-02 5.558130331337451935e-03 7.027143985033035278e-02 -4.513084515929222107e-02 9.824991971254348755e-02 -1.824760138988494873e-01 -1.010549813508987427e-01 -1.216783374547958374e-01 -2.141708284616470337e-01 -2.045482546091079712e-01 2.313954234123229980e-01 4.961627125740051270e-01 3.540404513478279114e-02 -2.834528982639312744e-01 3.166913613677024841e-02 -7.402050495147705078e-02 1.123364898376166821e-03 2.959239296615123749e-02 6.603223830461502075e-02 1.204905882477760315e-01 -2.469693124294281006e-01
3.140147775411605835e-02 -3.881427645683288574e-02 -3.082090243697166443e-02 -2.572331018745899200e-02 4.315235093235969543e-02 4.112345725297927856e-02 3.255982697010040283e-02 -8.744080550968647003e-03 8.870620280504226685e-03 2.199312439188361168e-03 7.368635386228561401e-02 7.478125393390655518e-03 -4.751494154334068298e-02 1.398784760385751724e-02 5.472894757986068726e-02 4.970728233456611633e-02 4.567595943808555603e-02 -6.605336442589759827e-03 2.896306850016117096e-02 7.870237529277801514e-02 -3.085475787520408630e-02 -1.419690717011690140e-02 7.283560931682586670e-02 4.714525118470191956e-02 1.102277636528015137e-02 -6.409035623073577881e-02 -1.512664929032325745e-02 -2.928009442985057831e-02 -4.910725727677345276e-02 -3.416456654667854309e-02 -1.926356554031372070e-02 -4.273846372961997986e-02 -4.158322233706712723e-03 6.155206635594367981e-02 5.536422878503799438e-02 1.287935860455036163e-02 -1.021250989288091660e-02 -7.384584099054336548e-02 4.084626212716102600e-02 -4.095371440052986145e-02 -5.446092039346694946e-02 -5.206434056162834167e-02 -1.485381461679935455e-02 -7.301033288240432739e-02 9.395013563334941864e-03 -1.228984445333480835e-02 7.545555382966995239e-02 -5.857525020837783813e-02 -5.398710072040557861e-02 -8.063002489507198334e-03 7.866587489843368530e-02 -5.561519041657447815e-02 1.001868955790996552e-02 -5.641207098960876465e-02 6.845203228294849396e-03 3.943624719977378845e-02 3.131043538451194763e-02 6.204837188124656677e-02 5.455312505364418030e-02 -4.198240861296653748e-02 6.938312947750091553e-02 5.142215639352798462e-02 3.462263569235801697e-02 7.833876460790634155e-02 -7.200480252504348755e-02 -7.282146066427230835e-02 4.219946265220642090e-02 4.823430627584457397e-02 8.335375227034091949e-03 2.626916952431201935e-02 -5.349553003907203674e-02 5.260286852717399597e-02 -4.338061437010765076e-02 4.605314135551452637e-02 1.171564683318138123e-02 -5.427407473325729370e-02 1.330852136015892029e-02 6.894925981760025024e-02 -5.571821238845586777e-03 -5.404664948582649231e-02 -4.832019656896591187e-02 -4.199755564332008362e-02 8.768087252974510193e-03 2.567770890891551971e-02 1.208653301000595093e-02 2.916592173278331757e-02 6.080817431211471558e-03 -1.153102144598960876e-02 -5.237402021884918213e-02 -3.587709367275238037e-02 -5.894529074430465698e-02 -5.169558525085449219e-02 -7.836142927408218384e-02 -5.496956408023834229e-02 -5.350032821297645569e-02 -5.193336680531501770e-02 5.659229680895805359e-02 6.018068641424179077e-02 5.289105698466300964e-03 7.181184738874435425e-02 1.881238259375095367e-02 -2.726031839847564697e-02 1.186101231724023819e-02 -5.335647985339164734e-02 -4.042484611272811890e-02 2.358239516615867615e-02 -6.092728301882743835e-02 -2.786865457892417908e-02 -4.372999072074890137e-02 -1.317494083195924759e-02 -2.671535685658454895e-02 7.410778850317001343e-02 -1.869227178394794464e-02 8.569684624671936035e-02 6.895297672599554062e-03 3.645842149853706360e-02 4.757233336567878723e-02 -3.069670312106609344e-02 3.811840713024139404e-02 -3.351982310414314270e-02 6.004342436790466309e-02 -1.485447958111763000e-02 4.373183101415634155e-02 -1.107572484761476517e-02 6.793708540499210358e-03 5.726342648267745972e-02 -2.037613652646541595e-02 -5.433249101042747498e-02 -7.124906033277511597e-02 6.239270418882369995e-02 -6.113429367542266846e-02 -1.973787881433963776e-02 -4.659272357821464539e-02 5.967114865779876709e-02 6.979763507843017578e-02 5.293907597661018372e-02 4.270734637975692749e-02 6.993047893047332764e-02 4.079732671380043030e-02 3.652610629796981812e-02 5.515148490667343140e-02 -6.328160315752029419e-02 7.689784467220306396e-02 -4.599489644169807434e-02 8.158896863460540771e-02 -6.519414484500885010e-02 4.126645624637603760e-02 4.598262161016464233e-02 2.157054608687758446e-03 3.755077719688415527e-02
8.575606346130371094e-02 -1.446279734373092651e-01 4.982783272862434387e-02 7.062780112028121948e-02 -1.848976612091064453e-01 -1.862349547445774078e-02 9.058656543493270874e-02 4.358852654695510864e-02 1.820405386388301849e-02 3.444423153996467590e-02 -1.871747672557830811e-01 3.168950602412223816e-02 3.945551440119743347e-02 -9.696689248085021973e-02 1.797174662351608276e-01 4.204842075705528259e-02 -1.108256429433822632e-01 6.391345709562301636e-02 3.657295182347297668e-02 -1.021912693977355957e-02 -2.476167865097522736e-02 -6.592444144189357758e-03 8.904718793928623199e-03 2.191984094679355621e-02 4.665052145719528198e-02 -9.648959338665008545e-02 1.519549340009689331e-01 1.031590066850185394e-02 -1.794902794063091278e-02 2.660408243536949158e-02 -2.116698957979679108e-02 -1.950531080365180969e-02 6.064010784029960632e-02 1.355417370796203613e-01 3.298638015985488892e-02 3.211707621812820435e-02 -7.981122471392154694e-03 2.412316203117370605e-02 -2.109017968177795410e-02 5.048707127571105957e-02 -6.238226592540740967e-02 3.038252238184213638e-03 -4.217570647597312927e-02 -2.067716419696807861e-02 7.991614192724227905e-02 -2.059265039861202240e-02 -9.589157253503799438e-02 -5.656687170267105103e-02 3.821790218353271484e-02 5.380063876509666443e-02 4.046759009361267090e-02 -1.543018966913223267e-02 1.125635672360658646e-02 3.958051279187202454e-02 -2.018096856772899628e-02 -3.096190653741359711e-02 1.067917868494987488e-01 -5.681125912815332413e-03 -3.063721582293510437e-03 3.523523360490798950e-02 -4.302162269596010447e-04 -8.576445281505584717e-02 1.211925502866506577e-02 -3.433739766478538513e-02 1.137299761176109314e-01 1.027931943535804749e-01 2.431111410260200500e-02 -6.306709349155426025e-02 -2.013390325009822845e-02 8.693413808941841125e-03 -2.201094478368759155e-02 3.351354598999023438e-02 -3.762916103005409241e-02 -1.496149040758609772e-02 -9.654753655195236206e-02 -3.201253339648246765e-02 -9.056630730628967285e-02 -1.134899444878101349e-03 -8.417641371488571167e-02 1.461099386215209961e-01 1.141036003828048706e-01 3.531035780906677246e-02 -7.497505843639373779e-02 3.591563180088996887e-02 4.141710698604583740e-02 -6.267040222883224487e-02 -3.212874755263328552e-03 2.855804190039634705e-02 9.586006402969360352e-02 1.685759052634239197e-02 2.936926670372486115e-02 -1.174148619174957275e-01 3.672859445214271545e-02 -7.452003657817840576e-02 2.159572690725326538e-01 -1.685470901429653168e-02 2.626410126686096191e-02 -1.128836274147033691e-01 -1.318630725145339966e-01 -6.949510425329208374e-02 9.127687662839889526e-02 -4.477039352059364319e-02 -4.767141863703727722e-02 4.586181789636611938e-02 -7.446354627609252930e-02 2.955082245171070099e-02 -7.263994216918945312e-02 -3.657841682434082031e-02 -1.511509567499160767e-01 1.705799102783203125e-01 1.107252016663551331e-01 -2.289934270083904266e-02 -1.254769861698150635e-01 -7.258475571870803833e-02 -8.078958839178085327e-02 6.121386587619781494e-02 -2.727832831442356110e-02 -9.632131457328796387e-02 8.554642088711261749e-03 -1.449784338474273682e-01 2.884715795516967773e-02 -1.576982885599136353e-01 -1.062173545360565186e-01 -1.064544990658760071e-01 2.674902081489562988e-01 -7.434471044689416885e-03 -9.671347588300704956e-02 -1.192049235105514526e-01 -2.543704956769943237e-02 2.015022933483123779e-02 1.055172532796859741e-01 -2.131200209259986877e-02 4.665471147745847702e-03 8.723944425582885742e-02 -2.124294936656951904e-01 -1.191548258066177368e-02 -1.145710721611976624e-01 -3.782267495989799500e-02 -2.109501361846923828e-01 2.284678667783737183e-01 5.774314329028129578e-02 -1.138488650321960449e-01 -1.768222749233245850e-01 -2.535557001829147339e-02 -3.656079620122909546e-02 2.134234756231307983e-01 -1.376843005418777466e-01 -5.817474797368049622e-02 9.157612919807434082e-02 -1.656887829303741455e-01
1.201089657843112946e-02 8.134961128234863281e-02 3.318149596452713013e-02 1.457761321216821671e-02 -3.663524612784385681e-02 -7.848536223173141479e-02 7.201878726482391357e-02 -3.039231151342391968e-02 2.311349101364612579e-02 3.720510751008987427e-02 6.418479233980178833e-02 7.765441201627254486e-03 -6.296467036008834839e-03 5.518979951739311218e-02 7.421743124723434448e-02 -4.979450628161430359e-02 -5.857586115598678589e-02 1.362899551168084145e-03 7.179801166057586670e-02 6.728353351354598999e-02 -6.894690543413162231e-02 3.618508577346801758e-02 2.420742809772491455e-02 9.842460975050926208e-03 2.913729660212993622e-02 -4.908993467688560486e-02 -4.356182180345058441e-03 7.830249518156051636e-02 3.423849353566765785e-03 -7.602500915527343750e-02 -1.471597328782081604e-02 -4.181209951639175415e-02 4.754205420613288879e-02 1.687633991241455078e-02 -7.213837653398513794e-02 3.151742508634924889e-03 4.091996327042579651e-02 4.903773777186870575e-03 2.058705128729343414e-02 5.976318195462226868e-02 3.729661181569099426e-02 2.501152455806732178e-02 3.969248756766319275e-02 -1.461508683860301971e-03 -1.519709546118974686e-02 -3.575269877910614014e-02 -1.081591751426458359e-02 8.070739358663558960e-02 2.953900396823883057e-02 7.757132500410079956e-02 3.609781712293624878e-02 3.936919197440147400e-02 -4.571869596838951111e-02 -2.916577644646167755e-02 -5.719554051756858826e-02 -4.949735477566719055e-02 6.829313188791275024e-02 -6.550129503011703491e-02 1.403020694851875305e-03 1.839573308825492859e-02 3.012833185493946075e-02 2.469076029956340790e-02 -7.225648313760757446e-02 -3.731569647789001465e-02 -2.799597801640629768e-03 2.501105703413486481e-02 -1.222856435924768448e-02 -5.121306329965591431e-02 -5.440049618482589722e-02 -1.167293358594179153e-02 -7.254975289106369019e-02 4.520288482308387756e-02 -4.854463972151279449e-03 -4.840195178985595703e-03 -2.072705700993537903e-02 -6.279210001230239868e-02 5.834322422742843628e-02 -6.354883313179016113e-02 -6.850671023130416870e-02 6.764607876539230347e-02 -2.901171706616878510e-02 -7.115935534238815308e-02 -5.490732565522193909e-02 -2.443199791014194489e-02 8.017542213201522827e-02 -2.722887881100177765e-02 1.858515478670597076e-02 -7.271840423345565796e-02 6.732571125030517578e-02 1.037558820098638535e-02 4.439723119139671326e-02 3.381614014506340027e-02 4.209765791893005371e-02 1.393222995102405548e-02 -2.056424692273139954e-02 4.230405390262603760e-02 -2.539167180657386780e-02 -8.024810999631881714e-02 -3.517805831506848335e-03 3.506037965416908264e-02 -8.146452903747558594e-02 -5.434170737862586975e-02 6.904334574937820435e-02 -2.228187024593353271e-02 3.063026443123817444e-02 6.690250337123870850e-02 -6.727356463670730591e-02 -1.638201996684074402e-02 -3.272738307714462280e-03 -3.472806513309478760e-02 2.859661728143692017e-02 -4.221610352396965027e-02 5.305264517664909363e-02 -3.175092861056327820e-02 3.267549350857734680e-02 3.313982486724853516e-02 -3.520533069968223572e-02 6.314262747764587402e-02 -2.330946363508701324e-02 4.801980778574943542e-02 7.768221944570541382e-02 7.848370820283889771e-02 -7.144860178232192993e-02 1.005111541599035263e-02 2.237945795059204102e-02 1.942790113389492035e-02 5.839664116501808167e-02 -1.971182413399219513e-02 -6.573984026908874512e-02 5.396880954504013062e-02 1.015578862279653549e-02 4.229987040162086487e-02 4.767707362771034241e-02 -2.093196474015712738e-02 -6.532554328441619873e-02 2.525752596557140350e-02 5.446454137563705444e-02 -4.208981245756149292e-02 -4.056439548730850220e-02 5.978221818804740906e-02 5.926783755421638489e-02 4.678418114781379700e-02 6.913553923368453979e-02 7.449453324079513550e-02 -5.080152186565101147e-04 -3.712027892470359802e-02 5.522432178258895874e-02 7.711371034383773804e-02 2.890969067811965942e-02 1.405493007041513920e-03
6.082304567098617554e-02 1.020843908190727234e-01 -7.432086765766143799e-02 -3.980902954936027527e-02 -3.870035521686077118e-03 -5.489687435328960419e-03 -9.835898876190185547e-02 -6.412353366613388062e-02 1.151488870382308960e-01 6.957006454467773438e-02 -8.229511976242065430e-02 -7.861336320638656616e-02 1.198407709598541260e-01 -2.596174739301204681e-02 1.595903635025024414e-01 -1.240856386721134186e-02 2.789937146008014679e-02 5.624266341328620911e-03 5.468858405947685242e-02 -4.415015503764152527e-02 3.326275572180747986e-02 -5.590960755944252014e-02 -8.486118167638778687e-02 -2.433580346405506134e-02 -2.049703523516654968e-02 -4.104660451412200928e-02 -3.349054232239723206e-02 1.521148830652236938e-01 2.997622825205326080e-03 8.332033455371856689e-02 -7.492075115442276001e-02 1.543589234352111816e-01 5.348306149244308472e-02 -5.667877569794654846e-02 -5.449029430747032166e-02 -1.722344197332859039e-02 -1.188007295131683350e-01 -3.797125536948442459e-03 1.068509966135025024e-01 -1.591382734477519989e-02 -5.116033554077148438e-02 3.326141461730003357e-02 6.815292872488498688e-03 -2.055549621582031250e-02 2.074115723371505737e-02 1.674561202526092529e-02 5.245260149240493774e-02 -2.682345802895724773e-04 5.813340470194816589e-02 -9.024924039840698242e-02 1.212461367249488831e-01 -8.551843464374542236e-02 5.500615760684013367e-02 2.239006385207176208e-02 -9.190657176077365875e-03 7.418794929981231689e-02 -4.571229219436645508e-02 4.638385400176048279e-02 -1.089557632803916931e-01 1.273772679269313812e-02 -9.101616591215133667e-02 7.325780391693115234e-02 -4.342188686132431030e-02 -5.050037056207656860e-02 -1.229135170578956604e-01 5.318975076079368591e-02 1.928236335515975952e-02 1.303696781396865845e-01 -4.402514547109603882e-02 -3.350600972771644592e-02 -2.691294066607952118e-02 4.725880548357963562e-02 -1.102892383933067322e-01 -7.215704023838043213e-02 -6.105408445000648499e-02 -1.775262132287025452e-02 2.239998243749141693e-02 6.868837773799896240e-02 -5.565140023827552795e-02 -3.114191815257072449e-02 1.632919311523437500e-01 8.900713175535202026e-02 4.932131990790367126e-02 -6.612303853034973145e-02 3.763376548886299133e-02 2.223512390628457069e-03 2.413049573078751564e-03 -1.276570707559585571e-01 1.175140030682086945e-02 -5.014031752943992615e-02 5.759391188621520996e-02 8.943354338407516479e-02 6.169205904006958008e-02 -7.893251627683639526e-02 -1.634942144155502319e-01 1.251586675643920898e-01 4.383653029799461365e-02 9.245858341455459595e-02 -1.061459705233573914e-01 2.876225672662258148e-02 7.327923178672790527e-02 -5.702968686819076538e-03 -1.328354924917221069e-01 -4.860762506723403931e-02 -9.617568552494049072e-02 -4.988496005535125732e-02 7.112970203161239624e-02 2.164833014830946922e-03 -8.745658211410045624e-03 -2.202500104904174805e-01 2.712838351726531982e-01 1.303249746561050415e-01 1.862763017416000366e-01 -1.221843734383583069e-01 -2.623414434492588043e-02 5.589392036199569702e-02 7.236994057893753052e-02 -2.077353000640869141e-01 -5.708906799554824829e-02 -1.749153435230255127e-01 -3.029722906649112701e-02 5.716897547245025635e-02 -6.201976165175437927e-02 -6.638335436582565308e-02 -1.034630462527275085e-01 1.890641301870346069e-01 2.178074419498443604e-01 9.665153175592422485e-02 -1.218169629573822021e-01 5.472324416041374207e-02 9.559298306703567505e-02 5.481687933206558228e-02 -1.972784399986267090e-01 -5.333854258060455322e-02 -2.735403478145599365e-01 1.424871012568473816e-02 1.441842317581176758e-01 5.025317892432212830e-02 -9.239508211612701416e-02 -2.737590074539184570e-01 2.659092247486114502e-01 2.631535530090332031e-01 2.242805361747741699e-01 -2.280239015817642212e-01 9.226476401090621948e-02 1.638030558824539185e-01 9.595287591218948364e-02 -3.038074374198913574e-01 -1.467464268207550049e-01 -3.465763330459594727e-01
