-7.461550086736679077e-02
-1.416901405900716782e-02
1.835889182984828949e-02
-1.814085990190505981e-01
-1.336395293474197388e-01
-9.247954003512859344e-03
-5.446278676390647888e-02
1.684493571519851685e-01
2.205000072717666626e-02
-3.035651147365570068e-02
-1.112599391490221024e-03
-2.003556340932846069e-01
4.012534022331237793e-02
-7.261828053742647171e-03
7.180849462747573853e-02
2.430844120681285858e-02
-1.121636033058166504e-01
-5.002978444099426270e-02
4.239887371659278870e-02
-1.500180512666702271e-01
2.437444962561130524e-02
-4.869035631418228149e-02
-7.383634895086288452e-02
-1.617600917816162109e-01
5.405858159065246582e-02
1.112228445708751678e-02
-2.123909816145896912e-02
-1.995901577174663544e-02
1.703132241964340210e-01
1.007712036371231079e-01
-6.127303466200828552e-02
-8.434509485960006714e-02
1.743682771921157837e-01
-1.661605238914489746e-01
-6.691411137580871582e-02
-8.888371288776397705e-02
-8.747019618749618530e-02
-2.182120829820632935e-02
1.030844729393720627e-02
-1.616939306259155273e-01
-1.359621901065111160e-02
-7.366136461496353149e-02
-7.094136625528335571e-02
5.845108628273010254e-02
6.722106784582138062e-02
1.350865419954061508e-02
-1.492103189229965210e-01
-2.240811288356781006e-02
-7.989591360092163086e-02
-8.811070770025253296e-02
3.176173940300941467e-02
2.181254513561725616e-02
-2.804436907172203064e-02
-1.296997964382171631e-01
-2.708451356738805771e-03
-6.743581593036651611e-02
4.608909133821725845e-03
-4.150206968188285828e-02
6.863370537757873535e-02
-1.471003144979476929e-01
-4.605333879590034485e-02
6.765698641538619995e-02
-3.212577849626541138e-02
6.767746806144714355e-02
3.589182719588279724e-02
-1.567920297384262085e-02
-1.196935400366783142e-02
-1.502833217382431030e-01
-1.944283209741115570e-02
-7.055031135678291321e-03
-4.284558445215225220e-02
-6.938782334327697754e-02
-8.223045617341995239e-02
-2.642991021275520325e-02
3.472658619284629822e-02
3.002679347991943359e-02
-1.058810576796531677e-01
2.662556432187557220e-02
-2.360340580344200134e-02
4.040468856692314148e-02
-4.703931510448455811e-02
-3.057576157152652740e-02
1.046218201518058777e-01
-6.737292744219303131e-03
3.188212588429450989e-02
-1.300541311502456665e-01
-1.521117892116308212e-02
-2.750037238001823425e-02
-1.905895583331584930e-02
1.767322048544883728e-02
7.468066364526748657e-02
-4.299100488424301147e-02
-7.160618901252746582e-02
5.554509535431861877e-02
2.249595709145069122e-02
4.085246473550796509e-02
1.862029172480106354e-02
-7.953998446464538574e-02
6.997203826904296875e-02
4.818992316722869873e-02
